-0.02031270,0.03748820,-0.01792944,-0.01431191,-0.02472120,0.00251088,0.00265191,0.02267919,-0.02897588,-0.02322650,-0.02214719,-0.03874823,0.03185288,-0.02884040,-0.04984576,0.02431995,0.01047318,-0.00691130,0.04005918,-0.02313444,0.02614373,0.02193536,-0.04600845,0.00187368,-0.03528057,-0.01064107,-0.04483801,-0.03360054,-0.02702981,0.03898648,0.00344864,-0.02513873,0.01626122,0.02243918,0.01069053,0.00047414,-0.01806781,0.04193297,-0.00289369,0.00654618,-0.03330640,-0.03974609,-0.00867425,-0.01965291,0.02890895,0.02041974,0.00149111,-0.04727278,0.03754609,-0.03599775,-0.02250221,-0.03450969,-0.04693362,0.00796691,0.00805401,0.01002022,-0.03881693,0.00620149,-0.01901325,0.04329562,-0.02293448,-0.01663729,0.03192301,0.04440625,-0.00716012,0.03044845,0.01005738,-0.02198145,0.02466847,-0.02167562,-0.04224301,0.01320497,0.04567883,-0.03289132,-0.00124023,0.04113725,0.02467669,0.01493628,-0.00128169,-0.04102458,0.02851936,-0.04817298,-0.03746449,-0.03067723,-0.03575236,-0.01293577,0.02127523,0.04356376,0.01915588,0.02651442,-0.03300930,-0.04433927,-0.02109669,0.04830611,0.00176984,-0.00268822,0.03895107,-0.04559484,-0.02917756,0.01376456,-0.04819332,0.00184164,-0.02091363,-0.01979491,0.04178945,0.02756918,-0.00558686,-0.04909730,-0.02958542,0.00768926,-0.00335299,0.00830031,-0.01594607,0.01466611,0.04711843,0.03512818,0.04623013,-0.04457904,0.03917396,0.01162471,0.01074507,-0.01371875,-0.02023301,0.03262224,-0.02230571,-0.00517018,0.00957212,-0.03482255,0.00661809,-0.03605815,-0.01051904,0.01636292,0.02043148,0.00819731,0.03810504,0.00014908,-0.00950528,-0.02048334,-0.00444594,-0.00009475,-0.00739964,0.02115908,-0.02035664,-0.02563958,0.00294313,-0.02239496,0.03489643,-0.02691922,0.02642252,0.00367795,0.02233592,-0.04965254,0.00805314,0.03770513,-0.01787855,-0.01411509,0.03352330,0.01599961,0.02672793,-0.01865289,-0.03295851,0.03178078,-0.00122530,0.03892385,0.04742051,-0.02402714,0.02982873,-0.03999659,0.03995260,-0.00421642,0.02375109,0.00704728,-0.02572903,-0.00644356,-0.03624882,0.04569606,-0.00521891,-0.01898585,-0.03360063,0.03833215,-0.04151287,0.03399533,-0.01370048,0.01582300,-0.02219094,0.03141265,0.03129930,-0.04005354,0.02311500,0.02392088,0.03218761,-0.01629358,0.01251822,0.03510174,0.04989805,-0.02124914,0.03906639,-0.03685972,-0.00110815,-0.01454388,-0.01352183,-0.01897606,0.00277962,0.02202892,0.04268366,-0.01101012,0.02968988,-0.03731636,0.02818385,0.01305877,-0.01566280,-0.01448099,0.00098727,0.04455021,-0.00943034,-0.00608295,-0.03732568,0.02868139,-0.02784409,-0.02809816,0.02921164,0.01576648,-0.00630481,-0.02215414,-0.00474809,0.01171817,-0.04240457,-0.02635190,0.03914976,0.02078191,-0.03876726,0.02963326,-0.04963363,0.02207625,0.03080530,0.00972944,-0.03029027,0.04130910,0.02712992,-0.04279484,0.01544118,-0.01726747,-0.02542359,-0.02223907,0.04035382,0.04985446,-0.00104531,0.03445406,0.03699148,-0.03730632,0.01208071,-0.04104785,0.04870478,-0.04443619,-0.03469100,0.03413131
0.02385883,0.01676035,-0.00542951,-0.02547420,-0.00038901,0.04542572,-0.04093017,-0.00073663,-0.04598493,-0.01163568,-0.02636129,0.03108577,0.00425074,-0.04862147,-0.00454096,-0.02950971,-0.02021763,-0.03038461,-0.04326172,-0.00027024,-0.03667083,0.02047751,0.02575398,-0.00103388,-0.02887378,-0.00928639,-0.01433586,0.04075033,-0.03976773,-0.04068454,-0.04599667,-0.01382675,-0.02304923,0.00914813,-0.04927360,-0.02573553,-0.03984238,0.02864876,0.03563065,0.04739199,-0.02284149,0.00474956,-0.00655372,0.01482834,0.03781792,-0.01334858,-0.03294134,-0.00049432,-0.03474222,-0.03654050,-0.04753311,0.01118026,-0.02027647,0.01724280,0.00077702,-0.02457497,0.00389739,-0.01156686,-0.03458830,-0.01116557,0.00649550,-0.01264669,-0.03774284,-0.04772998,-0.02403008,-0.02235752,-0.02635279,-0.01470223,0.02229338,0.03824795,0.03797871,-0.02772379,-0.00638035,0.02107130,-0.04424409,0.03582538,0.01628289,-0.01900198,-0.03495566,0.01281549,-0.01872369,0.01594964,-0.02291520,0.03512213,0.04675948,0.04402283,0.03816557,0.00594212,-0.04357304,-0.02563100,0.04979431,-0.03783065,-0.03221242,-0.02220914,-0.00771242,0.03340373,0.02034793,0.02011865,0.00624749,0.01540177,0.02063474,-0.03477231,-0.00632244,-0.00198539,0.01146352,0.03549553,-0.01289409,0.02345856,0.04737887,0.01967588,0.02148059,0.00713860,0.04591689,0.01531992,-0.02589533,-0.04705989,-0.02840562,0.01405111,0.00006614,-0.01057014,-0.00244490,0.04139646,0.02926971,0.04471248,-0.04284538,0.03924257,-0.04391189,0.00555046,0.04948327,0.02628599,0.02054556,-0.00062495,0.03659830,-0.03101560,0.01396133,-0.00956818,-0.03703928,0.02537322,0.03230681,0.03431923,0.02462387,-0.03131989,-0.02040407,-0.04533605,0.02034828,0.03807456,0.01390305,-0.00148871,0.03121091,-0.02563771,0.03555436,-0.00599356,0.00536811,0.00336385,0.03413935,0.00753494,0.04927271,-0.02416520,0.04723062,-0.04267522,0.01805067,-0.02489516,-0.00493198,0.04680829,0.02909656,0.04349403,-0.01842581,0.02180767,0.02704552,-0.03628222,-0.02296693,0.02806759,0.04749784,-0.01000565,-0.01871035,-0.00423950,-0.02207030,-0.03113556,-0.03355252,0.01283892,-0.01243068,-0.04112515,-0.00857373,0.02157081,-0.01390198,0.02913835,0.01928826,0.03766758,0.03345794,-0.00655248,0.04824710,0.00477246,-0.00687013,0.02774198,0.00677592,0.04161397,0.02147040,-0.02388405,-0.02287921,-0.01985952,0.02282371,0.00066948,-0.01057243,0.04765882,0.00159686,0.00433914,0.02549944,-0.03104911,0.04143838,-0.00448561,0.02054681,0.01454541,-0.03392403,0.01693429,0.01085931,-0.03403606,-0.00110756,0.02547776,0.01775329,0.01943877,-0.02461604,0.04569175,0.03098683,0.00061325,0.04159090,-0.01833807,-0.01112837,0.01582450,-0.04684684,-0.02873632,-0.02726733,0.01693429,-0.02319301,-0.00433838,0.04016119,0.04652487,0.02670969,-0.03177616,-0.02326665,0.02242731,-0.01301338,0.00531797,-0.00850336,-0.01488685,-0.03338101,-0.00250822,-0.03249289,0.00119793,0.00845603,0.02877367,-0.03502897,-0.02488715,0.00479837,-0.01659448,-0.00934453,-0.00024879
0.00694250,0.02640611,-0.04140516,-0.00348946,-0.02715221,-0.00495203,0.02563743,0.00440101,0.03046953,0.03722007,0.03323985,-0.01873669,-0.01141870,-0.00507232,0.02068493,-0.03588405,0.03107264,0.03545651,-0.01193433,0.01694045,0.03128925,-0.00212337,0.02681574,-0.04171752,-0.03863106,0.01499486,0.03818122,0.03428623,-0.00017929,0.03662188,-0.03603618,0.03942715,-0.04739921,0.01686598,0.00492587,-0.04278844,-0.00966968,0.01635728,0.03978788,-0.00341274,-0.04341809,-0.04192859,0.02916345,-0.04210024,0.00747343,-0.03536940,0.04002394,0.00244220,-0.00539722,0.04633183,0.04705061,-0.01351805,-0.03000557,0.04268349,-0.04016706,0.01934342,-0.02877119,0.00311040,-0.00582059,-0.03536117,0.00962170,0.03359043,0.00157082,0.04304387,0.01369092,0.01031289,-0.03223518,-0.02823969,0.01742784,0.02395746,0.01030630,0.00115434,-0.02244467,0.03954374,-0.03371615,-0.04422610,0.03111580,0.00152470,0.04762397,0.01538727,0.03803102,-0.02919298,-0.00019617,-0.01919407,-0.02388049,-0.03154321,0.01445038,0.02027960,0.03522661,-0.00439846,0.03864584,-0.03838373,-0.02391609,0.03807621,-0.00226376,0.01991523,-0.02361177,-0.03647245,-0.02509794,0.00997721,0.01777287,-0.00303100,-0.02685503,-0.04014549,0.02984764,-0.02536661,-0.00333705,0.03245134,0.03969507,0.03191826,0.02382533,-0.00382689,0.04396948,-0.03421353,0.02618502,0.01541535,-0.03730798,-0.01115514,-0.00788949,0.03369942,0.01205362,-0.01744392,-0.02065676,-0.01200235,0.04279259,0.02937936,0.01856861,0.04377959,-0.02939996,-0.01412969,0.04381267,-0.00075234,0.04525286,0.02546940,0.03482079,-0.01902126,-0.04598841,0.04176513,-0.03593399,-0.02933688,0.03444897,0.01987205,-0.01229377,-0.02566155,-0.00248219,0.04016421,0.00112419,-0.01034579,-0.03038611,0.04809767,0.04874170,-0.01975260,0.01021246,-0.04616081,-0.02669481,0.01331889,0.02335477,0.02608378,0.04851767,-0.04953153,0.02364511,-0.03851871,-0.01560483,0.02517106,0.02878754,-0.01522858,-0.00328947,0.00834792,0.04082979,-0.03509035,-0.04955775,-0.02723663,0.03261621,-0.04960097,0.04043904,0.02550415,-0.04847616,0.03474965,0.02104997,0.04681225,0.04110189,0.00037446,0.01639587,0.00395346,-0.01652315,-0.04945316,0.04612039,-0.00762523,0.03745103,0.03793198,-0.00651661,-0.01917851,-0.01516544,-0.02616057,0.04049442,-0.04145630,-0.04242633,-0.02053892,0.03390438,-0.00092221,-0.01958920,-0.01792023,0.03645774,-0.00059969,0.02277112,-0.01734039,-0.00501842,-0.03000430,0.00056172,-0.04790765,0.01296288,0.03467977,-0.01455960,0.04960919,-0.04712705,0.00500646,-0.02454254,0.01754323,0.00764681,-0.02761623,0.02092377,0.00288961,-0.03434407,-0.01070303,-0.02529278,-0.00730093,-0.00554655,-0.02227329,0.00425447,-0.03925481,0.00110714,0.02168429,-0.00390980,-0.03818622,-0.01216570,0.01764716,0.03886785,-0.01938181,0.04214040,0.00293549,0.04825975,0.02536360,-0.04239275,0.04794118,0.00696688,-0.02483204,0.01840660,-0.04492198,-0.02463882,-0.02926784,0.03714264,-0.00301481,-0.04041395,-0.02695194,-0.03152794,-0.04288044
-0.02582258,0.03764158,-0.04790447,0.03795934,0.00224430,-0.03798176,-0.01512030,-0.04637257,0.04733200,-0.00470082,-0.04964408,-0.03037305,0.04941927,0.04766510,-0.04948415,0.02467323,-0.03633928,-0.02440747,0.04061892,0.04302498,-0.02427248,0.04807919,-0.03093075,-0.00027104,-0.00693609,-0.01619989,-0.03729300,-0.04070428,-0.02636782,0.01655004,0.01476152,0.00626491,0.01822937,0.01862514,0.00327219,-0.01009011,-0.01942544,-0.02230174,0.04080505,-0.00379091,0.00768732,-0.01884593,0.00607587,0.01187159,-0.01373989,-0.01478837,-0.00815265,-0.04749330,-0.02008231,0.04430750,-0.01088278,0.03539307,0.04016275,0.01400933,-0.02353468,-0.00091566,0.01934830,0.00223170,-0.03284011,-0.00802670,-0.02986963,-0.01190872,-0.00207733,0.04124390,0.01238162,-0.03123911,-0.00998349,-0.02258834,0.04545650,-0.00485398,0.00598280,0.02118750,-0.00694216,0.01815211,0.02626919,-0.00305811,0.03705976,-0.03124262,0.03072594,-0.03796096,0.04504703,-0.03424808,-0.04521900,0.04681560,0.04694873,0.03085145,0.02427453,-0.04797235,0.04955104,-0.02146318,0.01179563,-0.00760847,0.03931560,-0.00603204,0.00583990,-0.01839517,0.01193983,-0.02047166,-0.02591348,0.04900402,-0.00411483,0.00068043,0.00079033,-0.00978596,-0.04237397,-0.04082827,0.03701500,0.00206670,0.04633011,-0.02291110,-0.00265676,0.04997214,-0.01030174,0.04061565,0.04892243,0.02731777,0.00830168,-0.02720851,-0.01119604,-0.01433997,-0.00733305,-0.03709405,-0.01561018,0.04712061,0.00016283,-0.03528478,0.04580745,-0.03097892,0.04194457,-0.03017027,-0.02454774,0.04654087,-0.01151514,-0.01493658,0.04935165,-0.00548816,0.01653594,0.03181222,-0.02860967,0.01516590,-0.01261289,-0.01179895,0.04835382,-0.01556283,0.03291459,0.02584151,-0.03120156,-0.00142085,0.00258985,0.00225177,-0.03940601,0.04411577,-0.02778219,-0.02251221,-0.00228129,-0.02830331,0.01840815,-0.00796183,-0.01675390,0.03303589,-0.00768418,-0.00055940,-0.04775789,0.03963261,0.02337312,-0.01294733,0.02349344,0.02357371,0.02380568,0.00790076,0.03743480,0.01776588,-0.01337065,0.03006872,0.04580483,-0.01822507,0.02335525,0.01231201,0.02107871,-0.04286606,0.02750400,-0.04225723,0.00920188,0.01977001,-0.04476855,0.04602236,-0.03011318,0.02697888,-0.04170472,0.03059178,0.00729705,0.02389569,-0.04279190,0.02746002,-0.00992229,-0.04841568,0.04625146,-0.01897497,0.04761014,-0.00707215,-0.02032778,-0.01875690,0.02051512,-0.04518478,0.04503537,0.04488531,-0.00707341,0.01975508,-0.03844588,0.00963854,0.03309165,0.01854058,-0.01454615,0.01570683,-0.00402540,-0.02631132,0.01209862,-0.03345469,0.01975438,0.02392708,0.01713652,-0.02567967,0.00139772,-0.02454104,0.00622585,-0.04025605,0.04206288,-0.04420330,0.01083777,-0.04150415,0.04443037,0.00767013,0.02474192,-0.00662490,0.04373987,0.01147921,-0.00727792,-0.01275881,-0.03788786,-0.00295022,-0.02863449,0.04610411,0.02201426,0.03884593,-0.01153275,0.00855352,-0.01319511,-0.02219332,0.00792522,-0.04942808,0.01719572,-0.03717767,-0.01154442,0.02849945,0.04562569,0.03482617
-0.03367012,-0.04042083,-0.01181841,0.02457937,-0.04715789,-0.02596339,-0.01647147,0.04496982,0.00207330,0.01047690,0.01901586,0.01080342,0.02580795,-0.03927188,0.00808592,0.00381798,-0.00258309,-0.00964520,-0.02635268,-0.01219567,0.04681866,0.02510472,-0.02039989,0.04327575,-0.01781414,-0.01745906,0.04137169,-0.01283658,-0.01054444,-0.00352780,-0.04584121,-0.04670336,0.00901634,0.02914837,0.03052297,-0.03338414,-0.00695003,-0.04324431,-0.02383506,-0.03139362,0.04355894,-0.02946705,-0.03046697,-0.00147970,-0.01104551,0.01509791,-0.04795540,-0.04534916,-0.02140011,-0.03207732,0.00769928,0.00651076,0.02021829,-0.01190203,0.00725244,0.04224686,0.02041538,-0.03967216,-0.04109776,-0.01804981,-0.01740716,0.01358407,0.01789769,-0.01162377,0.03930609,0.03717053,-0.00686600,0.01962679,0.04661492,0.02538424,-0.00198229,-0.03001970,0.03177071,-0.01366625,0.01926096,-0.03660485,0.01475758,0.00282634,0.01821188,0.01820207,0.02684459,-0.02436762,-0.00895975,0.03520066,-0.04770301,0.03315178,-0.00977198,0.01116337,-0.04687263,-0.00483311,-0.00664365,-0.02744569,-0.02291214,0.03545644,-0.01669237,-0.03242771,-0.00127668,0.03342419,0.04209251,-0.04963881,0.04577661,-0.04042327,0.01703344,0.00752593,0.00963825,0.01827027,0.00926983,-0.03141988,-0.03493208,0.01656204,0.02279354,0.01471113,-0.00368903,-0.00682574,-0.04071087,0.02107359,0.01662043,0.04229839,-0.00222004,0.01978874,0.03026255,0.04750259,-0.04419224,-0.03519921,-0.01291076,-0.03766872,-0.02412852,-0.03661768,-0.03219901,-0.00254538,0.03199074,-0.03292708,-0.03516465,0.04733763,0.01550552,0.01466594,-0.03377450,0.04049559,0.01804758,0.01434419,0.04737734,0.04815874,0.03388552,-0.04732252,-0.03236675,-0.02434646,0.04844882,-0.04134125,-0.03262427,0.01863279,-0.03836805,0.03490506,0.02714327,0.04596656,0.03658969,-0.02538986,0.02184284,-0.03270978,-0.02702792,-0.04458684,0.02562937,-0.00716886,-0.03014367,-0.04242398,-0.01337204,-0.01050023,-0.01479151,0.01420511,-0.01321819,-0.04179351,-0.03400230,0.02879409,-0.01964707,-0.02294864,0.01061800,-0.03732253,-0.00079946,-0.01746018,0.00399608,-0.03192534,0.02705652,-0.04230101,-0.04508475,0.02805954,-0.04258192,-0.04572011,-0.03649002,-0.00462057,-0.03769998,0.00496033,0.02558991,-0.03007979,-0.01489944,0.04309731,0.02759418,-0.03010920,-0.00361567,0.03026710,0.02292266,-0.00181754,-0.01421393,-0.00021363,0.00309069,0.02793017,-0.00506991,0.02542153,-0.03858446,0.02628688,-0.01889205,-0.00999961,0.04194235,-0.03795141,-0.04559123,-0.02552272,-0.00741125,-0.00926887,-0.00212756,-0.00968601,-0.04411128,-0.00301739,0.03377890,0.01348219,0.04746034,-0.03961217,0.03349001,-0.01809831,-0.02633215,0.04605022,-0.04177616,-0.02302884,0.02766310,0.02390398,0.03512028,0.00460419,0.00181035,-0.01360308,0.03795302,0.02634343,-0.03424286,-0.01418120,0.02775813,-0.02531185,0.00095145,-0.01741241,-0.03237946,-0.02679517,-0.04541605,-0.00312246,0.04889319,-0.02244237,0.03762177,0.04001224,0.04046856,-0.01185803,0.00895888,-0.01965551
-0.03666525,-0.04316720,-0.03187509,-0.03991494,0.02065118,0.03601761,-0.01892365,-0.02094841,0.00040793,0.00361183,-0.03569245,0.02597803,0.02823121,0.01962316,-0.03908233,-0.00482800,0.02904666,0.01546904,0.03506602,-0.00739144,-0.01550339,0.00497780,0.01229368,0.02566035,0.01606690,0.02345205,-0.04645801,-0.02421863,0.00915519,-0.02121634,0.03124196,-0.01400497,-0.01315095,-0.02167155,0.04734492,0.04028453,0.02304814,-0.03955983,0.02180507,0.02286691,-0.01342018,-0.03719689,0.03205911,0.01298416,-0.00531363,-0.01690686,0.04655429,0.03208137,0.01623662,0.01164056,-0.03752240,-0.00732179,-0.02508534,-0.00599660,0.02581093,-0.04094722,0.04259672,0.04584626,-0.04757105,-0.01161753,0.02371530,-0.03022597,-0.00731973,0.03861642,-0.01784248,0.01452792,-0.00078952,-0.04639126,-0.01220696,-0.04928525,0.03819204,0.00681972,0.00894750,0.04843728,-0.04913048,-0.02362018,-0.04506186,0.03480916,-0.02999101,-0.04951035,-0.04565590,0.01174273,0.01881865,-0.01068366,-0.04631680,0.02264084,0.00880741,-0.04950522,-0.03516302,0.00047138,-0.01685562,0.00252007,-0.01195981,0.00239185,-0.01741805,-0.01725359,-0.02336891,0.02846684,0.04170598,0.00598808,0.00288763,0.03945128,0.00772132,-0.03545709,-0.04048217,-0.00804155,0.00077549,-0.02231746,0.02310223,0.00770191,-0.04894940,0.04440841,-0.00871034,-0.03032862,-0.01508832,0.00606532,0.01023475,-0.03925645,-0.03810979,0.04156150,0.00164176,0.01169042,-0.03726312,0.04178888,0.00105976,-0.02436633,-0.01545107,-0.01438192,0.01114071,-0.01914406,-0.01311837,-0.04878586,0.04533416,0.02429567,0.03211012,-0.01441417,-0.02199399,-0.00176411,-0.01546206,-0.04247742,0.00607531,0.01632798,0.04828573,-0.02358494,0.00764932,-0.01409003,0.03336064,0.04882649,0.02017765,0.02674994,-0.01422296,-0.02948484,-0.04462497,0.03238987,-0.00514124,0.01715190,0.02397270,0.03960657,-0.02958795,0.00767729,0.02050593,0.03604649,-0.01449325,-0.04697705,0.01278430,-0.00305111,-0.02487282,-0.01590089,0.03099437,-0.02444376,0.03276218,-0.00968437,0.03890153,-0.01443657,0.03469229,0.01091624,0.02134056,0.03638916,0.00632193,-0.03144998,-0.00881638,0.00254080,-0.02497153,-0.03390915,0.00234871,-0.01025464,-0.01629533,0.04758120,-0.03733160,0.01037734,-0.04328081,0.01809246,0.00223904,0.04390689,-0.03525539,0.03681457,-0.04085011,-0.01458927,-0.02803510,-0.04883311,-0.00147559,-0.02467849,0.01424498,0.03725410,-0.03331313,0.04513684,0.04269809,0.00058713,-0.04829372,-0.03861948,0.03348890,-0.04128091,-0.01760487,0.00846051,-0.01109817,0.01839993,0.01385785,0.03374346,-0.00493742,0.01824012,-0.00201487,0.03899642,-0.02438753,0.03838667,0.00667407,-0.01937597,-0.04741684,0.02808855,-0.02530285,-0.02401163,-0.01344974,-0.02584226,0.02645197,-0.01192999,0.01237036,-0.01987747,-0.04903478,0.00173752,-0.04736751,0.02356711,-0.04838276,-0.04448507,0.03954745,-0.00576898,0.04598437,0.04043970,-0.04563272,0.03470878,-0.03179822,0.00810063,-0.03228609,0.03387230,0.01696792,-0.02315671,0.01234260,-0.00417721
-0.02630465,0.02507948,0.02353209,0.03694842,-0.03417066,-0.00370082,-0.04298470,-0.03607325,0.04876855,-0.02431113,-0.01023141,0.00496435,0.00223351,0.03866820,0.03483853,0.02742925,-0.04921236,-0.02365966,0.00357728,0.02282586,0.01213187,-0.02083982,-0.00039808,0.02081871,0.01713080,0.02452419,0.02218815,0.03121549,-0.04042041,0.01406678,0.02976147,0.00996874,-0.01502549,-0.01131486,0.00150141,0.01232071,-0.03309757,0.04179358,0.03398247,0.04359468,-0.03366215,0.04206206,-0.00952709,-0.04635138,-0.02317731,-0.01016458,0.02490647,0.02462170,0.04621102,0.01625119,0.04663393,-0.04995400,0.00287326,-0.02084885,-0.03943206,-0.02781755,-0.04611620,0.02276105,-0.04070131,0.03970900,0.00413273,-0.00107866,-0.01276391,-0.02789142,0.00022579,0.04542185,-0.01782175,-0.03051491,0.04177342,-0.03718417,0.02693814,0.03809518,0.01882223,0.01867352,0.02268383,0.00276850,0.04145193,-0.02360482,0.01541073,0.03757634,-0.00352431,-0.00389924,0.04134240,0.03942231,0.01724017,-0.04379576,0.01267409,0.00077022,0.01009185,0.02532424,0.01913777,-0.01948567,0.03315410,-0.01047014,-0.02353773,0.00109227,0.04941154,0.01941380,0.00777439,-0.03189889,0.02894234,0.03895612,0.01017962,-0.01726316,0.03113755,-0.00002310,0.04651063,0.03935837,0.04386940,-0.01088256,-0.00703717,-0.00728985,-0.01710248,0.00058280,0.01904694,-0.04908593,-0.01228862,-0.01565926,-0.03717840,0.03593269,-0.01860359,0.01561802,-0.04616198,-0.03467072,0.02332949,-0.00673800,0.00042835,0.04021323,0.02621181,0.04327575,-0.00878671,0.04255605,0.03464327,-0.00849328,-0.01328153,-0.02556317,0.00555435,-0.01180415,0.04320805,0.02703035,-0.04868986,-0.00223005,-0.02324806,0.02276220,0.01120353,0.02427830,0.03959658,0.01871237,-0.00082462,-0.00747180,-0.04108042,-0.01594629,0.04582632,0.00899522,-0.04762633,-0.02001271,0.00163200,-0.03089705,0.00962429,-0.01895140,-0.01729934,-0.04465472,-0.01624867,-0.00442221,0.04155714,0.03570831,0.01980161,-0.01541868,0.02916817,-0.01489696,0.03057883,0.04740618,-0.02260290,-0.00269178,-0.02819634,-0.04830012,-0.02836291,-0.04115420,-0.00474495,-0.03863699,-0.00439815,-0.04862015,0.03798847,-0.01717051,-0.00608344,0.02647053,-0.00828350,0.00885564,-0.00836542,-0.02514857,-0.04047770,0.04726223,0.03303929,0.02410058,0.01455804,0.04088361,0.03982684,0.04994033,-0.01334880,-0.04650659,-0.00397755,0.02902525,0.00697132,-0.02748950,-0.00312350,0.04718861,0.04971072,0.02798187,-0.04987184,-0.03979599,-0.02569018,-0.01273506,0.00754280,0.03800445,0.04311759,0.03067235,0.00736529,0.04481827,0.03987441,-0.03121220,0.04551097,0.00532604,-0.02583396,-0.01738551,0.02815493,-0.00614013,-0.02693122,-0.01028995,0.00595418,0.01792317,0.04496565,0.01017405,-0.00306448,0.02615723,-0.03717054,-0.04773156,0.04978384,-0.02667672,-0.02053320,-0.03962110,-0.00107985,-0.00371934,0.00123132,0.00175519,-0.02321744,0.02545177,0.03139723,-0.02385384,-0.04880883,0.00131113,-0.00357555,-0.00188540,0.04625007,-0.00759682,-0.01986090,0.01849848
0.00080379,0.02984181,-0.04987700,-0.00704322,-0.00347372,-0.04220312,-0.02127984,0.02261182,-0.00607185,-0.03473763,0.04117941,-0.02654213,0.00351275,-0.01864334,0.01938802,0.00030695,0.02018212,-0.04635682,-0.01902098,0.04311169,-0.03841496,-0.04778756,0.01570525,-0.01899309,-0.04161996,-0.02263517,0.04316953,0.00850482,0.01011958,-0.02608666,0.01960707,0.02974159,0.01347881,-0.04182905,0.00278037,0.01828209,-0.04096271,0.04965810,0.00773663,-0.03806009,0.04233193,0.03471315,0.01521360,-0.04706715,-0.00686658,-0.04374489,-0.01610203,0.00201090,0.02721506,0.00470370,0.02006902,-0.03233716,0.01078843,-0.02978836,0.04728695,0.02217668,0.01071910,0.02747679,-0.02939462,0.02684746,-0.01138027,0.01632984,-0.00786353,0.02619896,0.03705753,-0.04114097,0.00608996,0.00502744,-0.04731300,0.01174113,0.00062587,-0.03994103,0.03190085,-0.00591019,-0.00852768,-0.03975110,0.03371704,-0.04557475,0.03326431,-0.02924224,-0.03578939,-0.01787508,0.01744077,0.00194395,-0.02281961,0.04892504,0.00236250,0.04368882,0.04628981,-0.03137241,0.02613455,-0.04655603,0.00488807,0.03707056,-0.01579171,0.03451316,0.04271606,0.01385469,0.04441465,0.02195138,0.02263569,-0.00769577,-0.00912236,-0.04841643,-0.02102606,0.00105413,0.04058542,-0.00297633,0.03550423,0.03287405,0.01632761,-0.01388495,0.00534478,-0.01997583,0.02350305,-0.03466224,-0.01686512,-0.02015354,-0.02280399,-0.00653253,-0.03715544,-0.04993783,0.04364542,0.04839147,0.04883273,0.04608950,-0.04316206,0.03616721,0.00300295,-0.00140544,0.01435066,0.03353802,0.03547128,0.00059948,0.02775583,0.00684141,-0.01970023,-0.00577340,0.01816525,0.00809605,-0.04900306,0.01981980,-0.01713665,0.03927777,0.04058398,0.02106381,-0.01451349,-0.02394755,0.04823886,-0.03481254,0.02099368,0.00781079,-0.02885870,-0.03130736,-0.02040177,-0.04912860,0.00481651,-0.04779817,-0.04081743,0.00605541,-0.03940961,-0.03885365,0.03024887,-0.02540164,0.04558529,-0.04731311,0.00902445,-0.03853641,0.00976655,-0.00354369,0.00347496,-0.02041580,0.04896845,0.04020862,0.03950447,-0.03624023,-0.04311145,0.01218726,-0.01873741,0.02599582,-0.04914650,-0.04524574,0.03847283,-0.03661619,-0.03408045,0.03871447,-0.03008366,-0.04210167,-0.01857213,-0.00405017,-0.04752428,0.01330446,0.04413199,-0.00023862,-0.04395562,0.04784682,-0.03392311,0.00504676,-0.04701325,-0.00992101,0.01690647,-0.04403588,-0.02127240,-0.02444323,0.01651537,0.03712806,0.01337912,0.01078289,0.00049533,-0.04978852,-0.00615024,0.04812843,-0.01576802,-0.02370933,-0.00487045,0.04254286,-0.00410378,-0.01062453,-0.04958658,-0.02063642,-0.00921701,0.01231951,0.03877594,-0.04826181,0.04606480,0.02281368,0.00472574,0.00826570,0.03201457,-0.01404719,0.02728978,0.00377578,-0.04743156,-0.02111810,-0.01785667,-0.01794414,0.04190323,0.00930732,-0.03017628,-0.03498927,-0.02441210,0.04449170,0.04831597,0.02058731,-0.04347945,0.02471614,0.03292929,-0.00863386,0.01321551,-0.03780237,0.00455894,0.01792089,-0.01259118,-0.03621591,0.03805692,0.01641795
0.02196936,-0.03023944,0.00241523,-0.00131816,0.01616127,-0.02615600,0.03999710,-0.03723866,-0.03916968,-0.03915440,0.03406170,0.03293619,0.00688002,0.01708483,-0.01953603,0.00551399,0.03150468,-0.03660484,0.02923247,0.03294332,0.02366609,-0.04158203,-0.01378626,0.02200701,-0.04031507,0.02536959,-0.01146922,-0.04903639,0.02060261,0.00577120,0.03043183,0.02825936,0.04055685,-0.01082443,-0.03054344,-0.00275891,0.04812923,0.02825261,-0.00833980,-0.02067532,0.04551246,-0.01326770,0.01190453,0.01912693,-0.00578003,0.00047447,-0.01206940,0.02660042,-0.03422466,0.02011429,-0.00521023,0.00734165,-0.00276052,-0.02794742,0.02364317,0.00630912,-0.03877203,-0.02334548,0.04610521,0.01912730,0.03813867,0.00931545,-0.04139141,0.04795224,-0.00126319,0.03851449,0.03450821,-0.02381742,-0.00456421,-0.01391752,0.03383363,-0.02557106,0.00953473,-0.01858353,-0.02890740,-0.00918252,0.00424366,-0.02499810,0.01140270,0.04338034,0.00335370,-0.04166880,0.02259775,0.02096629,0.03136697,-0.03762870,-0.00241774,0.00421386,-0.01825199,-0.00731090,-0.00868288,0.02284519,0.00191601,-0.04024846,0.04862853,0.00090823,-0.02743674,-0.04101994,0.04185038,-0.01780910,-0.04096324,-0.04356208,-0.02709929,-0.04429331,-0.02057184,0.04284548,-0.00570399,-0.03648818,-0.00794778,-0.04042533,0.02163861,0.02246862,0.02242973,-0.00667191,0.00744468,0.01956977,0.01535762,0.00671002,0.04304815,-0.00046448,0.03805565,-0.01242839,0.03148947,-0.00391030,-0.04814829,-0.04506672,-0.03344380,-0.02647221,0.02036179,0.01703573,-0.03888127,0.00724577,0.04908328,0.01437058,-0.04253854,0.01557828,0.04569324,-0.01452615,-0.02499495,0.04273957,-0.03977334,-0.00770653,0.02846433,0.01130451,0.03682706,0.02859433,-0.00440330,0.03992546,0.04426904,-0.04565556,-0.02877214,-0.02674785,0.04560599,0.04604699,-0.03514840,0.02600266,0.04537511,0.00719189,0.01328869,-0.01825111,-0.03586243,-0.04552774,0.00473092,-0.01967165,-0.02856734,-0.04695228,0.02722390,0.01410803,0.03937038,0.04488601,-0.04649680,0.04713418,0.02997286,0.04688625,0.04603968,0.02546418,0.04066102,-0.00635260,0.04733818,0.04351839,0.04686211,0.02574291,-0.03202733,0.00043332,-0.01700718,0.03212495,-0.02610418,0.04090135,-0.03563645,-0.01777565,-0.00157476,0.04182205,-0.02686516,0.03022492,0.02690766,0.03008607,0.01852491,-0.01507191,-0.01494429,-0.03953047,-0.00056303,-0.02449752,0.01975683,0.01996129,-0.01588782,0.00222021,-0.02319518,0.02397338,0.00196825,0.01153184,-0.00023944,-0.01707013,0.00023424,-0.00666132,-0.01531488,0.00485414,-0.03434987,-0.01956232,0.02195351,0.03424360,0.02876613,0.00390382,-0.01255652,-0.04597655,0.01514255,0.04113286,-0.00775055,-0.01740146,-0.00920726,-0.00629459,0.00156205,-0.01586544,-0.02526072,-0.00516271,-0.04064923,0.02801124,-0.01713090,-0.00726677,-0.00104719,-0.00396379,-0.04712863,0.01390154,-0.03294886,-0.00417944,0.03702719,-0.04695730,0.04978609,-0.03164075,0.04486601,-0.00273264,0.03626556,0.04574675,0.03703665,-0.02385429,-0.01156444,0.03625191
-0.02952532,-0.02793472,-0.04037637,0.02667182,0.03669187,-0.03007557,0.02602400,0.00968719,-0.01501191,-0.04834698,0.04410985,-0.00744055,0.04881109,0.01413136,0.04303985,-0.03245253,0.03745519,-0.04859666,0.03001739,0.02769401,-0.02467728,0.04510400,0.02347364,-0.01887327,0.04804087,0.00461312,-0.03255601,-0.04659846,0.03874216,-0.02161678,0.03173420,-0.00253727,-0.01613005,-0.02512561,-0.03778621,-0.00354267,0.03691768,-0.00681664,-0.00793439,-0.01082174,-0.04329957,-0.04420315,-0.03837448,-0.04812472,0.04977768,-0.03736334,0.00504338,-0.04960648,0.01995149,0.03791867,0.00309583,-0.00852782,0.01938618,-0.04334458,-0.02076071,-0.03945038,0.00947490,-0.03443230,-0.01596033,-0.03871211,-0.03878498,0.04344465,-0.02819947,0.01595468,-0.01762532,-0.02719322,0.04504871,0.01861988,-0.02391115,-0.03020348,0.03548319,0.01289989,0.00880517,-0.00689013,-0.04661429,-0.04476681,0.03687051,0.03758535,-0.00233262,-0.03831728,-0.02328442,-0.04728930,0.02125182,-0.03978052,-0.04237223,-0.04384135,0.04269040,0.03513325,-0.03205253,-0.03453548,-0.02654805,-0.04486066,-0.02712571,0.03303824,0.03438198,0.02468869,0.03749809,0.02556169,-0.01378646,-0.01983841,0.02568671,0.04473363,-0.03136489,-0.01690112,0.00644569,-0.03651542,-0.00634155,0.02534309,0.04220354,-0.03088701,0.04424793,0.00658754,-0.03343775,0.00748717,-0.04142274,0.02941999,0.01048386,0.04417940,-0.00404762,0.00951923,0.00848025,0.01229366,-0.04705342,-0.03525053,-0.01708786,0.00301488,0.03018693,0.03333155,0.00689649,-0.04329026,-0.04128101,0.02738615,0.00055333,-0.00238344,0.03052286,0.00324032,-0.04459229,-0.02569560,0.04519906,0.03650770,0.01202323,-0.04382339,-0.02247277,0.00561725,0.00548206,-0.03207869,-0.00771661,-0.04857707,0.00524765,0.00616763,0.02542887,-0.00380467,0.00724024,0.01489291,-0.01626873,-0.04316056,0.04298118,-0.01817346,0.04085651,0.04499137,0.03095870,0.03904739,0.01478807,-0.03621677,0.01185893,0.04602871,-0.00079888,0.01120225,-0.00493444,-0.03821228,-0.03476608,-0.03500488,-0.01370054,0.02298537,0.02000869,-0.00063207,0.01954612,0.04303727,0.04453285,-0.02352036,0.03473625,0.00818165,-0.03917744,-0.04189715,0.00444634,-0.04150245,-0.03226712,-0.04958687,0.01744318,-0.02589451,-0.02817392,0.04477835,0.01505264,-0.00209066,-0.03468376,0.01064364,0.02299444,-0.02330769,0.02861076,0.01323522,-0.00350573,-0.02752853,0.03937200,-0.01137244,-0.02021759,0.03432323,-0.02172022,0.01888802,-0.04532162,-0.02341291,0.04187228,0.02894408,-0.02090790,-0.00258934,0.04169263,0.04379410,0.01819354,0.01492398,0.00667780,0.03532666,-0.00313077,0.04190902,0.02079253,-0.04929871,0.04354647,0.02502863,-0.01160426,0.03607627,0.01604583,0.04941768,0.03696986,-0.01553809,0.02298504,-0.04959643,0.02441013,-0.03476775,0.03669539,-0.04808122,0.04148943,-0.03877080,0.02222794,0.04129295,0.04889427,-0.03003881,-0.03977154,-0.02977401,0.02549849,-0.02973692,0.04227494,0.03564924,0.03589359,0.02144364,-0.01869983,0.02495456,0.04893273,-0.01183256
-0.02888417,0.04569031,-0.03741337,-0.00025414,-0.02121363,0.03340195,-0.04802941,0.02375920,0.02254298,-0.03598044,0.04934539,-0.04242661,-0.00050279,-0.03595030,-0.03036921,0.03270492,-0.04731458,0.04182029,0.01474456,-0.04085327,-0.04185349,0.00234441,0.01385412,-0.04133534,-0.04821077,0.03165889,-0.01813108,-0.03818834,0.03203372,0.00129922,-0.02497694,0.01152327,-0.02928804,0.04145021,0.03399420,0.04673609,-0.02185969,-0.03591993,0.01664269,-0.04269472,-0.02181214,0.03226371,-0.04281779,0.03469427,0.02867158,-0.03014632,0.00703569,-0.01958455,0.04059119,-0.01164307,0.04439077,0.03147422,-0.03003015,-0.03335764,-0.03640216,-0.01676636,-0.02955089,0.04811503,-0.04566015,-0.01164099,-0.03158782,0.02280173,-0.00431650,0.00939896,-0.01281856,-0.03490830,0.01657248,0.03429134,0.04646367,0.03310106,0.03215851,-0.03415547,0.02153121,0.04255551,-0.02301813,-0.00735634,0.03838746,0.02478780,-0.01373843,-0.03470052,0.03929674,-0.02923902,0.00596689,-0.04641190,-0.02846307,-0.02882826,0.03625560,-0.02041701,-0.04957493,-0.02205390,0.02820974,0.00118925,-0.04659295,-0.01602268,0.03393039,0.03213572,-0.03249019,0.00415011,-0.00527221,-0.03927761,0.02993829,0.00628063,0.01152334,-0.00277614,-0.02468219,0.03226943,0.03075239,0.01363850,-0.04421989,0.04405221,0.03682829,0.03089673,0.02785039,0.04393599,-0.00088520,0.01251334,0.00492867,-0.01114720,-0.03373522,-0.03206557,-0.02466772,-0.04362558,0.00713984,0.02397284,0.00357826,-0.00095228,-0.00975967,-0.01201684,-0.00379718,-0.02347926,-0.01577135,0.00783451,-0.00869099,0.02466554,0.04350683,0.02410786,0.04141328,0.01032520,-0.01163249,-0.02685679,0.03435675,0.02496285,0.04735110,0.03440034,-0.02330932,0.00835758,-0.02479678,0.01258487,0.04219675,0.01420558,-0.02783899,-0.01073857,-0.02482080,-0.02633959,0.02027732,-0.00393365,-0.02977399,0.00929847,0.01028904,0.02245745,0.03347472,-0.02155702,-0.04020037,-0.00532691,-0.03287153,0.02075917,0.02784082,0.04139278,0.03746412,0.01913286,0.01991849,0.03672290,-0.00808177,-0.01610717,0.00644031,0.02457352,-0.00330649,0.04816521,-0.03186896,0.00247769,0.03334906,0.00136856,0.03614754,-0.04074716,-0.00578944,0.04821688,0.01815936,-0.02184946,-0.00920730,0.02837664,0.03669751,0.00532749,-0.01125345,0.00975914,-0.03821065,0.03455258,0.04946807,-0.02383363,0.03534627,-0.00068971,0.02573926,0.03119870,-0.04470846,-0.01997421,-0.04075530,-0.04574261,-0.02004798,-0.00247755,0.03699724,0.02690256,0.00219799,0.03411116,-0.04522690,-0.00132311,-0.00892120,-0.01699704,0.00247873,0.00943384,0.02642203,0.01405649,-0.02703926,0.02430339,-0.03448343,-0.03727173,0.03833334,0.03896052,0.02515728,0.03173330,-0.02921922,0.03310725,-0.04516092,0.01541867,-0.03634185,0.01518968,0.01296702,0.01814344,-0.00584096,-0.04677348,-0.00710670,0.02373965,0.02619408,0.02011979,0.00237443,-0.00070729,0.03244353,-0.00906464,-0.04864358,0.02739585,-0.04669296,-0.04072450,0.04166486,0.04461348,0.00333615,0.01235690,-0.00929853,0.02865973
0.04384131,0.01706153,-0.00209323,0.03793940,0.02597966,-0.01212009,-0.00382594,-0.01609785,0.04781364,-0.00479764,0.01288361,-0.04635016,-0.00504730,0.03850475,-0.02120646,0.04900165,0.04422883,-0.00655288,-0.01629383,0.02353633,-0.01710388,0.01688873,0.01533974,-0.01243468,-0.01660325,0.01510615,0.04946142,-0.01074583,-0.00724937,0.00949476,-0.01946883,-0.02939051,0.02270845,-0.02692662,0.02880663,-0.04424430,0.02072324,0.00656359,0.04174235,0.00681364,-0.03280833,0.03785400,0.01451368,0.00346472,0.01752136,-0.03424427,0.04474002,0.00736154,0.01595069,-0.04468543,-0.02130478,-0.02479601,0.02100695,-0.04379642,-0.00615427,-0.01308445,-0.01888495,0.04642037,0.01666189,-0.02543229,-0.03484681,-0.02992348,-0.01487614,-0.03897978,0.04190851,0.02023092,0.00170986,-0.04552878,-0.01685645,-0.03212956,-0.03455031,0.02834525,-0.00155628,-0.04342407,-0.03919167,0.01710644,-0.03517346,0.00476611,-0.02233948,-0.01901377,0.04511404,-0.04611112,-0.02898835,0.01750215,0.02598358,0.01523811,-0.04096550,-0.03727118,-0.02831512,0.01208111,-0.02553131,0.02528876,0.01425785,0.03402716,-0.04642567,0.00804476,-0.01406436,0.00769294,0.00690838,0.03946627,0.00535180,0.01158304,0.00267224,0.02259322,-0.01412594,-0.03076944,-0.03580234,-0.03028995,0.01065341,0.02391113,0.02700664,-0.04039536,0.00524908,0.03414410,-0.01795151,0.03832001,0.04165282,-0.04684339,0.00248601,0.04599440,-0.03357062,-0.03479003,0.03406763,0.02589110,-0.01753601,0.01883713,0.03182653,0.00463265,-0.04065276,0.02637150,0.01475188,-0.03357737,-0.03784002,0.02407853,-0.00534256,-0.00455397,0.01431834,0.04497012,-0.03114310,0.01596143,-0.03373173,-0.00324641,0.03460916,-0.04244836,0.01734861,-0.00033898,-0.01058779,-0.03020052,-0.02287780,-0.02230400,0.04983241,0.02994074,0.01244566,-0.02556879,0.02759702,0.03240772,-0.03445291,0.00481208,-0.03637499,0.04630553,-0.02604318,-0.03021158,-0.01576037,0.04125357,0.03739480,-0.00938599,-0.04143192,-0.01848144,0.00710083,0.04980334,0.02530742,-0.04116184,0.00691772,0.03307874,-0.01267409,0.01191136,-0.00669117,-0.04705107,-0.02639056,0.01349166,0.03818456,-0.03588359,0.00161364,0.02484099,-0.00859193,-0.04211311,0.02360649,-0.02393797,-0.02220794,-0.04495990,0.03658496,-0.04047035,-0.01654309,0.03312790,0.04655865,0.02826175,-0.00252758,-0.01933083,-0.04077353,0.04969268,-0.04898311,0.03108211,0.00721068,0.01179978,0.03150385,-0.04383456,-0.00842897,-0.04004944,-0.00101389,0.04897550,-0.01592900,0.00555584,-0.04776581,0.04814446,0.02209495,0.02662352,0.00761759,0.01111041,-0.03700990,0.02330566,-0.01417101,-0.04105625,0.03139409,0.00821799,0.03202330,-0.03935614,-0.04286621,0.02126727,-0.01160774,-0.00334894,-0.03387076,0.03015440,-0.00710867,0.02876363,0.03605418,0.01192313,0.03857096,0.04765989,-0.02846390,-0.04820960,0.03357038,0.00704662,-0.02540140,0.01124375,0.02387742,0.03725025,0.00489188,0.00271464,-0.04894207,-0.02054886,-0.02377633,0.04829429,0.01116181,0.02057087,0.01477583,0.03809397
0.02488259,0.03593315,0.01054481,0.03425820,0.02061379,-0.02997661,0.04210633,-0.03413469,-0.00318993,-0.03495120,0.00183935,0.04414373,-0.01718107,-0.02616777,0.00027245,0.04609800,-0.04264806,0.00971942,-0.04779971,0.04934473,-0.02261314,0.01709728,0.04562170,-0.01661316,0.00480190,-0.04645499,0.04395453,0.03110414,0.04522310,-0.03670220,0.01925299,-0.04597985,0.02033820,0.01567150,0.04128858,0.04681832,0.01756247,-0.00876045,-0.04960244,-0.04938467,-0.03815239,-0.03693656,-0.01102015,-0.00849841,0.01214335,0.02337432,0.02190342,-0.04238195,-0.00400692,0.02999317,0.03484307,-0.00457996,0.01160840,0.02119920,0.03912354,0.04238719,0.00067711,0.03513012,0.01747737,-0.00280738,0.03963727,0.03221380,-0.02391536,-0.04290712,0.04051029,-0.00856150,0.01883752,0.03659750,-0.01014843,0.04077989,-0.02142590,0.00962983,-0.04716207,0.00297637,-0.04208654,-0.02796174,-0.00289513,0.02367261,0.03599356,0.02051620,0.02211541,0.02266506,-0.01960333,-0.00643980,-0.03633725,-0.00685824,-0.03767931,-0.00535858,-0.04315113,0.00970594,-0.00772184,-0.02203549,-0.01457899,0.00859636,-0.03686445,0.03393811,-0.00580014,-0.01423233,-0.02354340,0.03627611,0.01592760,0.03847687,0.00040046,0.04094853,0.01560524,-0.02624643,-0.02287970,0.02934014,0.03375285,0.03584381,0.04496830,0.03622082,-0.02855948,0.02262622,-0.02859100,0.04555644,0.04481695,-0.04081729,0.03401155,0.00769513,0.00048230,0.00278032,0.02572313,-0.04628896,-0.01048767,-0.00459429,0.03091962,-0.04193225,-0.04017016,0.00764241,0.02579692,-0.00806851,-0.04373927,-0.01607728,-0.03276861,0.00932987,0.04919064,0.04983439,0.00993015,-0.01840731,0.02701420,0.00816564,0.04375030,0.02474857,0.03096971,0.02050367,0.00312285,0.02372635,-0.00086713,-0.00495298,-0.01604776,0.02322997,0.04164502,-0.02845901,-0.04921610,0.00307596,-0.01529113,-0.00707471,0.00455924,-0.04662941,0.03160525,-0.02623274,0.00371133,0.03791573,-0.03396853,0.02546149,0.04325800,0.00729184,-0.03184366,0.00741554,0.00843487,-0.01348834,-0.04733115,-0.01649819,-0.04066914,-0.00694749,-0.01538157,0.00945505,-0.04411355,-0.00016614,0.04422694,0.03463889,-0.04052008,-0.01605339,-0.00557234,0.03606188,-0.01493656,0.00722303,0.04924310,0.00054364,0.00768767,0.02050543,-0.03386666,-0.02989104,-0.02594510,0.02788929,0.01965779,0.04596419,-0.03595970,0.03504724,-0.04271345,0.04032652,-0.00124229,-0.01769383,0.02485636,-0.03421382,0.01350964,0.02361533,0.02399002,0.03177908,-0.00170543,0.02737956,-0.02299588,-0.00429519,0.03529326,0.03852133,0.00607911,0.03294880,0.02225155,-0.00445548,0.02903781,-0.03071278,0.02743222,0.00274241,-0.04200539,0.00010921,-0.04762450,0.02972197,-0.03027772,0.00061785,-0.01150481,0.00618752,-0.03060229,0.00367791,-0.03196058,-0.02660195,-0.02709456,0.00114406,-0.00538852,0.02068755,0.04460597,0.03157580,0.02986277,0.03342185,0.02568590,-0.04436817,0.01807904,-0.02888967,0.03028790,0.04913374,0.02741053,0.03334301,-0.02094700,-0.04707804,0.03620235,0.03214980
-0.00294447,0.02397409,0.03237640,-0.04237531,0.00179067,0.01414025,0.01010136,0.04997661,0.00750155,-0.03535354,0.01872694,-0.02481174,0.02861917,0.03951864,0.04792005,0.04492376,-0.00195471,0.04153183,0.03420577,0.04789809,-0.04886011,-0.02018661,-0.02625286,-0.01019126,-0.02660408,-0.04165948,0.01178572,0.04296289,-0.01375277,0.02494096,-0.00383070,0.02366140,-0.02012115,-0.02446819,0.02129499,0.00943323,-0.01698750,-0.02742871,0.00330503,-0.02792021,-0.03543748,-0.00264560,-0.04006723,0.04785892,0.01303011,0.03728693,-0.00810374,0.01414779,0.01437939,-0.03841389,-0.02878858,-0.02994351,-0.01394122,0.02391521,0.01835340,0.04195556,0.01895536,-0.03129645,0.01741355,-0.01654882,-0.00374026,-0.04940381,0.01170145,-0.04051375,-0.04275455,-0.01228735,0.02695904,-0.04218471,0.01322425,0.00904679,-0.02919437,0.04858513,-0.02248957,-0.02663134,-0.04751327,0.01427912,0.01804355,0.03188022,-0.00766060,-0.01768192,0.02816736,0.01182250,0.04049281,-0.03283928,-0.01069659,-0.00113674,-0.04664025,0.03046371,0.03943742,0.01271401,0.02124258,-0.02007770,0.01907187,0.02815751,0.01775116,0.01349873,-0.04348654,-0.04597730,-0.02213879,-0.04036894,0.02036254,-0.00419756,0.04305972,0.04817424,0.00164153,-0.02491858,0.00297439,-0.02476213,-0.00030057,-0.00934569,0.00497733,0.00106234,-0.00562010,-0.04073635,-0.00769386,0.02800563,-0.03733291,-0.03021622,-0.03311940,-0.04231194,0.01629386,-0.00233817,0.00089424,0.03254808,-0.04361496,0.03136945,-0.01034077,-0.02796036,0.04043779,0.01846670,0.01534788,0.01260859,0.00783721,0.01751419,0.02789667,0.03982388,-0.00484025,0.03092169,-0.04520247,0.04627128,0.00600909,-0.00301985,0.04274789,-0.04261854,0.02427578,0.03001410,0.04847306,0.02936054,0.03765235,-0.02587031,-0.02244369,-0.00608096,0.02712139,-0.04518549,-0.01644140,0.00748870,0.02655203,0.03454922,0.02064502,0.04306335,-0.03493978,0.04286360,-0.02291660,0.03471348,0.03217098,-0.00615815,-0.01552847,-0.00867884,0.03545773,0.03534043,0.04273184,0.04098521,-0.02488009,0.03728998,0.01306463,-0.02468468,0.02740807,-0.03735510,0.00049032,-0.02771287,-0.01830653,-0.03665847,-0.00267207,-0.00416649,-0.00832142,-0.03337376,0.00480980,-0.02907448,0.03653714,-0.04650605,0.01317743,-0.04022490,-0.00294077,-0.00482329,0.00658397,0.04288492,0.00087787,0.04041558,-0.02231858,-0.04206974,-0.03767722,0.03823189,-0.03557549,-0.04967692,-0.04623278,0.02912519,-0.02508397,0.01350192,0.01692769,0.00784751,0.04319343,0.02368299,-0.04738479,-0.03389178,0.02290213,0.01660124,0.01510677,0.04557903,0.03647795,0.04543856,-0.03824511,-0.00181902,-0.00139540,0.01075184,-0.01287710,0.04165209,-0.04269942,0.00658998,0.04621126,-0.02745423,-0.00329468,-0.01451536,-0.00020699,0.01585802,-0.04081514,0.00959409,-0.04856963,0.00640463,-0.01970909,-0.01842451,0.01688171,0.01905879,0.00189176,0.01638227,0.02935428,0.03137054,0.02394648,-0.02141235,-0.04249131,0.02804416,-0.04597536,0.02662012,-0.03400528,-0.02984541,0.03041295,-0.04033535
-0.04938304,-0.00205450,0.04510122,0.02099705,-0.02053356,-0.02557011,0.04761060,0.02454789,0.04237516,-0.04907190,0.02314563,0.00799900,0.01261441,-0.01455441,-0.02178299,-0.03735081,0.01977371,0.01477553,0.03553202,0.03124684,0.03036807,0.00034246,0.02925694,-0.04073324,-0.04879573,0.01869982,-0.02428279,-0.04450675,-0.02271533,-0.03921823,-0.04119407,-0.01236657,0.00640400,-0.04438299,-0.02013159,0.02237036,0.00805124,0.01741764,-0.03096542,-0.04695662,0.01684275,-0.01630889,0.04249013,-0.04497480,-0.04338428,-0.03304761,0.04536496,0.00049831,0.02045286,-0.02865007,-0.02791134,-0.02827439,-0.03501383,-0.03419898,-0.02488199,0.02197358,-0.00303352,-0.01299946,-0.02735022,-0.02595976,-0.01648929,0.04064102,-0.01494262,-0.01895417,0.04966227,-0.02036140,-0.02967165,0.00339482,-0.02080353,0.03380415,0.03900122,0.02184504,-0.03424170,-0.02295390,-0.02665647,0.03620526,-0.00969148,0.02189685,-0.01503278,-0.00020032,0.01452445,-0.01520107,0.03670138,-0.00395145,0.03155771,0.04013864,0.01493140,-0.03483231,-0.04354632,-0.04799669,0.00216733,0.03373969,0.01205882,0.00004116,0.01081235,-0.01418775,0.02569635,0.02513367,-0.03246149,0.04692470,-0.03107835,0.02144603,0.03424322,-0.04777552,0.03291330,0.00408924,-0.01392591,0.01134071,-0.04679690,0.03975393,-0.03553965,0.04920048,-0.02581002,0.00190198,0.03409381,0.01644186,-0.03763612,-0.03101340,0.01185976,-0.01144465,-0.01687222,-0.00574864,-0.04342023,-0.03587391,0.02956107,0.04532010,-0.00638760,-0.04477218,0.04086044,0.04431972,0.03163382,-0.04548295,0.01439774,0.02973122,-0.01151139,-0.03391417,0.03363040,-0.00252492,-0.01220872,-0.01220399,0.00750739,-0.02593855,-0.04097807,-0.03962976,-0.00818039,0.02419567,-0.03197195,-0.01026512,0.00684922,-0.00881072,0.03777374,-0.04842391,0.00444974,0.03213504,0.02961813,-0.03262940,-0.04467121,-0.02151264,0.04126022,-0.02731764,0.02195846,-0.03427628,-0.02622568,-0.00826480,-0.00794787,-0.04561938,0.02043260,-0.01326437,0.01878460,-0.00322050,-0.00440259,0.03571830,-0.01104563,0.04281868,-0.01563077,-0.04789416,-0.00197621,-0.01413245,0.02625762,0.04804872,0.04338801,-0.04365032,-0.00519141,0.01831967,0.01707340,-0.01841430,0.04622417,0.04898291,0.02456360,-0.04333472,-0.02031792,-0.04834893,0.03506423,-0.02257776,-0.00437418,-0.04683714,0.00375298,-0.01312979,-0.04983830,0.01170550,-0.02396359,0.01035073,0.03484573,-0.00641300,0.03646598,0.00287955,0.00907363,0.04336391,-0.00737608,-0.00193097,0.03874836,-0.01483385,0.03102354,-0.02394337,0.04819927,0.00949837,-0.03580280,0.00296969,-0.03545124,-0.02871489,0.03823508,-0.01000430,-0.04043225,0.02724111,-0.03030237,0.02863208,0.04559635,-0.04262454,-0.00919436,0.04570035,0.04541117,0.03183414,0.00014403,0.02423583,0.01470635,-0.01211485,0.01036581,0.01109498,0.00515087,0.02520053,-0.03002627,0.02253446,-0.00601537,-0.04540209,0.04825439,0.04484935,-0.03785013,-0.00563341,-0.02414281,-0.00214038,-0.02198297,0.00287330,0.04605645,0.03670228,0.02838206,-0.02433190
-0.04229715,0.03123439,0.04386299,-0.00952509,-0.00700381,-0.00521098,-0.02400322,0.02895164,-0.03615192,0.00327400,0.00122114,-0.03398696,0.01195958,0.01828300,-0.02362077,0.04208524,-0.02785226,-0.02525281,0.02577952,-0.03538086,0.00929049,-0.00264246,-0.03993035,0.04183314,0.04882585,-0.03750657,-0.03422517,0.02643677,-0.03573028,-0.04198829,-0.01092003,0.01997152,-0.02116928,0.02691824,0.02335328,-0.01170363,-0.00303756,0.00875203,-0.00796176,-0.01662565,0.03471619,0.01454135,0.04518301,0.03677450,0.01444176,0.02504655,0.03395487,0.03302791,-0.04626451,0.02405069,0.04730866,-0.04917314,-0.02221865,-0.00292907,0.01295073,-0.01796488,0.01240849,-0.00146832,-0.04481190,-0.04638432,0.01163733,0.00973517,0.01909387,-0.01221782,-0.01597411,-0.01428178,-0.00877425,0.02794768,-0.04237292,-0.01778886,-0.02002189,0.00842937,0.04950081,0.00896809,0.02695644,-0.03642292,-0.04702480,-0.02184145,-0.03807193,0.04311487,-0.01721966,-0.02288269,-0.02597904,0.04173588,-0.02267728,-0.01779347,-0.02642408,0.04745084,-0.02177184,-0.02956226,-0.02933518,0.03088124,-0.02944163,-0.04440592,-0.03235114,0.03739130,0.04266819,-0.03197369,0.04366825,-0.01291104,0.03071731,-0.01388208,0.04859976,0.01380524,-0.02192458,-0.02519937,-0.01268213,0.00116431,0.03120885,0.01593885,0.00956570,0.04690332,-0.04176596,-0.01487616,0.04022084,0.00732001,0.01772479,-0.00778837,0.03307376,-0.01581115,0.04723326,0.04192330,0.04909861,-0.04190912,-0.02939664,0.03669393,0.03421221,-0.01555108,0.04038635,0.03803495,-0.01463310,-0.00754124,0.04685238,0.02629964,0.01415476,-0.03419276,-0.03583115,0.00280653,-0.02455401,0.01394473,0.00337655,0.02602950,0.00300852,-0.03192335,0.03208475,0.03198684,0.01433020,0.02028340,-0.00681813,0.00149812,-0.03945567,-0.03605763,0.02796767,-0.03618703,0.02799162,-0.02359410,-0.02557437,-0.00651660,-0.00250174,-0.04600310,-0.03668422,-0.01076102,0.01554939,-0.03664195,-0.04099628,0.01774778,-0.00687107,0.00067998,0.04763762,-0.04301912,-0.03704374,0.01331655,0.03996104,0.03465504,-0.00234865,0.00660252,0.02593613,0.00338289,0.01803096,-0.04636547,0.04378626,0.04890193,-0.02164252,-0.02837427,-0.03445419,-0.03196782,0.00605774,-0.04340003,0.03305657,-0.02400541,-0.04622364,-0.02868709,-0.03669450,-0.00106882,-0.01786687,-0.01468243,0.00749025,0.02186001,-0.04440088,-0.00527951,0.04910729,0.00862669,-0.03885328,0.04885751,-0.01532845,-0.00488379,0.00114431,0.02797456,0.01501955,0.02590888,0.04246755,-0.04693896,-0.01893101,-0.01340237,0.00029977,-0.01574330,0.03928636,0.00900826,0.01105504,-0.03069565,-0.04827680,-0.04607046,-0.02276935,-0.01749600,-0.01934995,0.04591030,0.01574604,0.04222407,-0.04309004,0.02433043,-0.02863250,0.01606560,0.00527747,-0.00404058,-0.00914388,0.00562995,0.00219455,-0.04850549,0.04515306,-0.02703265,-0.03244273,-0.01725211,0.02461695,-0.02376100,-0.01768055,-0.02447296,-0.04762165,0.04417400,0.02519860,-0.03910769,-0.03585829,0.04167568,-0.00587946,0.02918258,0.03113667,-0.04215383
0.00168021,-0.04383625,0.02490188,0.00491649,-0.04609012,-0.03594857,0.02941049,0.02841797,0.03833949,0.01496186,0.03658971,0.00176752,0.00672128,-0.01990014,-0.03268307,0.00851243,0.03724838,-0.02209660,-0.03025666,-0.04277118,-0.02680330,-0.04678479,-0.01281483,0.02703935,0.02795715,-0.03904052,-0.00297236,0.02141904,0.00427713,0.03820065,0.00769895,0.00306882,0.04836490,-0.00869568,-0.00526362,0.02341038,0.04782296,-0.00618963,0.03019229,0.03129352,-0.01520581,-0.01697623,-0.04218697,0.04095754,0.03178695,0.04544603,-0.00530440,0.01383673,-0.03072701,0.04055540,0.00362754,0.00279813,0.00664028,-0.01279972,0.04228365,0.03206047,-0.03325547,-0.00794261,0.02746278,0.02266635,0.00392755,-0.04619025,-0.00379128,-0.01779660,-0.03572574,0.02303493,-0.03713218,-0.00453179,-0.00870729,-0.04477988,-0.03192447,-0.04121009,0.01848131,-0.02064325,-0.00303959,-0.01755186,0.03503345,-0.01515232,-0.03457880,-0.04578649,0.04443698,0.00893670,-0.02608942,-0.04213396,0.01736337,-0.03635839,0.01391483,0.02269227,0.01442722,-0.01435952,0.00317078,0.03028378,-0.03650752,0.01392489,0.03693129,0.00153396,0.02114404,-0.03993909,-0.03216297,0.02893403,-0.01242657,0.03136751,-0.04072178,0.02679483,-0.01288027,-0.01371578,-0.03956138,0.04756898,-0.01755213,-0.03485930,0.03398306,0.03503350,0.00794041,0.02328167,-0.04256958,-0.01736075,-0.04190094,-0.01578542,0.04743056,-0.03791006,-0.03186540,-0.01498074,0.03832040,0.03528607,0.00392710,-0.00196201,-0.02479112,0.02515144,-0.01015805,0.04677752,0.01220509,0.04907311,0.00465593,0.00129332,0.04980499,-0.04610140,0.04507634,0.02552236,-0.02442312,-0.01934637,-0.04162238,-0.02400729,0.01658848,-0.00826479,-0.01639300,-0.01160102,-0.00043407,0.00477101,0.03666678,0.04106228,0.03913989,-0.00768744,0.01490364,-0.02132409,-0.00465744,-0.01761448,-0.03587469,-0.00900442,0.03185123,0.00201469,-0.01601841,0.04255779,-0.03349272,0.00983661,-0.01372291,0.01756310,0.01940073,-0.03740373,-0.04826397,-0.03117255,0.03912831,0.01024414,-0.04390805,-0.02156625,-0.03317804,-0.03704425,0.04986896,0.00151166,0.00715448,-0.03909252,0.03663805,0.04800258,0.02410685,-0.03849023,0.01309614,-0.03186855,0.03623134,0.04106385,-0.00004488,0.02187743,-0.04790854,0.04248588,-0.03610590,0.03265935,0.04738794,0.04010928,0.03458223,0.02816626,-0.01113988,0.03551174,0.02610869,0.00859202,-0.02945390,0.01409727,-0.04440457,-0.00079530,0.04475260,-0.00431057,-0.02621565,-0.00709498,-0.03419563,0.01665178,0.00099698,0.00112130,-0.04310871,0.03575547,0.02512241,-0.04772703,0.00287781,0.02648808,-0.00879336,0.00492123,-0.02403004,-0.00708533,0.02987788,0.01149942,-0.02489646,-0.04857870,-0.01535382,0.00395458,0.02227134,0.00979002,0.00496097,-0.03736718,-0.00925577,-0.04399947,-0.03473058,-0.04463135,-0.01452413,-0.01083355,-0.04910360,-0.04085097,0.03103330,0.04462605,0.00555622,-0.01870415,0.03875472,-0.03933757,0.03343420,-0.04781988,-0.01776575,-0.04052605,0.01185098,-0.02237986,0.00248066,0.04957337
-0.03895625,-0.03188995,-0.02804346,-0.00661404,0.01851027,0.02383428,-0.01321315,0.03227176,-0.02235892,0.00425410,0.03766397,-0.02841539,0.02560252,-0.04490960,-0.00917920,0.02071114,0.00723447,0.02961377,-0.01564891,-0.03960589,-0.03073519,-0.02765881,-0.01049698,0.03635862,0.03919438,-0.01913588,0.04612112,-0.02355432,0.01880746,-0.04433676,-0.03402376,-0.01605348,0.02360264,0.04595868,0.00599466,0.02257809,0.04745479,-0.01948908,0.03022577,-0.01892724,-0.01520374,-0.01005485,-0.03905430,0.01781520,0.02719048,-0.03056192,-0.01317103,-0.01240461,-0.04587013,0.02691931,0.00013255,0.02851200,0.00491229,-0.03331811,-0.02894120,-0.00138336,-0.01343313,0.02699609,-0.03978098,-0.00021645,-0.00325277,0.04179548,-0.04506905,0.00952731,0.01733699,0.00207113,0.03242388,-0.02883960,0.03693269,0.03364474,0.02470253,-0.04852783,-0.04152849,-0.04456878,0.03283319,0.00675361,-0.00355871,0.01929245,0.02112121,-0.01279749,-0.00031430,0.00350682,-0.03856620,-0.01776324,-0.04097725,-0.00430458,0.00358998,-0.03222638,-0.03528959,-0.04076258,0.03230057,-0.03850420,0.00395856,0.00480937,-0.04494021,0.03611459,-0.04973007,0.00139426,0.02770049,0.02563799,-0.01637849,-0.04760667,-0.04939132,0.01526678,0.00027785,-0.01011461,-0.01441693,-0.03717733,0.03401416,0.00577574,0.04044646,-0.03052322,0.01049327,-0.04446781,-0.01972517,0.00533783,0.00139409,-0.00547790,-0.03160172,0.02204243,-0.00960040,0.02959510,-0.02615941,0.01655213,-0.04370080,0.03992882,0.02295340,-0.02146093,0.00145033,-0.02065811,-0.01888382,0.01128601,-0.03463650,-0.04333158,0.03031039,-0.02597317,0.02224973,-0.00750540,0.02270827,-0.02764837,-0.02781313,0.04180096,-0.02146329,0.00080283,0.00519016,0.02370105,0.04087332,-0.02697300,-0.03870639,0.02091533,-0.02118441,-0.01313382,0.03680116,0.02314642,-0.03229843,-0.00687034,0.02242669,0.01313353,0.01314518,-0.01636999,0.01403570,0.04745835,0.03823161,-0.00479346,-0.04179101,0.02073127,-0.03901396,-0.04622554,0.00237869,-0.04135775,-0.00376032,-0.04990879,-0.02872964,0.01510311,-0.00971280,0.00346364,0.03626131,-0.00812218,-0.00726205,0.00445468,-0.00245313,-0.00472213,0.02876802,0.04849822,-0.02974795,-0.00651736,0.00999805,0.01655352,-0.04388746,-0.03121475,0.04141173,-0.02017554,-0.02524768,-0.01891840,-0.02503013,0.01362807,-0.01230009,-0.02605489,0.03928842,0.00461461,0.01672352,0.00929046,-0.00184703,-0.02577243,-0.00111910,-0.04891562,0.04353807,-0.01643308,-0.00862409,-0.04447689,0.01978335,0.03666866,-0.03847776,-0.02438160,-0.02788315,0.00889421,0.04856135,0.03486545,0.04282887,-0.01360887,0.03888681,-0.01452080,-0.00321140,-0.02672064,0.01918131,0.04611009,-0.00018454,-0.01426484,-0.01113515,-0.03970460,-0.02258318,0.02653662,-0.04783512,0.00448277,-0.02925723,0.00932507,0.03339242,-0.04006307,0.03901485,0.04018161,-0.00830133,0.00008223,-0.04742800,0.01076376,-0.03585365,-0.01873802,0.01410236,0.03883051,0.00283263,-0.04611108,0.02267345,-0.00387769,-0.00406855,-0.02063953,0.01977644,0.00849988
-0.04770461,0.03729491,-0.04433088,0.04734965,-0.02259221,0.03710582,0.02308014,-0.02308050,-0.01783840,0.00218031,-0.01852516,0.01846286,-0.02910580,0.01770655,-0.04187330,0.04018581,-0.03939654,-0.02839361,-0.00374099,-0.04281467,0.04722380,-0.02391877,-0.00019946,-0.04499919,0.03577987,-0.03915694,0.04107408,-0.00392972,-0.01725443,0.00303527,-0.00743578,-0.00175998,-0.00817535,-0.00204287,-0.03402280,-0.03941156,0.01064915,-0.03765655,0.02021477,-0.04174028,0.04540865,0.03469578,-0.04065166,0.00378492,0.04298878,-0.03495925,-0.04716904,-0.00296106,0.02832157,0.03448618,0.01125613,0.02036950,-0.01389565,-0.01734566,0.01148735,-0.00001170,-0.00286129,-0.02884892,0.01855310,-0.00147386,-0.01562600,0.04167039,0.04423219,0.00457742,0.00583491,-0.02212785,0.02589196,-0.00854274,-0.02359142,-0.02143567,-0.00427324,-0.02619542,0.01343721,0.01127895,-0.00650745,0.04323198,0.03934705,0.02933453,-0.00305402,0.02492131,0.04355291,0.02910805,-0.04719939,-0.00965301,-0.03774488,0.04006273,-0.00768590,0.03062457,0.02444270,-0.00343712,-0.04598891,-0.02506815,-0.04931889,0.02362010,0.00774914,-0.04549768,0.03575102,0.03131190,-0.00596780,0.01263217,0.01280311,0.00528424,-0.02134522,-0.01889151,-0.00314609,-0.02108889,0.01756127,-0.04142149,0.02399633,0.03411474,-0.00316042,-0.01754734,-0.02355867,-0.02652824,0.03665531,-0.00745300,-0.00104005,0.01350934,-0.01993049,0.01191188,0.00256731,0.03692931,-0.04641914,0.02318254,0.04418217,-0.00552099,0.02242342,0.02162144,0.01100241,-0.01618193,0.02975645,-0.04248108,-0.04085748,-0.00978511,0.04713479,0.00335168,0.04126082,-0.00296210,-0.02163508,-0.04253914,-0.02488853,0.03569633,-0.03492690,0.02455604,0.00282971,-0.03250447,0.01616624,0.00297835,-0.02480705,0.02785981,0.01486870,0.00619171,0.02210565,0.02658867,0.02331616,0.04899735,-0.03566404,-0.01408994,-0.03508466,-0.04414356,0.02246037,0.04878020,-0.04359829,-0.02091939,-0.02545681,0.03891737,-0.03728795,0.04987300,-0.01122543,0.01119388,0.04516299,0.02058620,0.00128461,-0.04411305,0.01541873,0.03655175,-0.01671914,0.01487008,-0.02772374,-0.00451701,0.01022189,-0.00976959,0.04740961,-0.04986107,0.04141830,0.03847481,0.04955098,-0.00884983,0.00839050,0.01757598,-0.02221792,-0.00102019,0.04871975,0.00862937,-0.01770895,0.03330565,-0.03974606,0.02386266,-0.01952239,-0.00666328,-0.00398336,-0.03195658,-0.00956948,0.02472976,-0.03599073,-0.04322261,-0.00441144,0.00870193,-0.01771019,-0.03210713,0.03982985,0.02442477,0.00174894,-0.03511143,-0.02290108,0.01468310,-0.02230668,0.01882935,0.04055423,0.04887412,-0.04337497,-0.03110712,-0.04013275,0.00174702,0.03990208,0.00812887,-0.04227586,0.04038740,-0.04099731,-0.03080320,0.00960288,0.02426783,-0.03465189,0.04796895,-0.04326033,-0.02177076,0.01284355,0.02353955,-0.02848290,0.01344599,0.04607686,-0.02932698,0.02180839,-0.03603774,-0.03123920,0.03192328,0.02220862,0.04759223,0.00980947,-0.03427868,0.02116773,0.00610297,0.04548426,0.00035992,-0.01223834,0.00080853
-0.04697491,0.04761112,0.02676054,-0.02736091,-0.04435944,-0.00941485,-0.02576853,0.04272128,-0.02263918,-0.02263880,0.03849326,0.00841420,-0.00160987,0.04994537,-0.02918047,0.01336510,-0.03821037,-0.00554410,0.02177000,0.02330041,0.01585251,0.00124826,-0.02907302,0.02014745,-0.02764559,-0.00758875,0.01863531,0.03191892,0.03606946,0.01826963,0.01439715,-0.03046338,-0.01657593,0.00780787,-0.00880285,-0.04263518,0.01810274,0.03620375,0.03483439,0.02535199,0.02423203,-0.03504394,-0.04790317,0.02856797,-0.03852215,-0.00767104,-0.01994267,-0.01785051,-0.03858467,0.02299422,-0.00625717,0.02604783,-0.03982488,-0.04481785,0.03878644,-0.01663871,-0.02509786,0.01792337,0.00793024,0.04252300,0.04228243,-0.04725541,0.01345975,0.00330729,-0.04642859,-0.03175399,0.00270347,0.00573706,-0.04128552,0.00755356,0.03392101,0.01510948,-0.00682595,-0.01770170,0.03797210,0.04400605,0.00243548,0.00589458,0.01465917,-0.01537022,0.04637512,-0.00894675,-0.00436908,-0.04156152,-0.01275135,0.04204446,0.03396508,-0.00284594,-0.02386124,-0.01327547,0.00529996,-0.03380647,0.02181510,0.02324558,0.04801020,-0.02442808,0.01473661,-0.04476973,0.02057089,-0.02930847,-0.04303008,-0.03149866,-0.01602454,0.01243820,-0.02370100,0.03348589,0.03459988,-0.04937185,0.02156715,-0.00355898,-0.04906075,-0.01280992,-0.00259790,-0.02658150,-0.03958070,0.01643724,-0.02017859,0.03319256,-0.04619071,-0.02345002,-0.01247459,-0.01623541,-0.00962774,-0.03849277,0.02132550,0.03595040,0.04389977,-0.03097199,0.01489073,-0.02755128,0.01850334,-0.04628104,0.02283427,-0.02373233,-0.00995407,0.03783264,-0.01140735,-0.00600685,0.00174958,-0.02616664,0.04131870,-0.04789740,0.01861498,0.02353660,0.02582047,-0.03222486,-0.04815279,-0.00014683,0.02994380,-0.02817719,-0.02783614,-0.00510039,0.04178661,0.01721241,-0.04488328,0.02792099,-0.03200442,-0.03015238,0.03067875,-0.01268377,0.00733713,0.00013670,0.02591550,-0.03069601,0.04023464,0.03687057,-0.03088064,-0.04791972,-0.01506147,-0.00553697,0.02083480,-0.01608812,-0.01045356,0.04217540,-0.03376596,0.00240071,0.00151037,0.03022579,0.01355286,-0.03447078,-0.03859885,-0.03756291,-0.03206059,-0.01221249,0.01159333,0.03132988,0.02888146,0.04407937,0.03529475,0.03089589,-0.01615278,-0.00336182,-0.04820031,0.04520370,0.02104005,-0.01151373,0.00145366,0.00359613,-0.04398122,-0.03503088,0.01308786,-0.03642289,0.04796538,-0.01145083,0.00361913,-0.01677700,0.03033103,-0.03483964,0.02646163,0.02496137,-0.01731337,-0.04356951,0.02172922,-0.04186803,0.03537619,0.03625821,-0.00520897,-0.04639168,-0.02615285,-0.01591492,-0.04975314,-0.02541173,-0.04761109,-0.00372145,0.01159769,0.03389918,0.01327012,0.04741289,-0.02854688,0.03973444,0.01542794,0.04313077,-0.00778210,-0.01357595,-0.00237297,-0.04716690,0.01980740,0.03221520,-0.02072113,-0.04540413,0.02400098,-0.04595213,0.01551274,-0.01266892,-0.04029728,0.01960855,-0.01077688,0.02960110,-0.02282990,0.04731333,0.00585564,0.04412436,0.03871826,0.02902899,-0.03274341,0.03198265
0.03631488,0.03641415,0.01936846,0.04342290,-0.00442641,0.01047731,-0.00780755,0.04246004,0.00458974,-0.00304486,0.02223280,0.03286758,0.04686087,-0.00777273,-0.01842798,-0.01896963,0.01660813,-0.01153179,0.02777201,0.01450791,0.00804464,0.01900345,0.02027331,-0.04307643,0.02509037,-0.01947005,-0.02144530,0.03245105,0.04004737,-0.04574373,-0.00026799,-0.01854210,-0.03128411,-0.03404973,0.01223291,0.01289553,-0.02959641,0.02951878,0.01982834,-0.03904872,0.03931070,-0.04309004,-0.02813965,-0.03745670,-0.01428974,0.00664296,0.03999473,-0.01118118,0.00161774,-0.01995742,-0.03292054,-0.00089180,-0.00926615,-0.00239990,0.04225428,0.03978615,0.00917883,0.01766835,-0.02692932,0.03763864,0.02644328,-0.00692007,-0.04272302,-0.04119109,-0.04408119,0.04580115,-0.01951255,0.02988910,-0.02392931,0.00943627,-0.01332042,0.02216678,0.04650382,-0.03016031,0.04425821,-0.01950498,-0.00759570,-0.04663005,-0.04054988,0.02563707,-0.00701570,0.01448974,-0.02797937,0.02142298,-0.03050221,-0.00145064,0.02326793,-0.01284260,-0.02649638,-0.00608657,0.01744990,-0.00473688,0.01486488,-0.01564989,0.03222241,-0.00641063,-0.04686945,0.01901148,-0.02890818,-0.00390617,0.02066491,-0.03590284,-0.01650367,0.02236207,0.04786697,-0.02301756,-0.02785083,0.01889580,0.01321953,0.00536557,-0.03274423,-0.01056600,0.01093439,0.01119325,0.00923064,-0.03439110,-0.02951370,-0.00408258,0.00241181,-0.04233616,0.03120511,0.02957189,-0.04710035,0.01711171,0.02969289,-0.02976966,-0.01630064,-0.01708137,0.04244776,-0.00792562,-0.01676754,-0.04175149,-0.04112149,-0.02584416,-0.03256984,0.02592945,0.02151750,0.04772983,0.00244725,-0.03932831,-0.00634608,-0.03194256,-0.02307878,-0.04793785,-0.04254275,-0.01863707,-0.03104800,-0.00825094,0.04987086,0.02248794,0.02086342,-0.03399843,-0.03011847,-0.01237608,-0.02983836,-0.02549305,-0.01329208,0.04249102,-0.02880296,-0.00560754,0.01057180,0.01004108,0.03502949,-0.00736286,0.00952742,0.00199629,0.03943578,0.02056398,-0.00358797,0.02982671,0.01964920,-0.03244223,0.01037229,-0.02884651,0.00109373,-0.01439157,0.03562920,-0.00253603,0.00761377,-0.02497357,-0.01676155,-0.04587967,0.03012660,0.03250451,-0.02640768,-0.03702350,0.03866472,0.04951513,0.03955838,-0.04019648,-0.00213294,-0.02383097,0.00375919,-0.01560577,0.00910430,0.01013915,-0.01744043,0.00579274,-0.04535376,-0.00097370,-0.01368258,-0.00957897,-0.02736626,0.04434936,0.03482646,0.04633478,-0.01658354,0.04442034,-0.04831525,0.04170183,0.04197871,-0.03266136,0.00034560,-0.02307004,0.02750200,0.00310891,0.03148789,-0.00615241,0.03901083,-0.04641694,0.04566270,-0.01676786,0.03502276,0.04981092,0.04718621,-0.03280666,0.02975358,0.01828502,0.00498537,0.02829224,0.01081325,0.02200212,0.01145823,-0.03767269,0.03161909,-0.04249134,0.04346703,-0.04616228,-0.01788213,-0.01438458,-0.04615783,-0.01675720,-0.03879333,-0.03093173,0.03429021,-0.02244222,-0.01635209,0.01170896,0.04752760,0.02328606,-0.01006693,0.01613311,-0.02468199,0.03707032,0.01692436,-0.04100752
0.00424481,-0.01118897,0.01462061,0.02151727,0.00457498,-0.04490190,0.03400159,0.04745537,-0.01920278,-0.03471855,-0.02697123,0.01592709,0.03693308,-0.00580581,0.02207238,0.04609528,0.02684816,-0.03553835,-0.00075413,-0.01193739,0.00355477,-0.04097389,0.04127618,0.04862464,0.04822124,0.03330433,-0.04852220,-0.01961749,0.00526761,0.03528944,-0.01812664,0.03658063,0.03237532,0.00676932,-0.03068667,-0.01482929,-0.00405532,0.00017075,0.00140889,-0.02376851,-0.00876210,0.00358964,-0.00163911,-0.03327563,0.00432074,-0.01005569,0.00347291,0.04659322,0.01583434,-0.03635952,-0.04079899,-0.04097599,0.02172936,-0.04740361,0.00919078,-0.00741711,-0.03061084,0.04199708,0.01123220,-0.04018693,-0.02923024,0.02225128,0.00343190,0.02745071,0.00170027,0.01122456,0.02000133,-0.03836412,-0.00996713,0.00658417,0.04714322,0.02062177,-0.04004976,-0.04321590,-0.01467305,-0.03959690,-0.04827712,0.01078854,0.00587225,0.02666443,-0.00941877,-0.00479777,0.03316158,0.00107908,0.00880720,0.01383776,-0.04242567,-0.00889196,0.00489948,-0.03045794,-0.01449948,0.04754877,-0.02945537,0.03377604,0.03523253,0.02043183,-0.04141404,-0.01635795,-0.04951587,0.03960123,0.04543416,-0.03016154,-0.02957019,0.02713777,0.03930238,0.01542344,-0.00836783,-0.00540393,0.04449775,0.02296883,-0.03089611,0.00213718,0.03061928,0.02165505,0.00563876,0.04927589,0.04047639,-0.02014253,0.02420795,0.03856706,-0.01939162,0.02679883,0.02740042,-0.02626430,0.01185917,0.03591967,-0.02108746,0.00073297,0.03503994,0.04028177,-0.00800697,-0.03967936,0.02081196,-0.04999255,-0.04556149,-0.03607317,-0.04678136,0.04935387,0.02003609,0.03525957,0.04748150,0.04845101,0.03133108,-0.02768087,0.04162780,-0.04672619,0.03526629,0.04355892,-0.04569597,-0.02223632,-0.04845513,0.01239043,0.04779444,-0.01620718,-0.01704242,0.00027432,-0.00915008,0.03178370,-0.02828431,-0.02036200,0.03435630,-0.01340121,0.00100810,-0.01791079,0.00612358,0.03280539,0.03200558,-0.01402202,0.04470268,-0.04628185,-0.04837551,-0.02886403,-0.03088203,0.01211069,0.03671009,0.01396200,-0.01998767,0.01973132,-0.00465313,0.04767023,-0.02801931,0.03466753,-0.04895777,-0.01602712,-0.02621945,-0.04642667,0.04430519,-0.01179075,-0.00562978,0.02593521,0.01298017,0.02616555,-0.01677294,-0.00876420,0.01341376,0.02045165,0.00593476,-0.02349446,-0.04640500,0.03590338,-0.02902433,0.01511276,-0.02689243,0.00173714,0.02770910,-0.02677049,-0.03139235,0.02426485,0.02822056,-0.03287909,-0.00413594,0.01142556,-0.04925948,-0.02534313,0.04942055,-0.02603187,-0.03844632,-0.03568895,0.04930099,0.01318539,-0.04282675,-0.02033977,0.03787429,0.04902134,0.02953996,0.01086738,0.03948021,0.02033055,-0.04938221,0.03399277,0.01272201,-0.03821470,-0.01207057,-0.04389158,-0.04178241,0.03471728,0.00912273,-0.00150738,0.00988797,0.01692981,-0.00611192,-0.03189284,0.04182449,0.03723797,-0.00035221,-0.00377042,0.02736271,0.01462460,-0.04232540,-0.01447866,-0.03580496,0.01015912,0.00240932,-0.03305048,-0.01013814,0.04096160
0.02810687,0.04480674,0.01737833,0.02962017,-0.04842134,0.03554012,-0.04669846,0.00443646,-0.04308888,-0.00563589,0.03564018,0.00510092,0.00153924,0.03526470,-0.00211406,0.02152199,0.03159318,-0.02611684,-0.02068904,-0.02663481,0.04837612,-0.03869724,-0.00367603,0.01452264,0.04626798,-0.04382832,0.03051937,-0.03096218,0.03749568,-0.04033848,-0.04443420,0.01904625,0.03104726,0.04344316,0.00425838,-0.03649126,-0.01853809,0.04626260,0.02430614,0.01208287,0.02727126,0.03948819,-0.04792411,0.03203376,-0.01612452,0.01134168,0.02415628,-0.03400748,0.03284542,0.01059114,-0.03949357,-0.00615131,-0.04336502,-0.00205391,0.02993918,0.02641020,-0.03537234,-0.04834120,0.03101435,0.04087046,-0.04148585,0.00607470,-0.03023193,0.00519097,0.01342968,-0.00649767,-0.03946940,0.03112843,0.03502437,-0.01646453,-0.02705468,0.04031677,0.01213995,0.04293140,0.04755962,-0.03870853,0.02248826,-0.04158449,0.03569811,0.01165725,0.03322994,0.01257536,0.02129019,-0.02560595,-0.01269462,0.04390189,0.00415037,-0.03843679,-0.02014530,-0.02582402,0.01322746,0.00190217,0.01371091,0.01580070,-0.01573170,-0.01641635,-0.00240401,0.04522393,0.02341321,0.02441363,0.02038288,0.00429302,0.02614869,-0.01595928,0.00490587,0.01171009,0.02068130,-0.03712527,0.00403406,-0.01918735,0.04485533,0.04436972,0.02636159,0.04635264,-0.01736613,0.03913674,0.02829230,-0.00929150,0.00860545,-0.02330113,0.02731690,-0.01397412,0.01843446,-0.03649130,0.01957716,0.04656201,-0.01516385,-0.03502667,0.02593025,0.02353947,0.00348030,0.04426373,0.00047457,-0.00665957,-0.01447572,0.02487028,0.02330834,-0.02062736,0.03371419,-0.01786580,-0.01390399,0.01138826,0.03014120,0.01721900,-0.00698293,0.02111007,0.02730967,-0.02186164,-0.00811921,-0.03281917,-0.03338192,-0.04508257,0.03046780,0.02932047,-0.04034005,-0.01413984,-0.00542348,-0.04268094,0.04255851,0.00238163,0.04513519,0.00123137,0.04673874,-0.02441452,0.03256069,-0.04749908,-0.04915756,-0.02735540,0.00447102,-0.02029395,0.02392275,0.03682192,0.02149766,0.00533202,-0.02142507,0.04734209,0.02507516,-0.03467528,0.01554483,-0.04290047,-0.01135774,0.01140521,0.04530879,0.00488447,-0.03866588,-0.01756494,0.03936142,-0.02615920,-0.00664819,0.01973835,0.03999997,0.00458093,-0.03219439,-0.00782183,-0.03406622,-0.03618897,-0.03797462,0.00609673,0.02124077,-0.00264206,-0.02472471,0.00103776,0.00940564,-0.04645837,0.01961321,0.01599125,-0.00698913,-0.04316867,-0.04129880,-0.04366772,-0.00464153,-0.03069136,0.01193845,-0.02524965,0.04951717,-0.01384398,0.03830833,-0.04957469,-0.04940726,-0.02805253,0.04687038,-0.00855488,-0.03320336,-0.03474397,0.04372193,-0.00970107,0.03715945,0.02338823,0.04025735,0.01264672,0.00723784,-0.03534739,0.03955923,-0.00594409,-0.01847943,0.00571297,-0.04644969,0.04877694,-0.04971359,0.00244482,0.02023718,0.03404342,0.03157893,0.03960152,0.00014961,-0.04760070,0.01520188,0.04963252,-0.03700950,-0.00338118,0.03936610,0.04050251,-0.04055079,-0.04608913,-0.00323529,0.01915204
-0.04096667,0.00179170,-0.00199718,-0.01406233,-0.02817577,-0.04396789,0.03450484,0.00042982,-0.03062130,0.00652408,-0.04167715,-0.00662857,-0.00880435,-0.01323494,0.02198520,0.03624120,0.01374790,0.00064694,-0.02104351,0.00362188,0.02362867,-0.02721782,-0.01326021,-0.03292736,-0.04140024,0.00020863,-0.02937133,0.00815381,-0.00457945,-0.00790121,-0.02359750,0.04944653,0.03804665,-0.04282446,-0.00761632,0.01934060,-0.02608618,0.04252054,-0.02938622,-0.00684185,0.00283996,-0.04467091,-0.04405812,0.00214531,0.01071567,0.04463344,-0.01583443,-0.04587106,0.00851613,0.03609489,0.03961494,-0.03638168,-0.02413668,0.02351571,-0.01812320,0.01748527,0.03457049,0.04962035,-0.02548422,-0.02428453,0.04086440,-0.03203087,-0.03786203,-0.04063158,0.00053331,0.03724278,-0.03365491,-0.01726788,0.00316812,-0.00309253,-0.01664534,0.02362100,-0.03032726,-0.00374921,-0.03149804,-0.02682446,-0.04001025,0.02787477,-0.00014867,-0.04604055,0.01988030,0.00534041,0.00458867,0.04244043,-0.04245802,-0.02150746,-0.00734135,0.01198028,-0.03571844,0.03532983,-0.02374700,0.03358818,-0.03321458,-0.03961238,0.04141741,0.01636143,0.03290437,-0.02659383,0.03729117,0.00438533,0.02194560,0.01802332,0.01472716,0.02675972,0.04966705,0.04093052,0.03661085,0.00199749,0.01107805,0.00165919,0.04242827,-0.04431376,-0.01553442,-0.04382203,0.04215968,0.03719957,0.02402338,-0.01886239,0.01127156,0.03222889,0.02782626,-0.04973598,0.04550586,0.01461566,-0.00544509,-0.04937980,-0.00031654,0.03004802,0.03188594,-0.04268587,0.03755074,0.02739735,0.03180045,-0.04056327,0.01101415,-0.01708592,-0.02681037,0.01190220,0.02981447,-0.01048483,-0.03957996,-0.03156608,-0.02495164,-0.04104449,-0.01857170,-0.00260612,-0.02569548,0.02667976,-0.03323133,-0.01117694,-0.04509043,0.02324348,0.02150409,0.03359738,-0.01840097,0.04736820,-0.04402724,-0.03465635,0.02042460,0.03983529,-0.04560043,0.00119229,0.01716739,-0.02753491,-0.04678562,0.02900607,-0.04901624,-0.01591758,-0.04713992,-0.01835803,0.03814486,-0.00196746,-0.04621923,0.00380211,-0.00763153,-0.00620953,0.00207227,-0.00982191,-0.02772516,-0.04756125,0.04726933,0.02721048,-0.00033532,0.00194144,0.00413796,-0.01911659,0.03747099,-0.03112677,-0.04746934,-0.04924627,0.02136486,0.04537568,0.00313063,-0.04266867,-0.00320605,0.01017335,-0.03143772,-0.02664865,0.02019891,0.01476090,0.03454169,-0.04866913,0.02906821,0.02242142,0.02749790,0.04986209,0.03970775,-0.04387054,0.03460694,0.01433197,-0.00014487,0.00522478,-0.04026832,0.01228364,-0.04590193,-0.01149609,-0.02482599,0.01879830,0.00889542,-0.00849383,-0.04245769,0.00160230,-0.02710425,-0.04001455,0.02544115,-0.01985222,-0.03526991,0.01797809,-0.01114076,0.01750976,0.01466471,0.00818973,0.04364962,0.04802369,0.00303066,-0.02747789,0.00053497,-0.00714340,-0.00178415,0.03079930,-0.03371614,-0.03316128,-0.01080496,-0.03554094,-0.00359053,-0.00717197,-0.00201746,0.04950311,0.04037135,-0.02313347,0.03349838,-0.03638691,-0.01031156,0.02026412,0.00185643,-0.04555052
-0.04746331,-0.04175685,-0.02542791,0.03418126,0.01386703,0.02020909,0.00560238,-0.01184075,0.00448427,-0.03569301,-0.00905416,0.00239094,0.04259710,-0.03913728,-0.04263626,-0.00707819,-0.03734952,0.03294067,0.01895167,0.03248665,0.00106117,0.00864945,0.01518346,-0.04719530,0.00200986,-0.00725676,-0.01963747,0.01319164,-0.01076478,0.03722088,0.03164378,0.02868963,0.01103484,0.02045355,0.03045480,0.04822936,0.00099769,0.04546321,0.02357699,-0.04780805,-0.02952731,-0.01598208,0.04438279,-0.03994917,-0.03883084,-0.00561787,-0.03582127,0.02367592,0.02287756,-0.01444826,-0.01242735,0.01209640,-0.03788390,0.01160038,0.02762178,0.02858428,-0.01501533,-0.04461026,-0.01037509,-0.00768266,0.03721651,0.01619476,-0.02038275,-0.04645836,-0.03507046,-0.02386108,0.04800511,-0.03381637,0.00664917,0.03779251,0.02596221,-0.00474305,0.02190578,-0.00864819,-0.04560455,0.00155161,-0.03211355,0.03478356,0.02255512,-0.04979174,-0.00755473,0.00968548,0.02981687,-0.00206915,-0.02307591,0.00078510,0.02642925,0.04051002,0.04135666,-0.04836646,0.01581169,0.00983094,-0.00256941,-0.00581085,0.01021433,-0.03492086,-0.03952585,-0.01527046,0.00601061,0.02246595,-0.00981265,0.04271686,0.03581105,0.01244600,-0.02252699,-0.02722224,0.01251457,-0.03113034,-0.03551585,0.03624154,-0.03905966,-0.03944260,-0.02993928,0.03194939,0.03159643,-0.01433647,-0.01403549,-0.04208064,-0.02521835,0.02543171,0.00117092,0.01678040,-0.00983683,0.00698334,0.02885127,-0.01883344,0.02910126,0.02343751,0.04835049,0.04634469,-0.01570868,-0.04973489,0.02143727,-0.02782662,0.00603973,-0.02940660,0.04342731,0.03734181,0.04752122,-0.02877549,0.03423980,-0.00764107,-0.03614070,0.00242906,0.04496254,-0.01987473,0.02284729,0.04324553,-0.02411314,0.04635915,0.04171347,-0.03629488,0.01070076,-0.02039547,0.01341357,0.02047039,0.01937607,0.02273363,-0.02478765,0.04006674,0.03800702,-0.03678543,-0.01152728,-0.04451368,-0.00622426,-0.03952480,0.01050415,-0.04503297,-0.03426431,-0.03831394,0.00663652,-0.00508052,-0.00627412,0.02292668,0.03387940,0.00266771,0.03572789,-0.02628939,0.00049089,-0.04562413,0.03357125,0.01687224,-0.01112507,0.03788823,0.03526005,0.01486996,-0.00976903,0.04589895,0.04128325,0.02820573,0.01937253,-0.03332348,-0.01567281,-0.04176589,-0.04181417,-0.01068196,-0.03563832,-0.01226388,-0.03716169,-0.02364012,0.01113410,-0.03171736,-0.00396745,-0.03115851,0.04051406,-0.03666300,-0.02360102,-0.04615766,0.00653068,-0.01354532,-0.04726764,-0.01834321,-0.01728265,-0.00663736,0.04247049,-0.02807742,-0.04194752,0.04874660,0.01542242,0.01483646,0.02439136,-0.02222015,-0.00626963,0.01956458,-0.04806243,-0.03494533,-0.01019518,0.02142743,0.00540875,-0.03969426,-0.00955058,0.02048452,0.00543063,0.01743786,-0.02759852,0.00129560,0.03517409,0.00659848,-0.00009880,-0.00809459,-0.01289808,0.04452002,0.04251585,0.02484539,0.01508917,-0.03689062,0.00868724,-0.00080517,-0.00284918,0.01636240,-0.02308453,-0.01875613,0.04273425,0.00600482,-0.02882372,0.01309041
0.04983010,-0.00073656,-0.00148883,0.00242559,-0.02860494,0.01696766,-0.03286464,0.03897988,0.04363943,0.01540350,0.00992312,0.04447236,-0.03991838,-0.04590072,0.00326674,0.00873277,0.01878143,-0.03173789,0.01760309,-0.02638816,-0.03827900,0.03150162,-0.01579092,0.02404367,-0.02584682,0.02283819,0.03127789,0.00428968,-0.03914228,0.00248759,0.03072317,-0.02137401,-0.04575064,0.04372108,-0.04320428,-0.03715617,0.01491574,-0.02734775,-0.04477419,-0.00374029,-0.01577913,-0.00240161,-0.00772323,-0.04269892,-0.01202403,-0.02667987,-0.02025850,0.01265825,-0.01737895,-0.04647521,-0.01469499,0.03323083,-0.00272496,-0.02722893,-0.00038881,-0.03849908,-0.02163169,-0.02700294,0.00722195,-0.04156121,-0.00258025,0.02005259,-0.02512664,-0.00829081,0.01574643,0.04843033,-0.04798836,-0.00134013,-0.01900324,0.00947218,0.04032490,0.03230963,-0.01751298,-0.03915965,-0.03773167,0.02170019,0.04985243,0.04225114,-0.00454111,-0.02851451,0.00507333,0.04762426,0.00025469,-0.03049942,-0.00018389,-0.02924046,0.04406338,0.01277998,-0.03481466,-0.04528432,-0.01153551,-0.00436225,-0.02792462,0.03788302,-0.02184270,0.02147043,-0.02886930,-0.03981205,0.04129722,0.04108730,0.01824514,-0.01787291,-0.01487240,-0.03438629,0.03394539,-0.01050388,-0.00516563,0.04737395,0.00932778,-0.04478109,-0.03351635,0.00984076,0.04582210,0.03268997,0.03276012,0.01519934,0.04043402,-0.01022985,-0.04464609,0.00503979,-0.04978830,-0.02703721,-0.01699040,-0.02753964,-0.04985435,0.00303987,-0.04149050,0.03469986,0.00048868,-0.01261090,-0.00416529,-0.01508000,0.00505680,-0.01458580,-0.04988827,-0.00794615,-0.03198291,0.00161853,0.00166992,-0.02804223,-0.01170669,0.04272811,0.04911516,-0.01153769,-0.04410112,0.00979517,-0.00137416,-0.03928817,0.02757460,-0.03599230,0.04398710,-0.01119652,-0.03724846,-0.02671836,0.00473756,0.00524698,-0.01014339,-0.02025772,0.02200771,-0.02629877,-0.00826702,-0.00428144,-0.02842419,0.00201440,-0.00685253,0.02988915,-0.01547359,0.04823945,0.00530021,-0.01205824,0.03929937,0.03119910,-0.01920138,-0.01887347,-0.04540735,0.00581201,0.00058729,0.00699362,0.01925160,-0.00819496,-0.01217546,0.03697753,0.01779008,0.02084490,-0.00773499,-0.03649241,0.02966239,-0.01783337,-0.00193229,-0.02322395,0.01163915,0.04206035,-0.00891506,-0.04276714,0.02224794,-0.02330597,0.04380598,-0.01710033,0.03610633,-0.02585909,-0.04032702,0.04009375,-0.00484991,-0.00212033,0.02523876,-0.01725760,-0.04740474,-0.03172033,-0.04785295,0.03381277,-0.01395103,-0.03953894,-0.00933884,-0.03488135,-0.01959913,0.04097426,0.03861688,0.04388211,-0.03365271,-0.03141773,-0.01325877,0.01981257,0.01344484,-0.01212138,0.01101943,-0.00226872,-0.02139125,0.00290802,-0.03252968,-0.02420093,-0.01562167,0.03445633,0.00468852,0.03159114,-0.01064703,0.04371715,0.02971730,0.01712818,0.03116222,0.03546346,0.01344819,0.02112884,0.01622165,0.00194506,-0.02811964,-0.04877067,-0.01731992,-0.01330128,-0.04900805,-0.01269034,0.00329648,-0.02854081,-0.03623633,-0.00922076,0.04673130,-0.01577781
-0.01047369,-0.04587003,-0.00628709,-0.04469088,0.02248774,0.01432412,0.04888851,-0.04528927,0.00793057,-0.00572702,0.04991755,-0.03507081,-0.03969537,-0.02015531,-0.03160002,0.03584716,-0.03840127,0.04340703,-0.01381810,0.01983995,-0.03076349,-0.02433113,-0.00828152,0.00494386,0.04870133,0.02067816,-0.02971062,-0.01970170,-0.02720812,-0.01791815,-0.03916770,0.04638654,0.00463133,-0.01873206,-0.01095229,-0.03384710,0.04015798,-0.01817506,0.00788276,-0.02370726,0.02638900,0.00746530,-0.04439659,-0.01529318,-0.03767180,-0.02196223,0.01685103,0.04819088,0.01316199,0.04667989,-0.00371059,-0.00348586,0.02099829,0.03556417,-0.00051556,-0.00209669,0.01615841,0.01391742,-0.04246350,0.01193414,-0.01474300,-0.01766262,0.03366928,-0.04108734,-0.01953459,0.01212579,-0.01911869,0.02436553,0.02440445,-0.04052810,-0.00640160,0.02298960,-0.04900328,-0.03033054,-0.04700048,0.01584742,-0.04258730,-0.02198295,0.03768385,-0.03006407,-0.02539256,-0.02227622,-0.02659820,0.01962361,0.02422437,0.02304545,0.02367489,-0.03672002,-0.03585631,-0.00536893,0.04743779,-0.03098328,0.04813316,0.00129765,-0.04409985,0.01611172,0.01916952,-0.00342982,0.03007927,0.02094674,0.01401148,-0.03705481,-0.03708655,0.03531446,0.02577737,-0.03094522,0.02889026,0.02388017,-0.02674178,-0.01905484,-0.00795912,0.03799341,-0.01714187,0.04398449,0.00549281,0.04553712,-0.01856386,-0.02444292,-0.02282857,0.03304974,0.01814443,0.02821867,-0.01064613,-0.02109173,-0.03858730,0.04786516,0.01688029,0.03405800,-0.01445192,0.02572783,-0.04533803,-0.02764318,-0.01548973,0.00693877,-0.00659790,0.00190459,-0.02426031,-0.04810651,0.01124188,0.03382349,0.02971337,0.03753192,-0.00984022,0.04939457,-0.04304529,0.03230530,-0.01834070,-0.00099429,0.02004999,0.02965910,-0.01574229,0.00604461,0.00402440,-0.00065324,0.01322951,-0.04990045,-0.01678487,-0.01044388,-0.04911507,0.03183756,0.04067362,0.00723363,0.03826246,0.03009038,0.01973243,0.04291520,0.04428441,0.04606514,0.01961925,-0.04808250,-0.04091303,-0.00982730,0.00218136,-0.04723327,0.04905567,-0.03756736,-0.02975873,0.04762739,0.00718368,0.00736095,0.00193086,0.04618353,0.00088317,-0.02059829,0.02701924,-0.00035605,0.01665432,-0.02183251,-0.00002890,-0.03991747,-0.00350300,0.03728134,-0.04883817,0.02865833,0.00321042,-0.03627098,-0.01261735,-0.02856345,0.01324368,0.01057002,-0.03341471,0.04009676,-0.02686678,0.03498678,-0.04774991,-0.01970246,-0.01830777,0.01924149,-0.00325899,0.02767392,-0.04669093,-0.00507962,0.02909941,0.00852334,-0.04907728,-0.01104281,0.00436422,0.01274365,0.00948932,-0.04176999,0.02590511,-0.03080531,0.01782147,0.01446183,0.03630010,0.01082234,0.01836042,-0.01886900,-0.04390927,-0.03689715,-0.01234460,-0.00781376,0.04602772,-0.03485953,0.02477521,0.02599635,-0.04467126,0.03215614,0.01048253,-0.02993006,-0.02618861,0.00060992,0.01288217,0.00248743,-0.01686297,-0.02993831,-0.04235623,-0.00365844,-0.00363005,0.02115032,0.02366895,-0.02585968,-0.04501110,-0.01029857,0.02870226,-0.03718093
0.03464543,-0.02679162,-0.00260046,0.04841789,-0.02094438,-0.02648682,0.03196819,-0.00698372,-0.02389759,0.04268058,-0.00542194,0.00917289,-0.00506561,0.03060189,0.03452281,0.00719924,-0.04422364,0.00273702,-0.04958513,-0.00186037,-0.01733202,-0.01437711,-0.01918738,-0.03397501,-0.02231658,0.04452628,-0.04409447,-0.03969440,-0.04631872,-0.02130121,-0.03121134,0.02867476,0.01884142,-0.01443883,-0.00582024,-0.01809385,0.01462103,-0.04139109,-0.04730754,-0.00738363,-0.00474075,-0.04564779,0.00351705,-0.03468591,-0.02227177,-0.01961826,0.03570182,-0.00199693,0.03053359,-0.03629356,-0.04868359,0.04638374,-0.00429549,-0.02484139,0.01879745,0.01231736,0.04717782,0.00144573,-0.00980220,0.03440109,0.01735486,0.02205962,0.01825714,-0.04974233,0.04012806,-0.03956297,0.00623071,-0.01040082,-0.01594785,0.03113445,0.02859483,-0.01133517,0.01162382,0.04103063,-0.02754662,0.03947441,0.00727674,0.03654106,-0.03340020,0.04554521,-0.00838257,-0.02698519,-0.03840473,0.00295714,0.00243615,-0.01126235,-0.01707087,0.00576644,-0.02678319,-0.04481757,-0.00513608,0.03045807,-0.03337117,0.01765905,-0.01791636,0.04177861,-0.03455250,-0.00460923,-0.01198785,0.02287879,0.03044917,-0.04465976,0.01537194,0.03378052,-0.01444804,-0.02297737,0.04764531,-0.01946486,0.00897906,-0.01606393,-0.00915129,-0.00095611,-0.00753551,0.02228309,-0.02165114,-0.04511405,0.04705945,-0.03191870,-0.01481954,-0.02535112,-0.02321975,0.03507579,0.04133101,0.00366312,0.00012125,-0.03619602,-0.04704756,-0.02673996,0.02810688,0.01415301,0.02611705,-0.00270474,-0.01334699,0.00234174,0.01010709,0.03820955,-0.04897643,-0.03245273,0.00793152,0.04765702,-0.03601275,0.02328070,0.04505414,-0.02325614,0.00326135,0.01049634,-0.02766146,-0.00761938,-0.04909952,-0.00679094,-0.04290028,0.02817765,-0.00200965,0.03115692,-0.04903090,0.01226845,-0.04204691,-0.01036151,0.01326656,-0.00248124,0.01626024,-0.00808059,0.03887967,-0.00555324,0.03237237,0.00867945,0.00516357,-0.02459447,0.02344334,0.02991068,-0.03881751,0.00327411,0.01037581,-0.01235376,-0.04245430,0.02978713,0.02579037,0.03838677,-0.03220279,0.00680203,0.03512505,-0.01813181,-0.04579949,0.03606563,0.04757209,-0.04204959,0.04960753,-0.02966597,0.03762135,-0.03286136,0.00375838,-0.00504151,0.00509530,0.02952846,-0.03540812,0.03306803,0.04746998,0.01876559,-0.01739446,0.00592058,0.02894858,-0.02176954,-0.02507977,0.04946168,0.00588130,-0.01424063,-0.00140190,-0.02085536,0.01577666,-0.03711303,-0.01191603,0.01642377,-0.02890325,-0.02006717,-0.00207078,0.00633744,0.01579601,-0.03149629,0.00027464,0.01045144,0.04100305,-0.00301335,-0.01453617,-0.04999248,0.00481856,0.02191717,0.02948592,0.01578411,0.02798855,-0.04876192,0.02224591,-0.02458378,0.02025759,0.02360058,-0.01764017,-0.03491300,-0.04126848,0.04038044,0.01473641,0.03223191,-0.01353587,0.04665073,-0.03335575,-0.04889249,-0.01280055,0.03464627,-0.03405937,-0.04367257,-0.04803282,-0.04118253,-0.04939821,0.03513959,0.00284333,0.02326140,0.04963934,0.00136035
0.04895611,-0.02521802,0.01252672,0.00988567,-0.04710273,0.00185831,0.02109334,-0.03609875,-0.01103627,-0.01939068,0.04394890,-0.01914625,0.02837993,0.00951707,-0.03205326,-0.02868769,-0.04674805,0.04316204,0.00677399,-0.02855286,-0.03623172,-0.01556794,0.03553370,0.03031039,0.03459421,0.02793292,0.01503470,-0.04264437,0.00803527,-0.04959992,0.04203358,-0.04718149,0.01829634,-0.00577714,-0.00794361,-0.02163803,-0.03611498,-0.03930049,-0.01775277,0.02146592,-0.01779116,-0.04363379,-0.01611432,-0.04080984,-0.04184827,-0.04566120,0.00490534,0.04191349,-0.00344165,-0.04873350,-0.03657456,0.01499318,-0.03978467,0.00931787,-0.02347680,-0.04417279,0.02823338,-0.03618802,0.01250818,0.04771029,0.00193358,-0.01491861,-0.03511266,0.00299834,-0.02473866,-0.02284801,0.03228482,0.01445300,0.00659210,0.03690450,0.00939469,-0.04490029,-0.00744364,-0.02274609,-0.00511850,-0.02043501,-0.00159146,0.04196031,0.02134627,0.01970356,-0.02374455,0.04836909,0.00334046,0.00936261,-0.00503887,-0.03174456,-0.04558812,0.01629427,-0.01472705,0.02988007,-0.04036488,0.03127286,0.03622748,0.03207806,-0.04755964,-0.04362755,-0.02298815,-0.00834204,-0.01689826,0.04138980,0.00756834,0.01472752,-0.02996747,0.02240385,0.04195920,0.03317500,-0.03755198,-0.04291449,0.02234644,-0.02665250,-0.01497024,0.01410694,0.04803701,-0.03752336,0.01710313,0.03308622,-0.03052782,-0.00063523,-0.03020776,0.02644012,-0.02353814,-0.02275471,0.03911205,0.00526675,-0.03570365,0.03341956,-0.04357013,-0.02640078,-0.02297753,0.04608428,-0.00123229,0.02826223,0.00656416,0.03250359,-0.04527033,-0.00414003,-0.04108895,-0.00046948,0.02191189,-0.02086433,-0.01343925,-0.01562762,-0.02303666,-0.00062619,-0.03903931,0.01935465,0.04058713,-0.02513023,-0.03370479,-0.02532947,0.00239428,-0.01379561,-0.01685527,0.00451387,-0.00622975,-0.02304729,-0.01980497,-0.02175877,0.04480663,-0.03018264,0.00203567,0.02863706,-0.02652691,0.04374814,0.02657678,0.04711888,0.00912720,0.03099725,0.00741693,-0.02581928,-0.01380706,-0.00782224,0.00561956,-0.00052409,0.00365244,0.04756010,-0.03190968,0.03687068,-0.00952914,-0.04251213,-0.01307272,0.00832084,-0.02948820,0.01731234,-0.02421582,-0.04167884,0.03539114,-0.04340578,0.02541501,-0.03523324,-0.03524611,-0.03443441,0.03323561,0.04306230,-0.00883703,0.01232204,0.01501616,-0.02896503,-0.00393912,0.01709982,0.03711251,0.00029067,-0.01116685,-0.03021380,-0.04598637,-0.01675616,0.01499250,-0.03331966,0.02608633,-0.04239399,0.02262403,0.02261732,0.03915504,-0.04646781,0.04617900,-0.04629501,0.00342140,-0.02537463,-0.02494973,-0.02453415,-0.01923713,0.01541403,0.04342740,-0.03754891,0.03125875,-0.04158495,-0.03045516,0.01672905,-0.01895355,0.02217083,-0.00901179,-0.00489370,-0.00235794,0.00880595,0.02226636,0.01293698,-0.00301018,-0.03435698,-0.03857571,-0.01079315,-0.02116387,-0.03454932,0.02915755,0.01304234,-0.01387502,-0.01711720,-0.01928825,-0.04737309,0.00190314,0.00776642,-0.01034891,-0.01601573,0.02166782,0.02125471,0.02550425,0.02384493
0.02328714,0.01004507,-0.01340272,-0.03874749,0.03181927,0.01478796,0.03234399,-0.01466992,0.04086200,0.00475838,0.03377939,0.03547317,0.04855734,0.02852404,-0.03466529,-0.00832041,0.03921689,0.02792997,-0.00907196,-0.00515921,-0.04192025,0.00865101,0.04268754,-0.04970341,-0.01464493,-0.03174713,-0.04270400,0.01502177,0.04894016,-0.00558182,-0.02193841,-0.01073978,0.03916873,0.03803385,-0.02191803,0.01746785,0.04362544,0.03403519,0.04560128,0.02391530,0.03308732,-0.00230613,0.04036174,-0.03948140,0.02722130,0.00672369,0.02566676,-0.01425576,0.00998191,-0.00709657,-0.04213098,0.01345519,-0.04418273,0.02033220,-0.04160255,0.01430825,0.01827466,-0.03495421,0.00941642,0.04520640,-0.02834934,-0.00533506,0.01768333,0.01842971,0.04662116,0.01903778,-0.00134267,0.00800955,0.01081525,-0.03732195,-0.03726705,0.03071958,-0.03470790,0.01771785,-0.00080477,0.00813176,-0.00547870,-0.01022847,-0.03929456,0.01470658,0.03289886,0.02530145,0.02162922,0.00330451,-0.02925958,-0.04592143,0.00704066,-0.04029170,0.02272839,0.04987380,0.04920903,-0.03201402,0.04318416,0.01687141,0.01774338,-0.03771156,-0.00909681,0.04069918,-0.02302105,0.04945708,0.04301589,0.02041185,-0.00954048,0.01459273,0.00698474,0.02472950,-0.00101933,-0.04236317,-0.03031624,-0.04858353,0.04036160,0.02449283,0.04479959,0.04340954,0.01858664,-0.02171317,0.00158874,-0.03495532,-0.01300393,0.02854437,-0.02880017,0.00203773,-0.00799208,-0.00570949,0.04642475,-0.00599110,0.04165622,-0.03072441,0.04023008,-0.04863868,-0.03892493,0.00323843,-0.04976265,0.00905373,0.03938955,-0.03790049,-0.01588156,-0.00258640,-0.04591138,0.04077831,0.01720798,-0.03049591,0.04984161,0.04168082,0.02354729,0.04012089,0.00170615,0.03785939,0.03964453,-0.01951937,0.01597866,0.03902289,-0.02870121,0.03912439,0.03447852,0.04763852,-0.03795336,0.04759300,-0.02030663,0.01087378,0.04742358,-0.00674074,0.03195707,0.00495701,-0.03719325,0.00871579,-0.01818821,-0.03548227,0.04604345,0.02443588,-0.02776312,-0.03126508,0.02804922,0.02596125,0.02589649,0.04338747,-0.01498572,-0.00236458,-0.01197380,0.00259192,0.02388923,-0.02097781,0.00020811,-0.04903619,0.01515627,-0.02055714,-0.02256632,0.03471873,-0.00739782,-0.03241140,0.00713587,0.04886657,-0.00510980,-0.02712602,0.04124739,-0.00463800,-0.02541886,0.01499028,0.00142443,0.00986997,-0.02340678,-0.02978209,-0.03129370,-0.00607181,0.03869900,0.03726384,0.04329898,0.03823785,-0.00985711,-0.00267080,-0.02400873,-0.00172453,0.02575618,-0.01530062,0.02941954,-0.03587146,0.04935429,0.03081705,0.04873669,0.01061789,0.02569637,0.03303516,0.03159685,0.02081424,-0.01090965,0.02855013,-0.03241165,0.04437044,-0.02507952,-0.01849096,-0.02474958,-0.01568329,-0.02719607,0.03338516,0.00515860,0.00718545,0.02293182,0.03963711,-0.00000057,-0.02846732,-0.02604841,-0.01435622,0.00672926,0.01077348,-0.04836771,0.03377611,-0.04805442,-0.03069911,-0.03304053,0.02218276,-0.02432828,-0.00270770,-0.04452669,-0.00612352,-0.03662878,0.01375460
-0.02625881,-0.02963238,0.03842295,-0.03748910,0.04548265,0.04114549,-0.00215115,0.00309563,0.01601330,0.04220975,-0.00502039,-0.03923459,-0.00596442,-0.01495164,0.04464140,-0.00366941,0.03873819,0.00399929,0.04741184,-0.04003885,0.00488071,0.03979820,0.04277662,0.00525280,-0.04455107,0.03502405,0.04206884,0.00493294,-0.02490805,0.01238698,0.01125170,0.00418419,0.00600431,0.03813982,0.03570927,-0.01095584,-0.04214339,0.02439513,-0.03080104,-0.04469987,0.04810185,-0.04940968,0.04684706,-0.00261691,-0.02985784,0.01122432,0.02463390,0.02558327,0.01966808,-0.01920041,0.04029668,-0.00326520,-0.03546880,-0.00110656,-0.00167762,0.02222550,-0.01479995,-0.04012848,0.02800498,0.03381817,0.03182575,-0.04757949,-0.01952820,-0.02096707,0.02969626,0.01043615,0.01418835,0.03837854,-0.01901648,-0.01930943,-0.01218941,-0.01846880,0.01599102,-0.04480991,-0.01828002,0.00027082,-0.02371504,0.02664028,-0.00763256,-0.02798715,-0.03112462,0.00504037,-0.01262749,-0.02826078,-0.02619894,-0.04889936,0.00301101,0.00705092,0.01418938,0.02672740,0.00519528,0.03189120,-0.04979478,-0.04000866,-0.03581643,-0.03610146,0.04486705,0.02648697,0.01159549,0.02028919,-0.00007465,0.02187265,-0.01587021,-0.04515266,0.01972781,0.02301649,-0.02307663,0.01661483,-0.04838864,-0.04677135,-0.03757830,-0.04324310,0.04937792,-0.04301775,-0.01771555,-0.01753780,0.03458577,-0.00635622,0.00116926,0.04405392,0.04166059,-0.01391757,-0.00535714,0.04630381,0.00315949,-0.04319137,-0.00949094,-0.04299562,-0.02694422,-0.00755950,-0.03682483,0.02216232,-0.02204912,0.03554524,-0.01678611,-0.01819360,0.02396496,0.00578920,0.02087152,-0.03373676,-0.04762464,-0.01122404,0.00122933,-0.03222142,-0.01708152,-0.02664039,0.00059000,0.04731051,-0.00429145,0.04002581,-0.00056705,-0.01128808,-0.02276170,-0.04846681,0.04732114,0.03725022,-0.00216158,0.01157627,0.03171198,0.02788499,0.01608111,0.03585062,0.04505013,0.03278339,0.01133296,0.00201599,-0.03591799,-0.03866595,0.02639426,-0.01956368,0.04260444,0.03879484,-0.02036368,0.04045109,0.01894433,0.03019346,0.01922553,-0.00221552,0.00561775,0.02825304,0.03178275,-0.00840060,-0.04911336,0.04166243,0.04512969,0.04460880,0.02071092,-0.00617076,-0.00379614,0.03451436,-0.03879012,0.03410601,0.03399296,0.03155952,0.01649002,-0.00727846,-0.04728164,0.03969042,-0.03567296,-0.03648271,-0.03055976,0.02224908,0.01536652,0.01696569,-0.01860830,-0.01436979,-0.01384170,-0.02133916,0.03425024,0.02459585,0.04872559,-0.02840368,0.03516318,-0.00069870,0.01399824,0.04446145,0.03958160,0.04860202,0.03715098,0.03922518,0.01696957,0.04365849,-0.00996452,0.04915257,-0.03255803,0.03892474,0.04991337,0.03514576,-0.04796261,-0.02517026,-0.04994724,0.00649915,-0.00698371,0.02615207,0.01736845,0.00611226,0.03232112,0.02875901,0.04198069,0.01579144,0.03087888,0.02432465,0.04073665,0.01347817,0.02623532,0.02037574,-0.01673455,-0.02985915,0.03948742,-0.01682324,-0.03612662,-0.02992195,-0.04613542,-0.00849808,0.02397405,-0.04619130
-0.01694707,0.01746464,-0.03615578,-0.00547699,-0.01168414,0.00886487,-0.02694609,-0.02724407,-0.04964234,-0.02551288,0.01228472,0.04050821,0.00409422,0.03425751,-0.03926567,-0.00683277,0.03144960,-0.00810402,-0.03608317,0.03032782,0.03397955,0.04863266,0.02799785,0.00508416,0.04241597,-0.02992012,0.04851357,0.04340387,0.02870289,0.04036124,0.04299698,0.04736212,-0.03788154,-0.00181598,-0.04463069,-0.02693526,0.01919432,-0.04391612,-0.01117231,-0.02244455,-0.00029470,0.01504607,0.00120520,0.03163651,-0.00767121,0.01919846,0.01886426,-0.04363013,0.00700555,0.02650032,-0.04826917,0.02318290,0.00030070,0.04053248,-0.04529000,-0.04225039,-0.02291514,-0.03055481,-0.01679898,-0.01327997,0.02656848,0.01901558,-0.03265080,0.01557836,-0.03681143,0.04393622,0.02249322,-0.00995785,0.02765980,0.00573924,-0.00387294,-0.00523362,0.01239003,-0.01817378,0.01361145,-0.04086518,0.04267197,-0.03526993,-0.03273968,0.02697500,0.04821471,0.01625169,0.00310205,-0.01547495,-0.00604281,0.04161081,-0.04489468,0.03760851,0.01005495,-0.03385365,-0.03546636,-0.03994808,0.00057442,0.02653437,-0.02954220,0.03729152,0.03618219,0.02576072,0.04157602,0.03436473,-0.04302973,-0.02340175,0.00747434,0.00167282,-0.01776897,0.04361018,-0.00443340,-0.04147674,-0.00602204,-0.00284860,0.01176296,0.04807337,-0.01093158,0.01943387,0.04875204,-0.03961573,0.04045007,0.03828287,0.01781007,-0.01584353,-0.02538682,-0.01443198,0.04632563,-0.04690382,-0.03175166,-0.00840319,0.00538254,0.02761471,-0.03753652,-0.03657629,0.03303613,-0.02487014,0.03595651,0.00010483,-0.03921613,-0.04269087,-0.03002949,-0.01510287,-0.00099816,-0.02773768,-0.03810831,-0.00969920,-0.00859664,0.04874229,0.03717673,0.01337266,0.01581832,0.04740811,-0.04173188,-0.03744343,0.04492180,0.00522714,0.04656376,-0.03875485,0.01512488,-0.01229646,-0.02194192,0.03490253,0.03701868,-0.03927878,-0.02753540,0.01921340,0.02708225,0.01780852,0.04327303,0.01329802,0.03886275,0.04707022,-0.04429752,-0.00640028,0.02211649,0.04908156,0.02165537,-0.04079734,-0.02663493,0.04946258,-0.03929488,-0.01753215,0.01943678,-0.04827098,0.02301003,-0.03899033,0.00304400,0.04672916,-0.01119775,-0.04043330,0.00986717,-0.04858201,-0.02357057,0.01911506,-0.03028305,0.00661211,0.04052569,0.02155066,0.02154316,-0.02784761,0.00747157,-0.03891015,0.02850669,-0.02396940,-0.03417523,-0.03250620,0.01684774,-0.02543607,-0.02444869,-0.02708025,-0.03220742,-0.00908924,0.00634611,0.01388023,-0.03190766,-0.02003777,-0.03020547,0.00659641,-0.02782707,0.02230784,0.01196674,-0.00692297,0.00910572,0.01584640,-0.03311899,0.01380875,0.02389695,0.04773214,-0.04103844,-0.00693066,0.01931561,0.00577908,0.01706279,0.04378010,-0.01838354,-0.01486731,-0.04667927,-0.02139999,0.02735503,0.01443170,0.01412415,-0.03029452,0.04330901,0.02936124,-0.00785666,-0.04764850,-0.00434751,0.01135321,0.03768698,-0.01735214,-0.03862204,0.02157922,0.02432760,-0.00156480,-0.04779809,-0.02177493,-0.01739296,0.03256739,0.01587031,0.02295772
-0.01103366,-0.01383623,0.02064134,0.04724240,-0.02839612,0.00563820,0.03140457,-0.03406240,-0.02314523,0.01107522,0.04485898,0.01475452,0.01021802,-0.00382339,-0.03397299,-0.04084443,0.03851849,0.02895432,-0.00854988,0.03774099,-0.01016393,-0.00545180,0.02572820,0.02717667,0.01842385,0.02259038,-0.04896121,0.04102248,-0.04172527,0.01246809,0.04207834,-0.01514629,0.02882748,-0.01791754,-0.01699157,0.01459410,0.00513325,0.01043955,-0.03549287,-0.04515135,-0.01590114,-0.00859187,-0.02969015,0.01293649,-0.01869163,-0.03368723,0.00892965,-0.01139029,0.03524693,-0.04750471,-0.02852418,0.02734639,0.00323672,-0.01690293,0.01356222,-0.01653404,0.02115456,0.04863886,-0.04965993,-0.03251138,-0.00379314,0.00570444,0.02739078,0.01722259,-0.04195278,0.01527481,-0.03619874,0.03027600,0.02562479,-0.04357888,0.04748890,0.04599616,0.03707093,-0.00809287,0.01618863,-0.04701962,-0.01055630,-0.03664647,0.02386094,-0.02943317,-0.04154996,0.00329404,-0.04977178,0.04060461,-0.00575951,-0.03221918,0.00703762,0.01120061,0.02607817,-0.00773645,-0.03472095,-0.02328170,-0.03823711,-0.00874490,0.00366948,-0.01613217,0.00689311,0.04346975,0.04495914,-0.01957284,-0.03865357,0.01060618,0.02328021,-0.03366295,-0.01709301,0.04778895,0.03577717,0.03496819,0.01734296,-0.01045893,-0.03536413,0.04520642,-0.03452830,-0.02635769,-0.04861486,0.03593416,-0.00497918,0.04545741,0.00613068,-0.00930209,0.02442339,0.03879299,-0.02497199,-0.03262039,-0.00090554,0.03569294,-0.02591597,-0.00148664,-0.04880874,-0.01801019,0.01224098,0.02810078,-0.02591048,0.03040238,-0.03686322,-0.01401280,0.02983396,-0.04558008,0.04582253,0.02322847,-0.01594355,0.04015614,0.04737177,-0.00314248,-0.03290671,-0.03075364,0.03452717,0.03668350,0.02154912,-0.02340929,0.03620763,0.00727544,-0.03373460,0.02797205,-0.01042108,0.02966478,0.01043658,0.00744329,0.03840275,-0.02620059,0.01697368,0.00443635,-0.02451455,-0.02603178,-0.00832753,0.01134756,0.01893425,0.01475483,0.02222283,-0.03505155,0.04920783,-0.01227314,-0.04953356,0.02699934,-0.04460755,-0.04493269,-0.03885135,-0.00186838,-0.02487259,0.00716320,0.00103845,0.01831967,0.03225004,-0.01695140,-0.02196091,-0.02885837,0.01353094,0.04297373,-0.01767766,-0.02827601,-0.04450700,-0.01178493,0.04190088,0.01332949,-0.04196236,-0.03549378,-0.00271534,-0.01793281,0.04516228,0.02972126,-0.04108334,0.04946310,-0.04679742,0.03153753,-0.04334926,-0.03432500,-0.03471272,0.01818570,-0.03959894,0.00859552,-0.04886942,0.04081104,0.04438461,-0.01569663,-0.02164044,-0.00734244,0.01377296,0.01856107,0.03130234,0.01942751,-0.03601438,0.03804597,-0.00893434,-0.02898544,-0.01962037,-0.02099032,-0.01158340,-0.01900463,-0.03334944,0.03295182,0.03708081,0.04356855,-0.04767327,0.04966321,0.03946582,-0.02723857,0.02740305,0.04974494,0.03224844,-0.04683851,0.01269544,0.00624139,0.04049500,0.02004748,0.01553278,0.02809683,-0.04938626,0.03080583,0.00398282,-0.04502823,0.02986455,0.00144645,-0.01296433,0.01219803,0.02104745,0.04014400
