0.02406779,-0.01920602,-0.02500822,0.02594024,0.03413552,0.03813853,-0.03364349,0.00389481,0.03412706,0.04178090,0.04539220,-0.02644883,0.02004901,-0.04118329,0.02554191,0.01767891,-0.03387251,-0.00987990,-0.02663543,-0.02901739,0.02778289,-0.03480021,-0.02148181,0.01877413,-0.01437526,0.01536920,-0.01876800,0.01696685,0.04914539,-0.04055155,-0.02135899,0.01671952,0.04220087,0.04034894,0.04841692,0.04426844,0.02521775,-0.00188429,0.02297781,-0.00326646,0.01443217,0.04667650,0.03383473,-0.02784694,-0.04477007,-0.03457994,0.04829121,0.02964945,0.03375359,-0.02225217,-0.00290444,0.04773093,0.02489844,-0.03197379,0.02843659,-0.00079256,0.04449869,0.00661874,-0.00399154,-0.01501879,0.02658520,0.01875261,-0.01880763,-0.01233643,-0.00732169,-0.03204228,-0.01265517,0.02992872,0.01023922,-0.04879269,0.03648224,0.00510175,0.04015192,0.04591635,-0.04443119,0.02085212,-0.00340902,0.03917192,-0.00900885,-0.04550800,-0.01825458,-0.02383216,-0.03514428,-0.04368584,-0.01890665,-0.02593483,-0.00059851,-0.03188004,-0.03730553,0.00828296,0.01172706,0.01217917,-0.04450748,0.00950621,-0.00988711,-0.00663000,0.04551684,0.03401453,-0.02127103,-0.00451025,-0.01510146,0.01266890,-0.04150578,0.03848773,0.01683177,-0.03286637,-0.03848067,-0.04010292,0.03270159,0.02912777,0.00782288,0.00011421,0.02996530,-0.02478081,0.01051002,0.00905835,-0.01279360,-0.00012870,0.03220231,-0.03443058,-0.04473300,-0.00919523,-0.01668360,0.01378975,-0.01734770,-0.03656763,-0.01678174,-0.02438378
-0.02223171,0.01371457,0.03671610,-0.01654258,-0.04954848,0.04277320,0.00701785,-0.00479521,0.01215068,0.02240696,0.02359722,-0.00730250,-0.04909930,0.04203214,0.03617180,-0.04135714,0.04458613,0.04627675,-0.00244155,-0.00347890,0.04970186,0.03712303,0.02214683,0.00716801,-0.04597077,-0.04080232,-0.00899854,0.03848935,-0.00358923,-0.00338172,0.01898384,-0.01974811,0.00323095,-0.04026178,-0.00149198,0.03614903,-0.01891535,0.03377528,0.03558725,0.03354681,-0.00276338,0.01080484,0.03806766,-0.04418220,-0.01404756,0.04618535,-0.03577872,0.01180379,0.01784842,0.04849238,0.01577045,-0.01135425,0.02008954,-0.02093170,0.00698551,-0.04721596,-0.04300494,-0.04074418,0.04442707,0.00740394,-0.00254147,-0.03377794,-0.04459386,-0.02681069,-0.00436875,0.04621834,-0.02374757,0.03179472,-0.04867325,0.03670413,-0.01365465,-0.02055606,-0.02384257,0.00797326,-0.01370333,-0.01142295,-0.04838959,-0.03498098,-0.02116006,-0.00857482,-0.03040083,0.01342274,-0.04012561,-0.03097204,0.03186664,-0.01188873,0.02028948,0.01690431,-0.03367222,0.03998146,-0.04678185,-0.00109211,0.01082693,-0.04167507,0.01759559,-0.03174564,-0.03517131,-0.01471300,-0.01944235,0.00949280,0.02121627,-0.00108136,0.03086099,-0.01103672,0.03855643,0.04496980,0.01921686,-0.02087493,0.01340506,0.01469288,0.00781121,0.03065823,0.01293129,-0.03814020,-0.00648273,-0.03764516,0.04067959,-0.04996558,-0.04152631,0.04868552,-0.00372428,-0.03092827,0.03739267,0.00637254,0.04200215,-0.03799560,-0.00816531,0.01060686
0.00502656,0.02621629,-0.00577701,0.03404192,0.04172180,-0.00913464,-0.01076795,0.01575293,-0.01232274,0.00411490,0.02320569,-0.00586254,-0.00695874,0.01040692,-0.03022487,0.00885170,0.02579639,0.04968983,-0.04549122,-0.01177626,0.04592834,0.01762524,-0.00755380,0.01305666,0.01951700,0.01218409,0.00322337,-0.02893284,0.00883281,-0.04048273,0.02628777,0.00698457,-0.03495489,-0.00138578,0.03811904,-0.00863201,0.02544301,-0.01093056,-0.03104577,0.03076446,0.03113509,-0.02224515,0.00494511,0.02788635,-0.02348191,0.01876742,-0.01731770,-0.03162457,-0.01632419,-0.01658944,0.01749718,0.04257450,-0.03226459,-0.03602716,-0.04430198,0.03488793,-0.01468180,0.01660274,0.04835412,-0.02463872,0.00069060,0.04211623,-0.00711111,0.04103226,-0.04655345,0.02990824,0.02257505,0.03449180,-0.03609885,-0.04187695,-0.04074530,0.03002888,-0.01582583,-0.03926343,0.00749849,0.03797152,0.03470360,0.04657764,-0.04430905,0.00209029,0.04769352,0.00391771,-0.03944907,0.00041442,-0.04155687,0.03840557,0.03466213,-0.02534619,-0.02743461,-0.04413799,-0.03148258,-0.04475041,-0.01147030,0.04100326,-0.02610995,0.01116509,0.04690306,0.02613222,-0.03552435,-0.02162991,0.00281075,-0.03443739,-0.02858834,0.02868230,0.02410386,0.03198173,-0.03917962,-0.00567783,0.01349059,0.02161166,-0.04004961,0.00517715,0.01392600,-0.01580322,-0.02095900,0.00392164,0.00726919,-0.00602955,0.03930746,-0.00544463,0.03631401,-0.03702087,-0.01557387,-0.00738367,-0.01955998,0.00786892,0.02094832,-0.01898690
-0.02791066,0.00993193,0.01955673,0.00156519,-0.02835295,-0.00416581,-0.03691416,0.03011734,0.02845892,0.00504134,-0.03623395,0.00247575,-0.00639082,-0.00095921,-0.04074104,0.00284902,-0.00245867,-0.01584467,0.01505450,-0.02800765,-0.03228997,0.02333105,0.02533833,0.02601654,-0.03638761,-0.02018987,0.03047828,-0.01110449,-0.03681807,0.03198877,0.02865877,0.03052836,0.04976198,-0.03636865,0.00860248,-0.01855585,-0.00204759,0.03268490,0.03504167,-0.01555756,0.04276012,0.00970381,0.02111122,0.01327452,-0.02596114,-0.01456256,-0.01829726,0.02140304,0.01024347,0.01250852,0.01107262,-0.00991943,0.00987610,-0.00738975,0.03071341,-0.01892201,-0.04399804,-0.04529569,-0.03588895,-0.03444013,-0.03374605,-0.01282879,-0.03851608,-0.03578658,-0.04916808,-0.03631105,-0.01996706,-0.03405183,-0.02218441,0.01023180,-0.04978130,0.01773806,0.00347645,0.04187873,0.04451046,-0.04813369,0.03965766,-0.03325165,0.01434398,-0.01502990,-0.03097764,-0.04064861,0.04215076,-0.02046158,0.03941069,0.00760362,-0.02339172,-0.00325023,0.03265053,-0.03586075,0.01588004,0.00856274,0.04860729,0.03786894,0.02636156,0.01891717,0.00062808,-0.04976659,-0.03930490,-0.04253762,0.04537584,-0.02006128,0.03904088,0.04740622,0.03277994,0.00559770,0.00314265,0.03359351,-0.01836900,0.00148185,-0.02590639,-0.00964642,0.03859003,0.01029274,-0.03321373,0.02365665,-0.01516283,0.02482125,-0.00351733,-0.01362661,0.04869029,0.02719958,-0.00566538,0.00309455,0.02791778,0.02719965,0.01217582,0.04626809
0.01467528,-0.02271293,-0.02513279,0.00980607,-0.00968855,-0.01373436,-0.04498561,0.00724640,0.02241610,-0.04223159,-0.01726402,0.00799992,0.04865241,-0.00221387,-0.01293877,-0.03014296,0.03193830,0.00445204,0.03973900,-0.02597915,0.00014055,0.00691739,-0.00871308,-0.01709051,-0.04709674,-0.01252698,0.01210641,-0.04649456,0.00941130,0.03418744,0.03178084,-0.02430391,-0.00781208,-0.04977270,0.03007169,-0.04008116,0.04238579,0.02354536,0.02761280,0.01099131,-0.04773494,-0.00054723,0.04901513,0.02603593,-0.01639410,-0.04840038,-0.01572170,0.03378366,-0.01092096,-0.03806861,-0.00932505,-0.01548136,0.00546827,0.01594483,-0.04402319,0.03455902,0.02161031,0.03911469,0.00082473,0.04269457,0.04950461,0.00718925,-0.01716898,0.04131177,-0.03712018,-0.03507905,-0.03921728,0.00224715,0.03117948,0.00007297,-0.02660782,-0.02724622,0.02318767,0.00135595,-0.00727599,0.03817393,-0.02274436,-0.00935145,-0.00952904,-0.01419317,0.00823864,-0.02008609,0.00230775,-0.03630929,0.01960555,-0.01159211,-0.02524790,-0.02363041,-0.02868821,0.00210486,0.02573745,-0.01334162,-0.02341201,-0.00361867,-0.04520676,-0.04078165,0.01898746,-0.00768090,0.02637127,-0.00257114,-0.04869646,0.04909615,-0.03402344,0.01782492,-0.02701428,0.01822163,0.00432448,-0.04653606,0.00137738,0.00170883,0.04791364,0.04710661,0.03813047,-0.01876713,0.04886809,-0.01838849,0.03739798,-0.02473077,0.00134692,0.04710031,-0.01167986,0.01054492,0.02745840,0.04521659,0.01683142,-0.03256670,0.00181603,0.03563733
0.02180239,-0.00997049,0.02599080,0.02059359,-0.04263391,0.02244693,-0.03849742,-0.03391947,0.02832873,0.02919412,-0.03209432,0.04103240,0.01135668,0.03627884,0.02593810,-0.04604731,0.00493535,-0.04728835,-0.00932216,0.01538828,-0.01177343,0.00243793,0.02178961,-0.02986934,-0.03812981,-0.01622577,-0.01620737,-0.00614174,0.04144222,-0.01708523,0.00008913,-0.01658435,-0.00930224,0.00532164,0.01527507,-0.02035307,0.04568012,-0.02358416,0.02175943,-0.04440447,-0.04211615,-0.04253486,0.00795674,-0.01773472,-0.03188446,-0.02561424,-0.04559653,-0.01134944,0.04009881,-0.04284388,0.01336193,0.03354309,0.04961280,0.00019110,-0.01136992,-0.03066793,-0.03838988,0.00353982,0.03507149,0.03994850,0.02174339,-0.04449392,-0.03001641,0.00392413,-0.01403850,0.04867435,0.01876882,-0.01371921,-0.04660624,0.00413157,-0.02430710,0.01408860,-0.03654689,-0.00765537,-0.03500068,0.03325968,-0.02018694,0.01804469,-0.02550226,0.04494611,0.02760089,-0.04294392,0.02486946,0.02211092,-0.04656680,0.01411594,0.04551177,0.03243857,0.00015286,-0.03566565,0.04882441,0.04037585,0.00190634,0.03769148,0.02468718,-0.02320698,-0.02121453,-0.01831571,-0.02576149,0.01384312,-0.00175875,0.02118419,0.04067493,0.02833794,-0.03865859,0.02002880,-0.04142616,-0.00750178,0.01798048,-0.01062523,0.02949626,-0.01574522,0.01454830,0.02906309,-0.01385463,0.00908881,-0.00245328,0.04888508,-0.01608189,0.02162947,0.03911570,-0.04951724,-0.04188026,-0.04018905,0.00336908,0.03527863,0.00444172,-0.03783059
0.00198741,-0.00894971,-0.00347116,-0.00225503,0.04011405,0.01962862,-0.03498327,-0.03295720,-0.03378353,0.02712016,-0.04629258,0.03299327,0.02698331,-0.02528576,0.01800692,0.00230413,0.02664024,-0.01623329,0.00901048,-0.01180323,-0.01709574,-0.01917387,0.01372311,-0.01268556,0.02962849,-0.00152489,0.03842910,0.04143015,-0.04811393,0.00021010,-0.00949362,0.01893291,0.00746300,0.04661906,0.02299142,0.03409563,-0.04147946,0.00011476,0.02938737,0.01279992,0.02071064,-0.01479839,-0.01534163,0.04283271,0.03136787,0.00825769,0.04257187,0.01763966,-0.02077239,-0.02180188,-0.03678743,-0.03387380,0.04025732,-0.03441225,0.00171986,-0.01415866,-0.03378768,-0.04372654,-0.01583062,0.03404546,0.04047832,0.04794573,-0.01803147,-0.01534037,-0.00777084,0.02228048,-0.00394498,0.04746982,-0.01655612,-0.01584140,0.01199008,-0.04143685,-0.03888925,-0.01357210,-0.01147186,0.00545753,0.03540388,-0.03254904,0.00391597,0.00958020,-0.03503042,0.01467777,-0.04420404,-0.00540570,-0.01183003,-0.04401498,0.00234175,0.00848419,0.03709428,-0.03655714,-0.01968992,-0.01664748,0.00866765,0.04729222,-0.04349658,-0.00311362,-0.03511868,-0.03092253,-0.00453909,0.04975100,-0.03303321,0.02371449,-0.03490884,0.03277056,-0.04068671,-0.03479128,0.01831695,0.02463407,0.03980672,0.00445500,-0.04206339,0.03376153,-0.04468330,-0.00397604,-0.01911530,0.01205839,0.00743524,-0.03494202,0.02467268,0.01102648,0.00276995,-0.01311163,0.01182034,0.03898880,-0.00319091,0.02074638,0.02273640,0.02409995
-0.01686303,-0.03279346,-0.00266403,0.01873312,-0.00247457,-0.03927163,-0.01432984,-0.03700152,0.03076467,0.01970688,-0.00474711,-0.02130130,-0.03206283,0.02075179,0.03127933,-0.04218742,-0.02530121,-0.03577657,0.00039420,-0.02321918,0.04059112,-0.00171221,0.01773870,0.04442452,-0.00764945,-0.01042842,0.03333382,0.01698043,0.04053156,0.00111445,-0.03610323,-0.02809015,0.04590224,0.02102799,-0.03064539,-0.02943014,0.03468497,-0.04586221,0.02892311,-0.04130715,0.03575025,-0.00102538,-0.03469105,0.01006311,-0.03931586,-0.02548708,-0.03279719,-0.03828367,0.02488708,0.02743815,0.02785582,0.01783914,-0.04209145,-0.01856216,-0.00884545,-0.02625749,0.04955833,-0.03562401,0.00658863,0.00847155,-0.00383654,-0.01591486,0.03066865,0.03271232,0.04627843,-0.01103140,0.02360230,0.00409796,0.00827548,-0.00037690,-0.04778517,0.00508881,-0.02660404,0.03272800,0.00121729,-0.03418574,0.02171630,-0.03543276,-0.04001732,-0.01117853,-0.02952285,-0.02154173,-0.03672200,-0.03401836,0.03204364,0.04678309,-0.04536551,-0.04297162,0.01177021,0.04047652,-0.02158307,-0.01636904,0.03075654,0.01127877,-0.00627059,0.00124600,-0.02574272,0.00879096,-0.04607457,-0.03000159,-0.04761859,-0.04338682,-0.04056265,-0.02969373,0.01786357,0.01709722,-0.00748608,0.01942983,-0.00151372,0.03603550,0.02806182,0.01848793,0.01503448,-0.01671905,-0.02012785,-0.04814355,-0.02604067,-0.01796248,-0.03135015,-0.04224951,-0.02267567,-0.03398129,-0.02925828,-0.04016405,-0.02010242,-0.02377092,0.03324076,0.02894381
-0.03685635,-0.03985096,0.03447061,0.00246424,-0.01335425,0.04188010,0.01383230,0.00191798,0.02410270,-0.04668786,0.01542694,-0.01808945,-0.00723397,-0.01387852,0.04880143,0.02812146,-0.02713740,0.03858198,-0.00410999,-0.04467462,0.04244843,0.02466908,-0.04111493,0.01556705,-0.02421860,-0.02664711,0.00856208,-0.02155729,-0.04780108,0.00499905,-0.01787401,-0.01187567,0.03845255,0.03452289,0.02433683,0.00798330,-0.00308527,0.03423952,-0.04462672,0.02659683,0.00400476,-0.00872269,0.04122667,-0.01758025,-0.03487648,0.03519389,-0.04277730,-0.01400308,0.04458903,0.04186187,0.01584796,0.03240365,-0.00558107,-0.01136284,-0.02762109,-0.04642052,0.01952517,-0.03155539,0.04936750,-0.00672054,-0.01636701,0.04216102,0.04645557,0.03748654,0.00280537,0.00901758,0.01332719,-0.00246372,0.01502446,-0.03277584,0.01588047,0.02189082,0.04475382,-0.03220458,0.00580325,0.03844624,0.00657573,0.04189787,-0.03386312,0.04374099,0.01942760,-0.02399744,-0.00584108,0.04752667,-0.01965418,0.01482520,0.04157613,-0.00161191,0.04047927,0.01254743,-0.00075103,0.02030354,-0.04101618,0.03830472,0.02892895,-0.01713741,0.00169336,0.00576182,0.04382719,0.03512257,0.02216256,-0.01708453,0.02443979,-0.00389993,0.03872205,0.04003433,0.03769620,0.02513003,-0.01865410,-0.03303891,0.02976008,0.04852830,0.04703722,-0.01319788,-0.03479921,-0.03758335,-0.04094976,-0.02313858,-0.03001619,0.03953052,-0.03761675,-0.03556527,-0.03196254,-0.01608898,0.03073252,-0.04321542,0.01061317,0.00856455
-0.00464613,0.04028949,0.03343848,-0.02214733,-0.00513441,-0.04118029,0.02288350,-0.03797239,-0.02303139,0.01264049,0.02459955,0.03333471,-0.02079614,0.03576623,0.01724080,0.01026319,0.02911952,0.00101591,0.02803767,-0.01017690,0.03100425,0.00433777,-0.04238437,0.02339677,-0.02159449,0.00184977,0.01357380,-0.00020511,0.02971509,0.01172793,-0.01097867,-0.03437948,-0.03311449,0.03834071,-0.02438675,0.01037051,0.01946865,0.04540249,0.00970650,-0.02581980,-0.03021136,-0.01480751,-0.02909816,-0.00600012,0.02293007,0.00102473,0.04494848,0.01290971,0.01916775,0.00707003,-0.02396928,0.03970784,0.03872706,0.00555100,0.01824636,0.01626905,0.04911638,0.03275236,0.04463731,-0.03792788,-0.01899598,-0.04544292,-0.04166224,-0.00456739,-0.00649827,0.04846530,0.00495992,-0.00159267,0.01774260,0.02971315,-0.03842760,0.00112338,-0.02705567,-0.04806691,-0.04515119,0.00040115,0.01325310,0.01543476,0.02886965,-0.02621671,0.02944331,-0.03333646,0.01100230,0.02282104,0.00458499,0.02883099,0.02344891,-0.01115246,-0.03762246,-0.01416383,0.03591042,0.01768130,0.04907653,-0.03578775,0.03838999,-0.01979195,-0.04980156,0.01455948,-0.01552996,-0.04125014,-0.00446924,0.03114172,-0.01002549,0.00207613,-0.00879082,0.00177190,0.01772952,0.00252848,0.00278168,-0.03129262,0.03182808,0.04952366,0.04298905,0.00287824,-0.00511158,-0.03439299,-0.03841284,-0.01563849,0.00561070,-0.03737285,-0.00936129,-0.01559926,0.00699306,0.00822452,-0.04914211,-0.02942708,0.02283264,0.04711755
0.03467514,-0.01747561,0.04831718,-0.00448843,0.01336831,0.01726781,0.02068830,-0.01752617,0.01910536,-0.04618165,0.00001271,-0.04684171,-0.04273172,-0.00431334,0.04704118,0.04817098,0.01950232,0.00796612,-0.00459341,-0.04952766,0.04570303,-0.00004357,-0.04142163,-0.03193002,0.02869798,0.01032294,0.02276481,-0.02541175,0.01491768,0.04283001,-0.01354880,-0.00146571,0.02856766,0.00072391,-0.01117186,0.02097477,0.01286937,-0.00511504,0.04156556,-0.03357927,0.01156465,0.04264600,-0.01490402,-0.01155624,0.00648965,-0.04723162,-0.02264026,0.04037218,0.01432109,-0.01423321,-0.04739821,-0.00877354,-0.04239694,-0.03729186,-0.00152748,-0.00831437,-0.03361199,0.01117473,-0.04739447,-0.01465070,-0.03277732,0.00947659,0.01091846,-0.04836180,0.01895026,0.02666125,-0.00642830,0.02580631,0.03123024,0.02488424,-0.00702630,0.04299879,0.03386617,0.01632500,-0.03106529,0.03945686,0.04955177,-0.02227932,-0.04397833,0.02704328,0.01778645,0.01566197,0.04727260,0.03631672,-0.01599054,0.01852638,-0.03906008,0.01274515,0.03088268,0.03394322,-0.02381937,-0.02556839,-0.01252238,0.01870507,-0.00384334,-0.04750902,0.01681796,0.00009229,-0.01839566,-0.02997501,-0.01753784,0.04436738,0.00371953,-0.04726123,-0.04220604,-0.02192211,0.00090482,-0.03581575,0.00707599,-0.03587786,-0.04943536,-0.00706396,0.04735217,0.03548736,0.02711921,0.02769713,-0.03242338,0.04082491,0.04953850,-0.04941834,0.03709840,-0.00943864,-0.04456719,0.01485341,0.02870474,0.02366811,-0.03573568,0.00398317
-0.01070982,0.02878644,-0.03001230,-0.04040518,0.01875297,-0.00525541,0.02586246,0.01138755,0.00709420,0.00056526,-0.01240029,0.04630477,-0.00888801,0.04982683,-0.04150975,-0.02483941,-0.04080215,0.03733676,0.02943173,0.01297578,0.02724447,-0.00458850,-0.04834152,-0.00765125,-0.02231270,-0.03398751,0.00525614,0.03228513,-0.03090996,-0.00548500,-0.00715210,-0.04764028,0.01650677,-0.00594592,0.01158794,0.00185037,0.04879802,-0.01249284,-0.04816242,0.02158574,0.04439056,0.04263491,-0.04162702,-0.04519670,-0.00724069,0.02263175,0.04954344,-0.04091968,-0.02629459,0.03931451,0.02338300,-0.00403789,0.02956084,-0.03731117,0.04098931,0.04367859,-0.04637825,0.03942186,0.00327960,0.02468012,0.04698653,-0.02925604,-0.00601666,-0.04842968,-0.00212795,-0.02120608,0.03880550,-0.04553667,0.04316352,-0.02874539,-0.03893040,-0.02091774,-0.00141099,-0.03667908,0.00676444,0.04065361,-0.03909984,0.04824393,-0.02642037,0.01698933,-0.02761207,-0.04305015,-0.04071300,-0.03966416,0.00144039,-0.00523565,-0.02591776,0.01511244,0.03036851,-0.03851865,-0.02793489,-0.00196180,-0.00113377,-0.02056350,-0.04975428,-0.02907192,-0.04534653,-0.02545127,0.02021885,-0.03589026,0.02441682,-0.03013221,-0.04735543,-0.01528292,0.03686095,0.01588009,-0.03920151,-0.00251741,0.01515744,-0.00324581,0.01916564,0.02015208,-0.01504871,0.03602517,0.01836159,0.01346680,0.00424426,-0.01764181,-0.03059478,0.00328985,0.04683311,-0.02574500,0.04904455,0.03062292,0.03563777,0.01557307,0.03650302,0.01890543
0.03810433,-0.00284936,0.04508362,-0.01209785,0.04226998,-0.00169732,-0.02637978,0.04901371,-0.04003720,0.02311380,-0.01741261,0.02053789,0.01796941,-0.04932236,0.01893968,0.03302893,-0.01915338,0.00902381,-0.00795918,-0.01677779,0.01978979,0.01993250,-0.00686285,0.00819742,0.03511890,-0.01356604,-0.03622933,-0.02026604,0.03028651,-0.00873782,-0.04299354,-0.03344471,-0.02011020,0.01428104,-0.03232797,-0.02502306,-0.02075677,-0.03346834,-0.03476465,-0.00207546,-0.04786779,-0.03087371,0.00186811,-0.02873684,-0.02194087,-0.03005242,0.01549831,0.02930667,-0.04759166,-0.02038297,0.01589116,0.02098737,0.02871754,0.03953280,-0.04705867,0.01519876,0.01837655,-0.00267046,-0.04792427,-0.02304448,-0.00238146,0.01418424,0.00207122,-0.02108473,0.03609049,-0.04761907,0.03293784,0.04559342,0.04453779,-0.03839358,-0.00708298,-0.02916779,0.01311031,-0.02695117,0.03646132,0.02458321,0.03217966,0.01703429,-0.01137166,-0.04739037,-0.00112401,0.03478745,0.01248686,0.02720850,-0.04841786,0.01081920,-0.02276489,-0.02119052,-0.02890084,0.02392763,-0.02110249,-0.01977026,0.01332730,0.00435824,0.01990365,-0.03212863,-0.04284965,-0.04891013,-0.02375768,0.00423392,-0.02939322,-0.00499932,-0.00113206,0.02672648,-0.02645644,-0.03288488,-0.00378138,0.03755561,-0.00028785,0.00399493,-0.03533552,0.01897414,0.02048497,-0.03759139,-0.02133937,-0.00531166,0.02251456,-0.00666878,0.04967823,0.01494763,0.04139971,-0.00299501,-0.02481752,-0.03488740,-0.04183726,0.01163185,0.03365794,0.03814235
-0.01269899,0.02257724,-0.00659877,-0.03000644,-0.04063594,0.02170939,0.00074223,0.01950693,-0.01016179,-0.04884058,0.00280602,0.01276453,0.00286210,0.04895615,-0.04711122,0.04506664,-0.04627853,0.04869554,-0.02786395,-0.02914725,0.02272974,0.04380501,-0.04168856,0.00916679,-0.04939976,0.02017293,0.02972085,-0.00895448,0.00685345,-0.03216485,-0.00794902,-0.03558349,0.03146648,-0.03557670,0.02666023,0.01939051,0.01607103,0.01193861,-0.00548759,0.03283941,-0.04342609,-0.04534183,-0.01440201,-0.00435496,-0.00486473,0.04421033,-0.04871664,-0.01587946,-0.00440422,-0.02635438,0.00160320,-0.03197786,-0.03222170,-0.00052896,-0.01074574,-0.01473750,-0.04654714,0.02098382,0.04401784,-0.00703713,-0.04325539,-0.02921393,0.00022114,-0.00634473,-0.00473020,0.03876361,0.03476036,-0.03091829,-0.00328845,0.03511891,0.01726107,-0.04070636,0.00354831,0.04549215,-0.00734602,-0.00664220,-0.04979815,0.03826670,0.02064010,0.00152354,-0.03487648,0.03220185,-0.01012180,0.01084613,-0.03576883,0.04998398,-0.02216084,0.01975691,-0.03957300,0.01100375,-0.04968109,-0.02258947,-0.01012779,0.02300480,0.01445952,0.00721825,0.01221094,0.03027671,-0.00714799,-0.02564737,0.01687833,-0.04166248,0.03401086,0.00015271,-0.01930221,-0.04692433,0.04372724,0.04785227,0.02064947,0.03572251,0.00858689,-0.03867568,0.02230475,0.01264514,0.04169298,-0.02910480,-0.02039987,0.04592783,-0.00788413,-0.04207989,0.03754725,-0.02530560,0.03029596,-0.01066325,-0.03747296,-0.00557403,-0.03317849,0.02010562
-0.00612694,-0.01534777,0.01509705,0.03153382,0.04994177,0.02498407,-0.04484907,-0.04065908,-0.00899904,-0.01222908,-0.02714999,-0.02397723,-0.01730951,-0.01479080,-0.01541542,-0.00994783,-0.01845285,-0.01437383,0.01498288,0.01070524,0.01507544,-0.00677098,0.04048110,-0.02086518,0.01071483,-0.03464255,0.00992755,0.02274061,-0.02316575,0.00230175,-0.00217989,0.03151372,-0.00890518,-0.00122664,-0.02489613,0.01335233,-0.03402527,-0.00631762,-0.04349041,0.03439366,0.00354939,-0.02801760,0.02256327,-0.00172931,0.00663606,-0.01052400,0.00103211,-0.03716676,-0.03639042,-0.04522809,-0.00466011,0.03967947,0.00937711,-0.03849713,-0.04497575,0.00652706,-0.01484735,0.01574334,0.01415538,-0.03032740,-0.00924740,0.00019679,0.04465226,-0.04903341,0.01442650,0.01521383,0.04149887,0.03563538,0.01334207,-0.02548454,-0.01006763,0.02317210,-0.03653897,-0.04057716,0.03358772,-0.00767861,0.02492011,-0.01614517,0.02155646,0.01551503,0.04588730,0.02397073,0.01095123,0.01614425,-0.02054174,0.03835836,-0.04547716,0.03466005,-0.02551826,-0.00099010,-0.04924859,-0.03942437,0.03476993,0.01715291,-0.03346516,-0.02591879,-0.02236575,0.03574384,0.02238179,0.04419527,-0.01912785,-0.01230211,0.02862707,-0.00650448,-0.02852326,-0.01328288,0.02960371,0.02189202,0.04434485,-0.00048501,0.03100621,-0.00916835,0.00540494,0.02907681,0.00373967,0.04374251,-0.01799997,-0.01092861,-0.02429840,0.00301565,0.01988529,0.02505201,0.00146354,-0.00307983,-0.01926855,-0.03093030,0.04736930,-0.02988916
-0.02585631,0.00515218,-0.02700402,-0.01049951,-0.01148317,-0.03578129,-0.01287086,-0.03851155,-0.01013964,0.03651902,-0.00951685,-0.03680605,0.04827002,-0.04685626,0.01963699,-0.02629394,0.03878284,0.01326632,-0.04567419,0.02598652,0.04100150,-0.00501577,-0.01891714,-0.00967652,-0.04101399,-0.02795830,0.00315536,0.04710830,0.00175399,0.01044826,-0.03802926,0.00218024,0.01522328,0.03197059,-0.00520445,-0.03824044,0.02475100,0.04318344,0.01969540,0.04349804,-0.03659175,0.01141969,0.00256076,-0.00954360,-0.03550459,-0.04783727,-0.01609326,-0.01647552,-0.03333677,0.03200179,0.00608853,-0.04170180,-0.02387823,0.02343274,0.01015276,0.02696958,0.01273752,0.03235669,0.04955250,-0.00503667,-0.02777667,0.04801038,-0.00370097,-0.04876122,0.00699568,-0.04912314,0.01409436,0.00789731,-0.00940345,0.01581139,0.03138954,0.04241441,0.01603190,-0.04545652,-0.04455586,0.04118800,-0.00826294,-0.04579698,-0.04126041,0.00618820,-0.02750141,0.01903701,0.02743533,-0.00060608,-0.04420531,0.04595694,-0.02502510,0.00431399,0.02582759,-0.02933165,-0.02646181,0.00785596,0.03667422,-0.03106927,0.01175864,0.03657103,-0.01360706,0.02830956,-0.04037286,-0.00216650,-0.01179065,-0.03068196,-0.01183558,-0.04777892,0.03798610,-0.02518288,0.03773006,0.03434632,0.01229666,-0.04214675,-0.02679821,-0.01909213,0.04321644,-0.02006861,-0.02061036,0.01050900,-0.02097266,0.00232314,0.04604362,-0.04717461,0.04563086,0.01148821,-0.01356564,-0.03805634,-0.03951634,-0.03876742,-0.03302767,0.04628691
0.02201802,-0.01918376,-0.00749618,-0.03847793,-0.01955657,-0.00625286,-0.04927777,-0.03018161,0.01686474,-0.03237635,0.02285406,-0.03388457,0.02426654,-0.03957275,0.01533413,0.01535561,-0.00523952,-0.00908428,0.03560162,-0.00123687,0.03929458,-0.02094355,-0.03872814,0.02469650,-0.02491452,-0.01338209,0.04235365,0.02309797,0.04643583,-0.03681130,-0.02133428,-0.04870051,0.00253699,-0.04864095,-0.01786871,-0.00946147,0.01450676,0.00373506,0.00228554,0.02692700,0.04334329,-0.04174914,-0.01192479,0.00778410,0.02533237,0.01745680,-0.02056249,0.04634970,0.01895820,-0.02941601,0.02267567,0.02385410,-0.01779081,0.04948433,-0.00649621,-0.02884237,-0.01594345,-0.00345251,-0.03366955,0.00219206,-0.04777096,-0.03406305,0.02709232,-0.03828133,-0.02999214,-0.01475783,0.04712794,-0.01603540,-0.04183380,0.03336385,0.02228282,-0.04951727,-0.01906399,-0.03307533,-0.01191881,0.00016134,-0.04995022,0.00105364,0.00443304,-0.03474870,-0.02855153,-0.00713361,0.04843396,-0.04992007,0.02854827,-0.02613571,-0.01790852,-0.04172959,-0.01927243,-0.04094701,0.00039309,0.01060316,0.04689696,-0.00146855,-0.03978043,-0.02920823,-0.03187849,0.00904807,0.00728396,-0.02699212,0.02531090,0.03448916,-0.02496067,0.00506421,-0.03492702,0.02559725,0.02998299,0.03249091,0.00391574,0.01072850,0.00038723,-0.01827647,0.00079733,0.00576293,0.04490931,0.01550354,0.02515310,-0.02872455,-0.02146212,0.02352205,-0.02772306,0.00477001,0.00477177,-0.00372001,-0.03431155,-0.01237062,-0.00768093,0.01932239
0.02893141,-0.02303149,-0.04244385,-0.04304609,0.03423389,-0.00067685,0.04561176,0.04167557,0.02252228,-0.03028831,0.02608770,-0.01832109,0.04946384,-0.04739418,0.01159758,0.02039565,-0.03203007,0.03106385,0.03553895,0.01124302,0.00446699,0.02811941,-0.04677740,-0.03803139,-0.01907851,-0.02730474,-0.04027689,0.00276843,-0.02279960,0.03014730,-0.01115620,0.04228846,-0.03545133,0.00397059,-0.02867927,-0.02825695,-0.02415325,-0.02557377,0.03045866,-0.02684631,-0.03172192,-0.04883450,-0.04079795,-0.04974860,0.01490105,0.02527602,-0.03470591,0.00379511,0.01946467,-0.04487109,0.01458802,0.00430156,0.04289106,-0.04629877,-0.04592936,-0.03507427,0.00730555,0.00783718,-0.00510539,-0.01602074,-0.02409318,0.01741654,0.01563283,-0.01876533,-0.04622202,0.04497210,0.00335641,-0.01857516,0.01668005,0.01855606,-0.00723444,-0.04247087,-0.02676108,-0.04293794,-0.04206962,-0.02515884,0.03347894,-0.00166220,0.00864062,-0.01662712,-0.02194382,0.02707616,0.02550484,-0.03398705,0.04931768,0.02034246,0.02237034,-0.03286297,-0.04818666,-0.01784950,0.00147758,0.00555523,0.00179960,-0.03356907,-0.02078199,0.04455866,-0.04230005,-0.03428923,0.04582440,-0.01350929,0.02807794,0.00442765,-0.02306618,0.03640660,0.03357058,0.01414084,-0.03327613,0.04351737,0.01539573,-0.00282165,0.00748249,0.03518630,-0.00809928,0.02453554,0.02035487,0.03604772,0.02644102,-0.00134766,-0.03701979,-0.00910165,-0.02316612,-0.01132732,-0.02117702,0.03086488,-0.00205023,0.02485843,-0.02760127,-0.01145020
-0.03255154,0.01426152,0.04454312,-0.03588638,-0.04799202,0.01635531,0.01475914,0.01421573,0.04833670,-0.03486668,-0.03943766,0.01067146,-0.01275288,0.01140969,-0.04850727,-0.02316126,0.02102799,0.01280601,-0.03595785,-0.02523600,0.04582715,0.03814140,0.00766969,-0.00081975,-0.01444800,0.02779541,-0.01253825,-0.01507735,-0.04230046,0.01661171,0.00798543,0.01525396,0.03149620,-0.04077198,-0.04196701,-0.02951767,-0.04855519,-0.02483893,0.04248248,0.00060008,0.02423269,-0.03523933,-0.04959287,-0.03616727,0.03876410,-0.00474465,0.03604240,-0.01232018,0.04429905,0.04368904,-0.03884429,-0.00710516,-0.01291232,-0.04162123,-0.01961196,0.04489240,0.01252781,0.00302414,-0.01012468,0.01148481,0.02458357,-0.00873404,0.03482463,0.02259744,0.00834969,-0.03627849,-0.02675054,-0.00802390,0.00896878,-0.03852956,-0.02027608,-0.02130738,-0.01041050,0.01980266,-0.04130493,0.04818911,0.01293173,-0.02091585,-0.02499479,0.01946620,0.02773705,0.01135993,-0.04320844,-0.03261621,-0.04647268,-0.02659355,0.02001413,-0.02259959,-0.02223674,0.03916733,0.00120153,-0.03408429,0.01499423,0.04764533,0.01254476,-0.00220615,0.02982709,0.02752330,-0.04660550,0.01470461,-0.02490368,-0.04793498,0.01044368,0.04652775,-0.01863668,-0.04648579,-0.03149231,-0.04818133,-0.04740811,0.02253122,0.04643739,0.03842906,0.03728354,-0.02217676,-0.01221079,0.02702108,0.01596029,-0.02769392,-0.02127304,-0.00772240,-0.03641583,-0.03206467,0.00110910,-0.03535356,-0.03127144,-0.03503079,0.03830476,-0.00673845
0.04204626,0.02309502,0.04869208,0.01250166,0.04193730,-0.03026356,-0.04843267,-0.03853614,0.02444709,-0.03611708,0.03789389,0.02573067,0.03303413,0.03560085,0.03075412,0.04201261,0.01625060,0.03751047,0.02132358,0.00599534,0.00363813,-0.00257248,0.02930883,0.01356632,0.00440904,0.01333931,-0.04435636,0.04578522,-0.03213352,-0.00344285,-0.00788347,0.03350432,0.02500314,0.01869738,0.02689711,0.03187769,0.01839641,-0.02701926,0.02374625,0.02023011,0.02633438,-0.03541342,-0.04652331,0.01651844,-0.02896827,-0.01723861,-0.00133867,-0.00564344,-0.00701589,-0.00393264,0.02865440,0.01814878,0.01928739,-0.03963748,-0.04181390,-0.00190498,0.01144279,0.00041570,-0.04327261,-0.02941879,0.02387401,-0.01336034,-0.03396541,-0.03074345,-0.01384406,0.02955792,0.01213412,0.04977212,-0.00358192,-0.01358481,-0.04801766,0.01832530,-0.01563220,0.03707345,-0.04374747,-0.01157337,0.02900055,-0.01081406,0.02804815,-0.03567756,-0.00451572,-0.00475756,-0.04204839,-0.01999579,0.02933832,-0.04534661,-0.02648722,-0.04653981,0.04199297,-0.03832375,-0.02792107,-0.01274994,-0.01079663,-0.00246932,0.01858112,0.01655835,-0.01991816,-0.00458136,-0.03619272,-0.02924806,-0.04026693,-0.01014391,0.03150323,-0.02194102,-0.03064507,-0.03051646,0.03251853,-0.01142186,-0.04414234,0.04178884,0.02641307,0.00697727,-0.04668544,0.04255653,0.00448225,-0.03598553,-0.04113161,0.01902874,0.02762586,-0.01859890,0.04847387,0.04230804,0.02041363,-0.04783744,0.01417972,-0.02976887,-0.04989359,-0.00355109
-0.01708714,-0.02368768,0.02195464,0.00096356,0.01377855,-0.02213707,-0.01907494,-0.00149722,0.03644628,0.03497920,0.01406011,0.04422783,-0.03205479,-0.03544193,-0.02865963,-0.03640379,0.04412716,0.03834769,-0.04805762,0.03038516,0.00200034,-0.00630929,0.02745599,-0.01007114,0.01405552,-0.03599618,0.02010162,-0.02841276,-0.03797483,0.01213048,0.02305278,0.00463380,-0.00173737,0.00451462,0.01049451,0.04182413,-0.04879572,0.00063418,-0.01219618,0.02656592,-0.01008984,0.02917333,0.02092745,-0.00904276,0.03719536,-0.04670938,0.01717046,0.04151503,-0.00040819,0.00663219,0.00156020,0.01718982,-0.01627823,-0.04773072,-0.04503391,0.01411999,-0.01690087,-0.01182871,-0.00911661,0.01752462,-0.01504511,0.00954255,0.04861854,0.00223566,0.03197792,-0.03112611,-0.04839582,0.04896246,-0.03370000,0.03822337,0.04944664,-0.01267190,-0.04731475,-0.00489947,0.00659164,-0.01703426,-0.01483369,0.01656238,-0.00398140,0.03656490,-0.03498069,0.03999436,0.03349582,-0.00248078,-0.02002879,-0.00361051,-0.00744359,0.01616635,0.00610527,0.03070700,0.04533335,0.01905638,-0.04746835,-0.02794443,-0.01937899,-0.03821272,0.02800742,0.02121288,-0.00380295,-0.02068235,-0.02268730,0.04740454,-0.02114940,-0.01813837,0.02569460,-0.02884236,-0.02283864,0.02160088,-0.04395283,-0.02654126,-0.00259966,-0.04852261,0.02471792,-0.03919267,0.01302281,-0.03020741,-0.04239314,0.02233130,-0.02099011,0.01464546,0.02174617,0.04871327,0.03927323,0.01304032,-0.02510477,-0.01546042,0.02637560,-0.02823379
-0.00883213,0.01810179,0.02748554,0.04446606,0.04959584,0.01361359,0.02554787,-0.03258174,-0.03611974,0.04891875,0.04785395,-0.04298935,0.03316158,0.02359628,0.03082256,-0.00237785,0.00812991,-0.00791471,0.03565553,0.00989057,-0.02255058,0.04285594,-0.02057047,-0.00125986,-0.03430380,0.04094936,-0.03950977,-0.03967362,-0.04663796,-0.00508100,-0.01097963,-0.00056918,-0.03340865,-0.01688979,-0.00237864,-0.00916012,0.00846412,0.00716416,-0.04380352,-0.01016607,-0.03225388,0.03054443,-0.02917256,0.04155475,0.02780339,0.01844523,-0.00633282,0.02563328,0.03220527,0.02010205,0.04049099,0.01335832,-0.02863155,-0.00812957,0.04116921,0.02052375,-0.02297624,-0.02416998,-0.00810888,-0.01109066,0.03431014,0.03056652,0.02968882,0.03020540,0.04750397,-0.00997616,-0.01232487,0.04733824,0.00833031,0.01327259,0.04825825,0.03250638,0.01910215,0.03151298,0.03352419,0.03121455,0.00712873,0.02999360,-0.01472999,-0.02202357,0.00244616,0.02600325,0.02710586,0.00564720,0.04105067,-0.01609396,-0.03785953,0.03513643,-0.04558509,-0.01303683,0.02653727,0.04629794,0.03565477,-0.04192771,-0.01171330,0.01281416,-0.01300583,-0.01002730,-0.01302478,-0.01599344,-0.00269508,0.01505254,0.00006445,-0.02838959,-0.01360890,0.03614614,-0.01894644,-0.02191593,0.04376111,-0.01678726,-0.02483400,0.04464016,-0.01737506,0.04183945,-0.01437306,0.02998746,-0.03847511,0.01146357,-0.00856462,-0.03698871,-0.03688866,-0.01401594,0.03782157,0.00040681,0.03047505,-0.01198462,0.02929702,0.03927041
0.01857393,0.03595156,0.01553201,-0.02113587,-0.02542065,-0.04660228,-0.03239479,-0.00401376,-0.03912119,-0.03940762,-0.02953060,-0.04197420,-0.03162653,-0.02719871,-0.01650713,0.02319631,0.04912641,0.01369731,0.01062540,-0.00196226,-0.02066353,-0.04378541,-0.03379144,-0.00011665,0.00965299,0.02865227,-0.00041252,-0.00791715,-0.04762329,-0.02759198,0.03414558,-0.02797355,0.01356174,0.00252602,0.04991171,0.03621764,0.00606175,-0.02117555,-0.03517514,0.02211273,0.01322869,0.02453098,0.04433368,-0.02639380,0.03336639,0.00634796,0.04511977,0.00327391,-0.00138965,0.00389348,0.03709994,0.04280419,-0.00165757,0.02002477,0.03850294,0.00041839,-0.04099343,0.01552760,-0.02283537,-0.04379470,-0.02181514,-0.04837014,0.02893385,0.02452922,-0.02200401,0.00183875,-0.00651834,0.02927363,0.03604037,0.03334562,-0.03587960,0.03327218,0.02293145,-0.02484543,0.02343993,-0.01819979,-0.00774485,0.03533145,0.00277736,0.00900111,0.00354739,-0.01409564,-0.03530075,0.04858610,-0.02882825,-0.03908864,-0.00384901,-0.04859538,-0.04226115,-0.01249558,0.00336557,-0.02807335,0.00735939,0.00856496,-0.04606457,0.03901358,0.04673517,0.01429844,0.04762477,-0.01787930,-0.02438411,-0.00685175,-0.04701466,-0.00185646,-0.03710020,0.00339592,-0.04867538,0.03186911,0.02654180,-0.03869300,0.03258955,0.01413663,-0.04188013,-0.02179311,0.03474873,-0.00681672,-0.02776076,-0.01464846,-0.01560935,0.01690916,0.00832854,0.02057892,-0.03653538,-0.01212355,-0.01983539,0.04909924,0.00342463,-0.02117014
-0.02949194,-0.00606873,0.00138797,-0.04060499,-0.04966914,-0.03231714,-0.00246174,0.01068462,-0.04821207,-0.04838137,0.03786889,-0.04008561,0.03182753,-0.01287590,0.03346508,-0.02260741,0.02973622,-0.00092617,0.04211738,-0.04136885,-0.04428578,0.04714265,0.00480402,0.04739680,-0.01301651,-0.02417227,-0.02849064,-0.02473097,-0.01855002,-0.04339104,0.01824695,0.02196131,0.03124828,0.00720683,-0.01547363,-0.02580420,-0.02127374,0.01507976,0.01191352,-0.01101307,0.04194595,0.01044216,-0.01054964,0.04681068,0.00208224,-0.02763142,0.02444393,0.01532057,0.00684956,-0.00351046,-0.02879182,-0.04546656,0.02566854,-0.02677214,0.02459453,-0.01143177,0.01719734,-0.03090148,0.02305229,0.03419620,0.03802709,0.02956950,0.04292728,-0.01113397,0.00583587,0.00744376,-0.04106651,0.02396474,-0.02565816,0.00143339,0.00919755,0.01141329,0.03413002,-0.04221301,-0.00463731,0.03184095,-0.02474038,0.03826931,-0.01109175,0.03724072,0.02927983,0.03234575,0.00634123,-0.03450656,-0.03066285,0.01580094,-0.04654403,0.00977420,0.03734552,-0.02492437,0.00966113,0.00353997,-0.04361676,-0.01663236,0.01428934,-0.00405507,-0.01262685,-0.03549609,-0.00196109,0.03208258,0.02395949,0.00308237,0.01794755,-0.02134594,-0.01847382,-0.04257669,-0.00974659,-0.04238826,-0.01903591,-0.04382740,-0.01341417,0.04521568,-0.00658350,-0.01214788,-0.01266933,-0.04741079,-0.00993688,0.01359812,-0.04445590,0.03769368,0.00825219,-0.01158575,0.00817499,-0.00117896,-0.01934331,0.04410138,-0.02622001,-0.00800831
0.03862272,0.01739511,0.00888474,0.00485580,0.00098724,0.01656662,-0.01828558,0.02466245,0.04354529,-0.04878390,0.04878911,-0.03878971,0.01713133,0.03403792,-0.03959905,0.04802272,0.01674819,-0.02668450,-0.01821449,-0.00213197,0.02708871,0.04621785,-0.02700068,-0.03925357,-0.00209265,-0.04418415,0.01161738,0.02034521,0.03179905,-0.03003771,-0.01839478,0.03223308,0.00537904,-0.03293187,0.02734457,-0.03271335,-0.01556399,0.03055491,-0.00383062,-0.04579029,-0.03832537,-0.00141903,-0.02866456,0.03855378,-0.04488546,0.00074624,-0.04360636,-0.00199964,0.04318864,0.03629259,0.03940099,0.04712395,-0.03702578,0.00428042,-0.01732496,-0.00286316,-0.03816832,0.02328416,0.02475417,-0.00279837,-0.02204159,0.01155285,0.01501158,0.03985504,-0.01193800,0.01388500,-0.04971743,-0.03572330,0.03662873,0.00069932,-0.03745515,0.00822553,0.02183804,-0.03348799,-0.00535686,-0.00165441,-0.04780610,0.02370590,-0.02268225,0.03487652,-0.01457665,0.02867131,0.02459252,0.01126815,-0.00852437,-0.00481281,-0.02812935,-0.00674718,-0.00228347,-0.03663403,-0.00500908,0.04292801,-0.03344302,0.04142586,-0.04631983,0.00325019,0.03293514,-0.00887159,-0.00605201,0.00694649,-0.02081545,0.04803882,-0.01311133,0.04600001,-0.03020313,0.04398125,-0.02070659,-0.01544485,0.03732071,-0.04215954,0.00452940,0.03997622,0.03984005,0.02805769,-0.02278434,-0.03948342,-0.02291139,0.02174505,0.02183462,0.04855952,-0.04981549,-0.02570438,-0.03740534,0.01219339,0.04304645,0.04614728,0.02435822,-0.03919943
-0.04462539,0.04630231,-0.02775538,-0.00256307,0.03144661,0.04805222,-0.03940113,0.03381005,0.03509489,0.03746416,0.04106834,0.02562909,0.03630875,0.04503015,-0.00820077,0.03612915,-0.02786777,0.01436293,-0.02396103,-0.03809431,0.04285990,0.02189570,0.01732707,0.04960368,-0.01469863,0.01400011,-0.02558605,-0.01045440,-0.01940153,0.02126000,0.03148279,-0.04350194,0.01132424,0.04987427,0.02483130,-0.02744899,0.02976242,0.03137572,0.00893163,-0.00869738,0.00523570,-0.01878264,0.02423767,0.01690318,0.02037749,-0.01851568,-0.03833781,-0.01988030,0.02573813,0.00607615,-0.04686752,-0.02664719,-0.04771174,0.04576078,0.03465607,0.01348536,-0.03986937,0.04365152,0.01458024,0.00971252,0.00580047,0.00368338,0.01076645,0.01924885,0.04766205,-0.01745464,0.01723221,0.01593558,-0.00110599,-0.04235662,-0.00872924,0.00016068,0.01688770,-0.00912805,0.03732554,0.00081573,0.03998108,0.04391280,-0.04150610,0.03047067,0.01244234,-0.04792937,-0.04905279,-0.00532339,0.01801978,0.03893867,0.02091104,0.04311165,-0.03746346,-0.01703662,0.02932460,0.01895583,0.03598466,-0.02892241,-0.01456938,0.01798493,0.00010435,-0.00767355,0.00219502,-0.02610067,-0.02201386,-0.03701838,-0.01654526,-0.04079562,-0.01925085,-0.02134280,-0.00895578,0.02257501,-0.01356644,0.03120423,0.04758051,-0.04785778,0.00751240,-0.01953020,-0.00622058,0.03122869,0.03855221,-0.00780802,-0.01859052,-0.01544456,0.02304009,0.02749222,0.04917866,0.03706260,-0.01672516,0.03540033,-0.04438753,0.00251135
0.02932376,-0.04794339,0.04373508,-0.04254407,0.04485456,0.00185611,0.00196012,-0.03059219,0.02011237,-0.02108813,0.03894914,-0.00241951,0.01923253,-0.04764257,-0.04050275,0.02694624,0.04133919,0.01291135,0.01078125,0.00446783,0.02428967,0.03482968,-0.01987383,-0.04990072,-0.01748017,-0.04248552,-0.03104359,-0.01162245,0.02941683,0.01104639,-0.04401128,0.01996982,-0.01725429,0.01177209,0.00697108,0.03131587,0.01626538,-0.03765595,-0.00552409,-0.00702711,0.03528920,-0.00910110,-0.03811350,0.02510838,0.04244340,-0.02961940,-0.01903038,-0.01519147,-0.04285426,0.03232306,-0.03618144,-0.00092084,0.02357066,0.00282175,0.03552884,-0.03912425,-0.04004066,0.01317495,-0.00636389,0.04220250,0.04292812,0.04281960,-0.02399739,0.02251234,0.04662262,-0.03237068,0.04015495,0.04120008,0.00617592,-0.04994771,-0.02751109,-0.04439902,-0.04831875,-0.01966420,0.01138336,-0.04251487,0.03531914,-0.04443239,0.02841964,-0.02537251,-0.04320202,0.04788162,0.00014286,0.00299444,0.00309114,0.00433149,-0.03514618,0.01990835,0.00355984,0.02036486,0.00257483,0.01235331,-0.00546127,0.04816594,-0.04550287,-0.00608769,-0.01227099,0.01345006,-0.02552234,-0.00744911,-0.01513986,-0.01482361,0.00386352,-0.02354538,0.03086556,-0.00015870,-0.03190662,-0.04411132,0.00851654,0.04331798,0.03819240,0.00735428,0.02546154,-0.02947144,0.01691935,0.02879551,-0.04138958,-0.03895218,-0.00658841,-0.00574389,-0.04752599,-0.03879858,-0.04621067,0.01439501,-0.04377256,-0.03908112,-0.03977027,-0.01680475
-0.00334212,0.04023020,-0.03827918,0.02889537,0.01547495,0.01856678,0.01767749,0.01412240,-0.02136278,-0.03084986,0.01212841,0.02990288,0.02860031,0.04064539,0.01644430,-0.03556390,0.01178734,0.00061493,-0.00802259,0.04148949,0.00463982,0.02225247,0.00753353,0.02924228,0.02355001,0.03408145,-0.00105389,-0.04297672,0.03210204,0.01441792,0.01979645,-0.01607304,-0.02916184,0.00503663,-0.01908531,0.03234325,0.04629641,0.00066192,-0.01429376,-0.00781164,0.00919881,0.02847670,-0.01625276,0.03395772,-0.02339851,-0.03454458,0.03410276,0.03269055,0.02149379,-0.03598288,0.00071012,-0.03219934,0.03637538,0.04741831,-0.03595307,-0.03984972,-0.01038829,-0.00311192,0.02705347,-0.00757385,-0.00560865,-0.02206419,0.04802750,-0.03432747,0.04560066,0.04617644,-0.00786293,-0.04860707,0.04715819,0.04429346,0.01628399,-0.02652206,-0.01835517,-0.00325773,0.01901308,-0.01509500,0.00224973,-0.03195779,-0.01581180,0.04470124,-0.01004217,-0.03818794,-0.00712891,-0.02203923,0.00589250,0.04107467,0.03997159,-0.04183468,-0.02247032,0.03356041,-0.01234988,-0.04979869,0.03316281,0.00425091,-0.03923028,0.01189845,-0.02897993,0.00036573,-0.01552314,-0.03653904,0.03399479,0.01809990,0.04192593,-0.00185121,0.00505260,-0.00954187,0.04476487,-0.04883688,0.04645232,0.04903516,0.04943293,-0.01614757,0.04297365,-0.02594570,-0.03536288,-0.01345200,0.02049435,0.03269843,-0.03789568,-0.04660929,-0.03787924,0.02624531,0.01628710,-0.04020207,0.03353071,-0.00215454,-0.00107377,-0.02688897
-0.02913797,0.02309874,-0.01188128,0.01699598,-0.04606775,-0.03541686,-0.02189797,0.01488424,-0.00884700,-0.02444203,0.03310332,-0.02511937,0.02672042,-0.04217736,-0.04186499,-0.02112594,0.03750505,0.00823769,-0.03918992,-0.03499093,0.04940987,-0.03078869,0.01004409,0.02295950,-0.00071077,-0.01143301,-0.02023927,0.02835919,0.01340185,0.04671222,0.04935092,0.04402224,0.02422351,0.01653985,0.02714378,0.03909281,0.03262750,-0.04132829,-0.00057051,-0.00112837,0.00897701,-0.02757429,0.04833820,0.01365427,0.01359914,0.03893097,0.01866894,0.01991375,-0.03968495,-0.04378510,0.01190724,0.03231991,0.04949362,0.03147857,0.01895344,0.04241923,-0.00197013,0.01217581,0.00395724,0.02390273,-0.03890584,0.03414244,0.01535125,-0.02239445,0.01297197,-0.00223839,0.03442729,0.03105432,0.01037206,-0.03982144,-0.00780393,-0.03130627,0.02025832,-0.03934899,-0.00490169,0.01577380,0.02497863,-0.00986355,-0.04307260,-0.03665891,-0.03026903,0.03797022,-0.00112016,0.02824469,0.04414428,-0.01021813,0.02502384,0.03208077,-0.04243867,0.01921095,0.04459008,-0.04112249,-0.02566577,-0.02755284,-0.00322128,-0.02296869,0.00037085,-0.01092340,-0.02531748,0.01213757,-0.01894829,0.02866880,-0.03891290,-0.04130970,0.03883461,0.01187090,-0.02984776,-0.01794136,0.00358022,-0.01063423,-0.04621319,0.01168535,0.01150056,-0.04095125,-0.04098053,0.03332767,-0.02883991,-0.00241566,-0.04520331,-0.02087015,0.00293586,-0.01449009,-0.04837158,-0.04449560,-0.03697945,0.03197119,-0.00975259,0.02829241
0.04655790,0.03315838,0.03515217,0.03009328,0.04968768,0.03500869,-0.02725106,-0.02757070,-0.04941920,0.00784604,-0.04705389,0.03360364,0.00011618,0.00320094,0.04255996,0.04977873,0.04537289,-0.02860640,-0.04109790,0.03332034,-0.03596644,0.00854580,-0.04674721,-0.04069884,0.04162793,-0.03029899,0.01081217,0.03990969,-0.03142279,0.03789147,-0.00141095,-0.01931227,0.02037257,-0.01647779,-0.00358019,0.04400291,0.04470662,0.02986857,0.03666731,0.02613260,-0.01374825,-0.03005694,0.01041013,-0.01260618,-0.04704954,0.00672163,0.00169400,0.01758220,0.00504284,-0.00933597,0.03250078,-0.02913343,0.01073665,0.03237638,0.01867083,0.03383179,-0.04968936,0.03902054,0.04073814,-0.02486657,-0.03132606,0.02943596,0.03494141,0.03050435,-0.03144307,-0.01754729,0.03833807,-0.01478358,0.04721994,0.03248889,0.01373016,-0.01187348,0.04031462,0.03953108,-0.03146431,0.04803530,-0.03734881,0.04980678,0.00998135,0.00429261,-0.02449883,-0.00205224,0.03884071,0.00642912,0.04672798,0.03352425,-0.04836328,0.00655744,-0.02550507,0.01639885,0.04666913,-0.01473881,0.04033006,0.02712079,0.03300548,-0.03405347,-0.00893732,0.01496653,0.03255946,-0.02362320,0.00714957,-0.02003860,0.01658175,-0.03986523,-0.01407052,0.03479359,0.04671377,0.01109773,-0.01547588,-0.04339229,-0.00400105,0.00308837,-0.04184873,0.01796186,0.01920557,0.04475044,-0.02510983,-0.03757639,-0.00747542,-0.01427681,0.02347304,-0.03270271,-0.01541328,-0.02198730,-0.03469866,0.04832681,0.03607878,-0.01841573
-0.02026596,0.00729733,0.04966259,0.00361248,0.00200105,0.00733970,-0.04664322,0.01334666,-0.04846716,-0.02278610,0.04584855,0.03525410,0.02695805,-0.03307956,0.03652397,-0.02856880,0.01022792,-0.00772065,0.01742170,0.04671438,0.04308607,-0.02998016,-0.03331671,0.01874984,-0.04063796,-0.01871381,0.01051579,-0.00363131,0.04032818,-0.03591239,-0.01815752,-0.03713375,0.04600835,0.01891784,-0.00873676,0.02796462,0.02386563,0.04263960,0.03290812,-0.02252563,0.04861928,0.02211762,0.04877148,-0.00080594,0.00711364,-0.00342847,0.02578757,0.01055874,0.01119887,0.02894485,-0.04599448,0.03667382,0.03972657,-0.02622614,0.02113861,-0.04263653,-0.02869134,-0.03989980,0.00166865,0.02758795,-0.02001261,-0.00250349,-0.00342217,-0.01889350,-0.03243372,-0.00964994,-0.04743785,-0.03635950,-0.03225356,-0.00217187,0.00097276,0.00479183,-0.01656840,0.03741676,0.03094025,-0.00625465,-0.03252906,-0.03506341,0.03380914,-0.00051737,0.01719734,0.03738578,0.03544194,-0.02839925,-0.04118606,-0.02486459,0.04741446,-0.00481259,-0.03805810,-0.02026410,-0.00759982,0.02444774,0.04927858,0.01313064,0.03045205,0.00286375,-0.04006930,0.02059275,0.01330746,0.00991039,0.04133045,0.03006503,0.01836580,-0.03796447,-0.04368516,0.04117991,0.02402715,0.04078123,0.04486813,-0.03185103,0.04000020,0.04184381,-0.00980490,0.03847207,-0.00121262,0.03797785,0.04887189,0.04199008,-0.04433223,0.00267230,0.01445867,0.03201902,-0.00775481,-0.00435107,-0.00157857,0.02673927,-0.02091331,-0.01421917
0.02811811,-0.02422345,0.01055054,0.02885743,-0.02068610,-0.00106701,-0.02946809,0.01947476,-0.02815326,0.02393663,0.00602702,-0.02123975,0.02179648,0.02039040,0.01772960,-0.04919471,-0.01582560,-0.01330698,-0.03522639,0.00954866,-0.01648111,0.04444097,-0.01556834,-0.03459713,0.02736943,-0.02340299,0.04957256,0.03122218,0.03138000,0.00224442,-0.04370515,0.00591700,-0.02018123,-0.04228741,-0.03757809,-0.01077202,0.01134876,-0.04857274,0.04975915,-0.03546444,-0.01080498,-0.00454582,0.01244106,0.02780387,-0.01968859,-0.00217238,-0.02345856,-0.03315050,0.04348880,-0.01451840,0.00306832,-0.03366483,0.02317001,-0.02747144,-0.02035225,-0.01592729,0.00628792,0.00076607,-0.00275137,-0.00078572,-0.00393421,-0.03996904,-0.03123183,0.04569427,0.01423569,-0.00411425,0.01854487,-0.04469114,-0.02824339,-0.00885210,0.04427320,-0.01382393,-0.04733145,0.00826697,0.03054420,0.00229413,-0.03095942,-0.03574911,0.03980720,0.02215705,-0.01808239,-0.00291294,-0.04446331,-0.01878474,-0.02764890,-0.00665156,-0.02506209,0.00390533,0.00365408,0.04780910,-0.01726837,-0.04782759,0.00536951,0.00568966,-0.04637675,0.03259247,-0.04383707,0.00163971,-0.02828701,0.00816855,0.01413025,-0.01762479,-0.03968851,0.02839031,0.02840208,-0.00192012,0.00602825,-0.02120804,-0.02952602,-0.02251588,0.00642143,-0.00877316,0.04816442,-0.00770961,0.02824625,-0.00143897,0.01965709,0.00952861,-0.01005360,-0.01149104,0.00917634,-0.02468791,-0.04493323,0.00779945,-0.02986152,-0.04984859,-0.03006322,-0.03383233
0.00329111,-0.00159933,-0.02347299,-0.04242167,0.01168058,-0.00061103,0.00916163,0.00916195,-0.04447365,0.01224167,-0.02379533,0.00708232,0.03731386,-0.03425299,-0.03662706,-0.02085136,-0.00498971,0.04226794,0.00761427,-0.03586691,0.02445293,-0.04855064,-0.02184063,0.03299420,-0.00861359,0.01318139,-0.00046760,-0.02536293,-0.03604716,-0.01494966,-0.04115680,0.02173802,-0.03334804,-0.03530481,0.01858236,-0.03374469,0.01832414,-0.04570257,0.04207819,-0.04955881,-0.01201309,-0.00436008,-0.00432870,0.00986078,0.01503402,0.02703374,0.00834515,-0.00292948,0.00173210,-0.02979592,-0.00062973,-0.00341587,0.02306819,0.01902096,0.04642038,0.00243815,0.02740830,0.03957347,0.03645311,-0.04914907,-0.03092274,0.04337532,0.00022219,-0.02618066,0.04195613,0.02665958,0.04165352,0.04597999,-0.03484546,0.04000902,-0.00186668,0.02182076,-0.04429349,0.00245358,-0.02945418,-0.04182350,0.03246629,0.04205697,-0.04326364,0.04809557,-0.03917551,-0.02336986,-0.03512375,-0.03145804,-0.00156400,-0.04405531,0.04876379,0.01765970,0.02846866,0.00699730,-0.03437246,-0.03876474,-0.04696928,-0.02817344,-0.04667432,-0.04771246,-0.00516401,0.01379557,-0.00434480,-0.02765883,0.00397164,-0.03554922,-0.02049875,-0.00509540,0.04447103,0.02778102,0.01603960,-0.00772999,-0.01596629,0.04507997,0.00820336,0.00300531,-0.00585003,-0.04581381,-0.00814690,0.02199135,-0.03734399,0.01686407,0.02475725,0.00002710,0.04029452,0.02810320,0.00563462,-0.01764607,-0.04545530,0.02742848,0.03682701,-0.04024045
-0.02920739,-0.02922304,-0.02234612,-0.00750111,0.00379125,-0.02818290,-0.04327962,0.02808574,0.01443158,0.01227237,0.04253027,-0.04935449,-0.03578513,0.04238472,-0.00597696,0.03953293,-0.03383690,-0.04530634,0.00385122,-0.04979690,-0.02612923,-0.03154489,-0.00027113,-0.04750933,0.01305467,-0.03582947,0.01750990,-0.02439094,0.03981009,0.02576563,-0.01415027,0.02435571,-0.02700087,-0.03669727,-0.03644126,0.03001041,-0.02703152,0.03550196,0.00376347,-0.01806588,-0.03601176,0.04427245,0.01567506,0.03105559,-0.04644310,-0.00151179,-0.03944175,0.01708614,-0.02145463,0.04089359,-0.03189187,0.00957399,-0.00509131,-0.03715177,0.01992700,-0.00092614,-0.03296340,0.01100203,0.03620309,0.03003541,-0.00821694,-0.01224792,-0.01322559,-0.04593204,0.01882948,0.00084813,0.00560509,0.03114248,-0.01772242,-0.00237747,-0.01416605,0.02996590,0.00881508,0.03808727,0.01448529,0.04083883,-0.04161370,0.02666103,0.02565383,0.01087600,-0.03582592,-0.02917730,-0.02233775,-0.01502114,-0.02746624,0.00775678,-0.01780293,-0.04541094,-0.02708986,-0.03396387,-0.00435368,0.01754803,0.00009667,-0.04826906,0.01438743,-0.01809095,0.00452501,-0.03757309,0.01665950,-0.04570856,0.03474967,0.03695214,-0.03287372,0.03237258,-0.00903206,0.02771789,0.04361408,0.01890510,-0.04067096,0.04246696,0.04726198,-0.03026213,-0.00494641,0.02368848,-0.04775139,-0.00181893,-0.03966323,0.01741505,-0.04816543,0.01069001,0.03416872,-0.02135630,-0.01089979,-0.01319749,0.03226073,-0.01504936,-0.04264287,-0.03689494
-0.04102791,-0.00388262,-0.03625986,-0.02268441,-0.00256690,0.03200281,0.02844283,0.04498780,0.01300269,-0.03980662,0.00597432,-0.04420250,0.03835040,0.03929156,-0.03920995,-0.01677586,0.01871724,0.04005874,0.01853353,-0.03615651,-0.00790670,-0.01762908,0.02289251,0.00578270,-0.01191350,-0.03062298,-0.03894775,-0.01809982,-0.04294750,0.03613166,-0.02127633,-0.02286109,0.00141648,-0.04288481,0.04884801,0.04062273,-0.04388964,-0.02376839,0.01001541,0.01314962,-0.00436091,-0.04721768,0.01757920,-0.03425778,0.00345106,0.04001979,0.01740757,0.03389369,-0.03101377,-0.04039323,0.00738826,0.01202973,0.01848883,-0.02604278,-0.03969143,-0.01887671,0.02383432,-0.04642710,-0.03817084,0.03213757,0.01489082,0.03029722,-0.04061779,0.02273118,-0.03713289,-0.04324380,0.02300461,-0.03430501,-0.00141307,-0.04276063,0.00132592,-0.01654759,0.01014953,-0.02505274,-0.00485718,-0.00025591,0.01652169,0.01197197,0.02547463,0.01860886,0.03915301,-0.01737132,0.00556923,0.02353381,0.03055186,0.00670529,0.03716704,-0.00955265,-0.01292849,-0.04242888,-0.01094025,-0.00146729,-0.04491036,0.02739990,0.03024810,0.03870014,-0.03863831,0.02085962,-0.02891319,0.00860421,-0.04519407,0.00431471,0.04550138,-0.02005070,-0.01584778,-0.02182512,-0.04488615,0.00665678,-0.03118721,-0.01076252,0.04586851,-0.01260382,0.04438354,-0.02111003,-0.02519303,-0.01861154,-0.00808850,-0.03123911,0.00514721,0.02632941,0.00956494,-0.02622565,0.03830487,0.03326191,0.02207156,-0.02715466,-0.03972781,0.03456119
-0.03786482,-0.02348298,0.02722930,0.03428257,0.01966878,-0.03505341,0.00538405,-0.01337524,-0.02713387,0.00459226,0.03672429,0.01601890,0.04958821,-0.00242049,0.03489118,-0.03010123,-0.01539101,-0.00630537,0.01220243,-0.04790292,0.01507688,-0.00894824,-0.04294059,-0.00704722,0.03163681,0.04855072,-0.01746183,-0.04799275,0.00570495,0.03692096,0.02926746,0.00040904,-0.00574543,-0.00966991,-0.03835897,0.00974208,-0.01284082,-0.01936499,0.03657210,0.03806377,-0.02753616,-0.01885518,-0.04596670,0.04977477,-0.04007142,0.01586660,-0.02148109,-0.03476254,-0.04570270,0.04409597,0.00047909,0.02030882,0.00725301,0.04433553,0.03158541,0.00722487,-0.03028399,0.03139771,-0.04642481,-0.00825881,-0.02174066,-0.02852589,0.01570008,0.02191094,-0.03247992,-0.01226195,0.01578007,-0.03055244,-0.03232575,0.00641912,0.04141892,-0.01910602,-0.00064936,-0.00204697,-0.00713407,0.04275561,-0.00914917,0.01521410,-0.03659954,0.01378867,0.00185329,-0.00883264,0.02322726,-0.01054069,0.02261493,0.01031956,0.01826123,0.02692368,-0.04200593,-0.04798993,-0.02519433,0.02604162,0.00043542,0.02153685,-0.04951843,-0.00285058,0.03811407,-0.01840430,-0.00872380,0.00651317,0.00764303,-0.00626833,-0.03833147,0.00196322,-0.04861295,-0.01198310,0.03560019,-0.04146481,0.02111445,0.04245009,0.04221739,-0.04999713,0.00962248,-0.04039489,0.00599938,0.00813910,0.01861542,-0.03033834,-0.01476309,0.01029302,-0.04043232,-0.03225013,-0.01755308,-0.02934854,0.02846160,-0.04993175,0.04316266,0.03271708
-0.01397001,-0.04001144,0.01118518,-0.00457989,-0.04969377,-0.00907712,0.03395433,0.04360954,0.01265525,0.02434427,-0.04454118,0.00227644,-0.02522200,-0.04554290,0.03811812,-0.00500508,-0.04131499,0.00535322,0.04889763,0.04346098,-0.03765465,0.03373853,-0.01848809,0.03933438,-0.01272634,0.04214850,-0.00155218,-0.04743495,0.01467242,0.03886334,0.01129948,-0.00225055,0.01700637,-0.04766032,-0.04418879,-0.02309198,-0.00396616,-0.01313004,-0.01917475,-0.02392674,0.02695541,-0.00052471,-0.04416867,0.01755099,0.01155453,-0.00664338,-0.02669626,0.04969877,0.03011831,0.03770249,-0.02823118,0.04901216,-0.04323507,0.02234784,0.00122344,-0.01238724,-0.04590161,-0.03270735,-0.04029563,-0.02197151,0.01583122,-0.03409581,0.01080126,-0.00173423,-0.02006556,0.02156312,-0.04844492,0.01650738,0.04431905,0.01997158,-0.04710395,-0.01312449,-0.01570921,0.04398742,-0.02384269,-0.01692905,-0.02951152,0.00024437,-0.03475984,-0.00384394,-0.01385101,-0.03808255,0.04988648,-0.03195099,0.02250014,0.00421511,-0.03663781,-0.00291826,0.01525940,-0.01618112,0.01858290,0.01438333,-0.00619522,-0.02211250,-0.03777365,-0.03927776,-0.02097605,-0.01291934,0.01423833,0.00351640,-0.03161427,0.03739658,0.02185922,-0.02731977,0.04906789,-0.02098887,-0.03732113,-0.01256270,-0.02202997,0.04115149,0.00560496,0.03615851,0.01294884,-0.04439963,0.04709019,-0.04482966,0.00814771,-0.02191410,-0.01612035,-0.02001037,0.03887482,0.01622446,-0.03394157,0.02321273,0.01999324,-0.03392687,0.04684011,0.03508092
-0.01141767,-0.00454544,-0.01231898,0.00591063,-0.01563364,-0.01837732,0.01659020,-0.02841095,0.04789452,-0.04388785,-0.03572944,-0.01543520,-0.00803150,0.04368055,-0.00005820,0.04110866,0.00434832,0.01649481,0.04797243,-0.04069940,-0.00984797,0.00284491,0.04370924,-0.03641521,0.01581590,-0.01711505,0.01917784,-0.03739558,-0.02319295,-0.01666447,-0.04712942,0.02230182,-0.04261872,-0.00977239,-0.02653932,0.04926905,-0.04004136,0.03665520,-0.03105457,0.01998907,0.01855840,0.01050758,0.04620240,-0.01788455,0.03608074,0.00639741,-0.03053374,-0.00765597,-0.01356853,0.04815611,-0.03986900,0.01869798,0.00783622,-0.04588133,-0.03924772,0.04831162,0.03299702,-0.00537501,-0.01053280,0.00242544,-0.03024470,0.01376644,0.04694188,-0.01394608,-0.00335107,-0.03376113,0.03925593,0.00879385,0.00979747,-0.03858661,0.04036507,-0.03271126,-0.00090130,0.04476896,-0.03094527,0.03620676,-0.01305079,-0.03111848,0.02141136,0.01340980,0.01388632,-0.02471386,-0.03758686,0.00058483,-0.01700770,-0.01839574,0.04866362,0.04246399,-0.00416899,0.03787163,-0.03659394,-0.04114302,-0.03028460,0.02626273,-0.04727664,0.02475680,-0.04523163,-0.01158549,0.00019439,0.02035821,-0.01051735,-0.02230364,0.04325463,0.03910198,0.01931947,-0.01044408,0.03732820,-0.03952326,0.01450493,0.02859870,-0.00957748,-0.04823190,-0.02031665,0.00937051,-0.03072349,0.04007155,-0.02394450,-0.01611716,-0.04677597,-0.04279708,-0.04397622,-0.00916710,0.04893982,-0.04245669,-0.02637122,-0.04333622,0.04310567,0.03294268
0.02989298,-0.02993590,0.00073607,0.03414217,0.01223455,0.01373560,0.00512052,-0.01921111,-0.02608621,-0.02205930,0.03754148,0.03777042,0.00557398,-0.04394525,0.03074087,0.02727101,-0.00519462,-0.03542534,-0.00651702,-0.00313754,-0.04885677,0.04337769,0.02130636,0.00763486,-0.04332304,0.00017576,-0.02239134,-0.00181555,0.02400253,-0.03149714,0.01691310,0.03860570,0.04860574,0.02395729,0.04821371,0.03098524,-0.04936191,0.02120329,-0.00811668,-0.02890270,-0.04638714,-0.03369687,-0.00421236,-0.04001477,-0.03750658,-0.02733402,0.00840725,-0.00293004,-0.03366140,0.02517072,-0.00808007,-0.01636804,0.04281573,0.04201819,-0.00960502,0.00964890,0.02119872,-0.00182533,-0.01777167,-0.00499668,-0.03344079,0.00565360,0.03487492,0.03973014,0.01551852,0.03498450,-0.02584219,0.00350289,0.01132858,-0.01637208,0.01865235,-0.03841045,-0.01511990,-0.01145211,-0.00623514,-0.01899632,0.01675836,0.03170394,-0.00409808,-0.00513297,0.04591076,-0.00460999,0.01220597,0.02961597,-0.03656406,-0.02966681,0.02963523,-0.03908081,0.03689526,0.01596234,0.03075004,0.01919383,-0.02431582,0.01076169,-0.03386177,-0.02767766,-0.01558469,0.02789095,-0.01919869,0.03296453,0.02603781,0.01221284,-0.04481186,-0.04746222,-0.00461071,-0.03648251,0.00604635,0.02702202,0.04255226,0.00321008,0.04648018,0.02607724,-0.03550858,-0.01168679,-0.02917984,-0.00900171,0.00661245,0.04824937,-0.04751491,0.00892583,-0.00560906,-0.03144125,0.04159508,-0.04397751,-0.03525446,0.00267137,-0.00526351,-0.02301005
-0.04281087,0.02598944,-0.00920705,-0.01089407,0.03220413,0.04566801,0.00075880,0.04189761,-0.02133626,0.03970179,-0.00490816,0.03376890,-0.01159515,0.00418650,0.01443848,-0.00142033,0.00452465,-0.04109394,-0.01973267,0.03682559,-0.01115532,0.01907567,-0.02802019,0.04011769,-0.02137582,0.02839828,0.00152228,-0.04762010,-0.02037742,-0.04898238,-0.00391153,0.01596263,0.00942741,0.01395018,-0.01563198,0.00586016,0.02233404,0.01788056,-0.03404361,0.03793621,0.04611418,-0.04083403,-0.02233439,-0.03736202,0.01006268,-0.01959641,0.04467544,-0.03211565,0.04078012,-0.01357443,0.01266376,-0.03097453,0.03497425,0.03919424,-0.04131333,0.01562885,-0.02251564,0.00193114,0.03716645,-0.03571940,0.03667470,0.02582926,-0.03948304,0.02210701,0.04873687,-0.01375896,-0.03525371,-0.03785823,0.04638386,0.02557697,0.04929474,0.00194013,-0.02966810,-0.02877549,0.02627543,0.02189904,0.03515518,-0.03527411,-0.01681415,-0.00783662,0.01123061,0.04049972,-0.01994123,-0.02988100,0.04894701,-0.03660970,0.04922621,0.01149174,0.02340609,0.01413663,0.03712900,0.03799174,-0.00845347,-0.02184557,0.03837900,-0.04628203,0.01446958,0.03276009,0.01405827,-0.02326910,-0.04630487,0.01490543,0.00065867,-0.01731306,-0.03930495,0.00012985,-0.00428890,0.02443614,0.02162765,0.04307530,-0.02945655,-0.04948010,0.04481796,0.04276915,-0.02228322,0.00791060,0.02319535,-0.04271276,-0.03745294,-0.01065253,0.02285795,0.03659997,0.00663575,-0.03360862,0.00336387,-0.01228825,0.04123035,0.03375215
0.02881974,-0.00693060,0.02785904,0.03140206,0.01807824,-0.03372209,0.01937986,-0.03359606,-0.03492755,-0.01014682,0.01121854,-0.02961493,0.00453866,-0.03231756,0.03885968,-0.02650741,0.00138428,-0.04281938,0.03113181,0.01920042,-0.01229721,0.00724592,-0.01204287,0.01782346,-0.02259832,-0.01979852,-0.00160174,0.04866782,-0.03929196,-0.01112495,-0.01324224,0.02970781,0.04204235,-0.02417157,0.02002554,-0.02458447,0.02933935,0.01186221,-0.04582340,0.00933466,-0.03541402,-0.04052479,-0.00505884,-0.01434810,0.01608853,-0.00311755,0.04765824,0.00335332,-0.01773667,-0.03933869,0.04774192,0.02180429,-0.04160278,0.01748318,-0.02729594,0.00868503,0.01990237,0.02819373,0.03478104,-0.02143020,0.00072621,0.00585989,0.01994777,0.02070997,0.02420319,0.02837294,-0.00309338,-0.02208400,0.04682629,-0.02762703,0.00782515,0.03627091,-0.02286877,0.00530018,0.04801852,0.00454665,0.03823570,0.04541199,0.02675561,0.00393071,0.01280129,0.03075382,0.00510970,0.00071501,-0.01752721,0.00646481,0.02066075,0.04449927,-0.04374659,-0.03372993,-0.01710520,0.03682305,0.01038515,0.03812506,-0.01389410,0.01542096,0.01818290,0.00796400,0.02304734,-0.02123069,0.04893285,0.03943215,-0.02104220,-0.04336906,0.04318551,0.01847628,-0.03084925,-0.04651618,-0.00743952,0.02645854,-0.03826340,0.00592613,0.01274515,-0.01282065,-0.03115270,-0.02159449,0.02314455,0.00442218,0.00340496,0.00665004,-0.03567838,0.02832118,0.03813076,-0.03483922,0.01810196,-0.03735945,0.01693679,0.03408350
0.00431415,0.01834613,-0.00042443,-0.01872024,-0.03452930,0.04707244,0.00049495,-0.01729872,0.04696791,0.04013358,-0.02087870,0.02219024,0.00239544,0.03908847,0.01881948,0.00536979,-0.03165165,0.03753811,-0.01463512,0.00826003,-0.02697711,-0.03665387,0.01832182,0.00901156,0.01619953,0.04460634,-0.04315723,-0.01557313,-0.00374271,0.03676666,-0.01759896,-0.03073309,-0.03986142,-0.04294600,0.01197239,0.03730850,0.02584145,-0.01383648,-0.04772143,-0.00794769,-0.01538684,-0.03234086,0.00962723,-0.03047183,-0.00811766,-0.04355345,0.00429358,-0.01260143,-0.02429331,0.00446177,0.01197549,-0.03247168,-0.04490243,-0.04667970,-0.02803802,0.02059148,0.02422861,0.02300667,-0.02044519,-0.04494275,-0.04902849,0.04130696,0.01744686,0.00029862,0.04807807,-0.04394057,0.00481416,-0.00251732,0.00503827,-0.04841527,0.03555584,0.03827592,-0.00388957,-0.01735112,-0.04628757,-0.04306386,-0.02626663,0.01787025,0.00332949,-0.04240519,-0.01660660,-0.00622734,0.00906818,0.04138413,-0.02755340,-0.03384158,-0.00439715,0.01218759,0.01262057,-0.03475418,0.00223849,0.01787330,0.00819124,-0.02857750,0.01471040,0.02856905,-0.03016840,-0.03286739,-0.03533874,-0.03736634,0.04577955,-0.02447280,0.02700335,0.01117921,-0.00778690,-0.04847502,0.04312242,0.01554700,-0.01450078,0.01577377,0.04069906,-0.01798803,-0.03603460,0.03099921,-0.03736877,-0.02878798,-0.04465000,-0.00617636,-0.02857262,-0.03096058,0.02415704,0.02339612,0.02132419,-0.02950410,-0.03115615,-0.02484973,0.00281193,0.04136867
-0.00824476,-0.00854180,0.01010902,0.03005910,-0.04398964,0.00736834,0.01126079,0.04961637,-0.03543299,-0.01617103,-0.02827697,-0.01138801,0.01172636,0.01126223,0.03799864,0.00519919,-0.03838906,0.04729210,-0.03639911,0.00311614,0.00102464,0.01128610,-0.02609507,0.02265476,-0.04342578,0.03773493,-0.04176231,-0.01225978,0.00276027,0.01189471,0.02599922,-0.00401279,-0.02392448,0.03269492,-0.03147332,0.00723225,-0.02508875,-0.01244576,0.03399483,-0.02372665,-0.04045013,-0.02325712,-0.04808453,-0.01929465,0.01734343,0.02106682,-0.04981329,-0.02263079,-0.01967421,-0.03312333,-0.04571130,-0.00128000,-0.02460845,0.01521090,-0.02269837,-0.00858954,0.01182425,0.03449300,0.00556036,-0.04261715,0.02235641,0.04067276,-0.03364339,0.04889754,0.00803997,0.03023711,0.04511609,0.01220765,-0.00900387,0.04658588,0.01426450,0.04231051,-0.00294529,-0.03155795,-0.02507743,-0.02603978,0.01076537,0.02721286,-0.03558602,0.04765390,0.04130672,-0.03526922,-0.04748597,0.04480012,-0.00779821,0.03006210,0.04946558,0.04168934,0.04393633,0.03823657,0.04369070,0.03674254,-0.01342240,0.02800087,0.02839604,0.00088473,0.04742921,-0.00936912,-0.02727238,-0.02776100,-0.01619952,-0.02040828,-0.01262568,-0.04637486,0.00904719,0.03038368,0.01235626,-0.00385840,0.04313451,-0.01940257,0.03191000,-0.04648681,-0.01460931,0.01323969,-0.01191319,0.03065677,0.04565662,-0.04676513,0.02056645,0.02399350,-0.03413298,-0.01427186,-0.02608087,-0.00341397,0.01258503,0.01929099,0.04036495,-0.01182591
-0.02203529,-0.00670072,-0.02396402,0.01604742,0.01865542,0.01259993,-0.00959398,0.01825118,0.02460272,0.01391003,-0.01219345,-0.03894749,0.00253256,0.02298144,0.00589211,0.03687171,-0.02465976,0.04670465,-0.03159779,0.02375878,0.00221161,-0.02830372,0.01493869,0.02222556,-0.01750465,0.01743801,0.03091038,0.02213142,0.00423926,0.04506092,-0.00228659,-0.02124731,0.03465550,0.01760567,-0.00050154,-0.00131188,-0.04217639,-0.02783069,-0.02035934,0.04556469,0.01070265,-0.01976353,-0.00151790,-0.03203106,0.03648782,-0.04543554,0.03497679,-0.04614263,0.02803402,-0.02764598,0.00256588,-0.03925342,-0.03365804,-0.01106025,-0.04954448,0.04373657,-0.03096241,-0.04684234,0.03864500,-0.03943660,-0.03281626,0.04256145,0.00012042,-0.04841918,0.00530958,-0.04149213,0.00803317,-0.04681308,0.04638644,0.04949820,0.02353988,0.01488144,-0.03906509,0.01261776,0.02397937,-0.02861175,0.04725293,-0.02342513,0.02857811,0.02595938,0.01468706,-0.00698987,-0.03783228,0.02584975,-0.03190359,0.00813524,-0.00670614,-0.03939176,0.01014916,-0.01230841,-0.00207984,-0.00339096,-0.00130935,-0.01432732,-0.00512753,-0.04926411,-0.00454483,0.04552567,-0.02293699,0.04260242,-0.00044151,0.04651335,-0.02279849,0.02657935,-0.03305873,0.01046060,0.04902415,-0.00952780,0.03949155,0.04008975,-0.02811303,-0.03452218,-0.00404782,-0.04689034,0.00778552,0.00864931,-0.01984975,-0.00484508,-0.02057610,-0.01518522,0.03317388,-0.04328039,0.01470247,-0.02909167,-0.02988634,-0.04739122,-0.00414482,0.02727874
-0.02725100,0.00970075,-0.01511322,0.01749446,0.04301525,0.01330207,0.02936301,0.03105843,-0.02370665,-0.00187371,-0.02293902,-0.00668972,-0.00547514,0.00770271,-0.04538632,-0.03438100,0.04810844,0.04554435,-0.01933205,-0.03287939,0.01267423,0.01317874,-0.04790980,-0.04642065,0.00105897,-0.00153752,0.00651802,-0.02113696,0.01551600,0.00621804,-0.00834111,0.02552844,0.02880396,0.02801866,0.04980281,-0.04191244,0.00940273,-0.00493803,0.02259234,0.01432391,-0.04419668,0.04794446,-0.02402494,0.01496462,-0.03494618,0.04343014,-0.04255278,0.04749328,0.04010324,0.01567757,0.03724707,-0.03722931,-0.00857975,-0.04859406,0.00184095,-0.03523754,-0.02354630,-0.02197406,-0.04757036,-0.00139369,0.01094971,-0.02382750,0.00797006,0.01555413,0.01380698,-0.04872298,-0.02422962,0.02884689,0.03301341,0.03922940,-0.03487616,-0.04331417,-0.00500939,-0.03008377,-0.03322507,-0.00740510,0.04995665,-0.04053011,-0.00450251,0.01141401,0.04678508,-0.00200707,-0.00102929,-0.02395890,0.04057208,-0.03813900,-0.04163642,0.02789009,-0.03100731,0.04239188,-0.03533461,-0.04787565,-0.02823069,-0.02814418,-0.00185814,0.01963703,0.04238412,0.01588762,0.03210663,-0.02971895,-0.00531667,-0.00622012,-0.02605313,0.03144609,-0.03075467,0.01677191,0.01272175,-0.03213517,-0.00326066,0.01525987,0.02900826,0.01317279,-0.01361561,-0.02727025,-0.00198187,0.03810715,-0.00349992,-0.00387046,-0.01951566,0.03009317,0.03386677,-0.02242073,0.00359999,0.03968403,0.00024604,-0.00177064,-0.00742925,-0.02705833
-0.04811126,-0.01478910,-0.01502557,-0.04646818,0.04464601,-0.02326061,-0.00331036,-0.02840252,0.02227774,0.00625948,0.01342533,0.03701701,-0.02288507,0.00093301,0.03910570,0.00881171,-0.01660471,-0.02455185,0.01809099,0.00093810,0.04177326,-0.03515968,-0.02887878,0.02862695,-0.04004955,-0.04702302,-0.02991886,-0.04936166,-0.01971966,-0.01134975,0.03237003,-0.02840828,-0.00530007,-0.03333810,0.02916685,0.00457190,0.03058111,0.00874714,-0.00566423,0.02469226,-0.01500077,-0.02659044,0.02068411,0.03425256,0.02666074,-0.04992898,0.00232614,-0.04412667,0.01829327,0.02597703,0.02218498,-0.04896678,0.00818666,-0.03422356,-0.04531977,-0.04808645,-0.00992546,0.00857159,0.01616998,0.01773960,0.01984743,-0.02170822,-0.02812812,-0.01214071,0.02804636,-0.02703178,0.00970321,0.02832473,0.01083427,0.00310193,-0.04853505,0.03920939,0.02815248,0.04802871,-0.04252550,-0.01058169,0.01203617,-0.03569814,-0.04793266,-0.03675677,-0.03413610,-0.00211935,0.00454860,0.02128629,0.01155101,0.01839216,-0.00040403,-0.01732132,-0.03945884,0.02819789,0.02758485,-0.00095957,-0.01405350,-0.03587355,-0.03715585,-0.03908292,0.03150399,-0.03373285,-0.01188867,-0.03029129,0.01363139,0.04909188,0.04052113,-0.02133606,-0.04865730,0.01611000,0.02824714,-0.03930084,0.04067909,0.01457854,-0.01687816,0.03512676,-0.01849375,-0.03428741,0.04422874,0.04793886,0.04546500,0.00813017,0.03312043,-0.00299960,0.02977056,0.01159592,-0.02937933,-0.01429006,-0.01496764,0.02995111,-0.01866164,-0.01077343
0.00625416,-0.04819378,-0.00193341,0.01259764,0.04911299,0.01818327,0.00061847,0.03762684,0.03853298,0.01979460,-0.04450225,0.02741951,0.03276709,0.01857514,0.04677394,0.03946924,-0.01414995,-0.00272558,0.04587238,0.03927122,0.04500263,-0.02836898,-0.00258807,-0.04307001,0.04679621,0.04200210,0.04565376,-0.02815757,0.04806376,0.04652715,0.02502547,-0.01521035,-0.04280282,-0.04105038,0.03932310,-0.00818137,0.04081456,-0.00025601,-0.02335504,0.03042406,0.01148217,-0.04122915,0.00977147,0.03326312,0.04445362,0.02073066,-0.03939166,-0.00914274,0.00654847,0.02433133,0.04496234,-0.00855244,-0.03505122,-0.01252053,0.04328134,-0.01796592,-0.01156102,-0.03610947,-0.00201295,-0.01451007,-0.04522382,-0.00551445,-0.00033037,0.02413280,-0.00928479,-0.04892498,0.03087048,0.01164800,0.04434953,0.04892026,-0.03994957,-0.03183222,-0.02095885,0.02888023,-0.00489656,-0.00511806,0.00408193,-0.02880466,0.01116569,-0.02761308,-0.01925950,0.01815035,-0.02671217,-0.00664582,0.03769818,0.01346123,-0.02711017,-0.02675717,0.01661930,0.00619263,-0.02652576,-0.02975511,-0.01678613,0.00790631,0.00061658,0.04481221,-0.01919340,-0.02581660,0.01472910,0.00558420,0.03135437,0.04399464,-0.00274254,-0.00429814,-0.02145681,0.02615008,0.00913014,-0.03765147,0.03613282,-0.02476776,0.03165502,-0.02117468,0.01857790,-0.01317837,-0.00549849,0.01552074,0.04988660,0.00104172,0.04131796,-0.04732768,0.00817883,-0.04070301,-0.01377614,-0.00808057,-0.03201168,-0.02311964,0.00584297,-0.01696460
-0.02510413,-0.00098543,0.01451908,-0.04325465,0.03358836,0.01427243,-0.00062707,-0.00105660,0.00173598,-0.03948168,0.01921585,-0.02691547,0.01633014,0.00160100,-0.04152045,0.03203776,-0.04315385,0.02106174,0.00170507,0.01356668,0.00465505,0.04388666,-0.02568691,0.01612705,0.02683580,0.04439712,-0.02463986,-0.00370052,-0.01795082,-0.04633049,0.01631955,-0.03410628,0.03331562,0.03998064,-0.00277383,-0.00994645,-0.01383688,-0.01648455,-0.03818717,-0.02099971,-0.00131323,-0.00899417,-0.00002302,0.01715318,0.01764568,-0.00847871,0.03443875,0.03911218,-0.01322158,0.04501605,0.02244753,-0.03453319,-0.00760586,-0.03814536,0.01548402,0.03652981,0.03777802,-0.04795649,-0.03767855,0.00201932,-0.04607090,-0.00550658,-0.03705025,-0.01213901,-0.00061706,0.01431626,0.04471657,0.03855315,-0.00037365,0.03394536,0.00451903,-0.01351621,0.01968864,-0.00630520,0.02702818,-0.01711937,0.01471290,0.04978293,0.04985511,-0.02883818,0.04591575,-0.03745903,0.03685083,-0.04158801,0.01130498,0.03657981,0.01295707,0.02789566,-0.04365882,0.03932108,0.03832514,0.03072516,0.02562196,0.03312481,-0.02266794,0.02819027,-0.04679060,0.02250240,0.01505681,-0.03541989,-0.04393008,0.00400319,0.01064334,0.03236323,-0.04116312,-0.01707903,0.02235437,0.03703250,-0.01240306,-0.04098186,-0.01815882,0.02455145,0.01281476,-0.00839599,0.00503183,-0.01383264,-0.01756090,0.04122946,0.02031025,0.00585794,0.02571550,-0.04337788,-0.02679575,0.04316055,-0.04424089,-0.04568138,0.02008075,-0.04694519
-0.01270797,0.01314120,-0.00418849,-0.04419640,-0.01719892,0.00141107,0.04904838,-0.04653929,0.02383048,0.03250257,0.04919457,-0.00591800,0.04600370,0.04095119,0.02260324,-0.01087365,-0.00481965,-0.02531076,-0.02940979,0.00565354,-0.02622407,-0.03875135,0.02600158,-0.03425239,0.00521864,-0.04705290,-0.04976673,-0.01530463,0.01398114,-0.01220040,-0.03006929,0.03903793,0.03938991,-0.03274214,0.02805220,0.04699449,0.03847254,0.02605996,0.01950714,0.00038399,-0.03069218,0.02966237,-0.01503368,0.01308349,0.00299516,-0.04067409,0.03715420,-0.04939318,-0.03719953,0.03002166,-0.03590190,-0.00223050,-0.02432983,-0.01361886,-0.00003897,0.04770185,0.00016508,-0.03993029,0.01890144,-0.02922815,-0.02092234,-0.02875290,-0.02398896,-0.03266015,0.00293877,-0.04775821,0.01011964,-0.02257409,-0.04646302,0.01988191,-0.01272641,0.02051160,0.00681228,0.03454052,0.02570072,0.03246810,0.00218268,0.02021822,-0.02150201,-0.04160233,0.03966274,0.00336455,-0.02608027,0.03524059,-0.01935682,-0.04386712,0.04835543,0.00415970,-0.03965218,-0.00467132,-0.02613958,-0.00007216,0.03526906,-0.03303628,0.00322996,-0.00905568,-0.00232063,0.02642738,-0.01420316,-0.04513893,-0.01158506,-0.02094954,0.04099350,-0.00313125,0.03500049,-0.02749858,-0.03980101,0.01544311,-0.04140981,-0.03253209,-0.00438398,-0.00240425,0.04539670,0.04656297,-0.02634676,-0.00223131,-0.03128879,-0.00116482,-0.00746733,-0.04127747,-0.03646481,-0.04246570,0.03500353,0.04700731,0.04463964,0.01799354,-0.03570044,0.02166471
0.03764653,0.02368968,-0.01721098,0.02771110,-0.04783797,0.00053580,-0.04843317,-0.00946464,-0.03101463,-0.04862745,-0.01900024,-0.00181205,-0.02932469,-0.01772796,0.04107447,-0.03353714,0.04170386,-0.04453799,-0.02608416,0.02625450,-0.04905819,0.04361263,0.03990857,0.03112007,0.02487761,0.00537083,0.04246710,0.01953202,-0.02244875,0.01045863,-0.04980926,-0.03218664,0.03275159,-0.04349145,0.04830539,0.03616509,0.04054416,0.03143186,0.01712692,0.00209666,0.01393837,0.00947075,0.03921942,-0.02661347,0.03809393,-0.03628119,0.00141064,0.00866792,-0.02798008,0.04538721,-0.02326794,0.01530759,0.03505095,0.04811851,0.02395047,0.03783006,-0.00580555,0.03566092,-0.00042618,0.01505793,-0.00719297,-0.04502881,-0.04524815,-0.00641068,0.00681233,0.02904584,-0.00858084,-0.02152736,0.04905767,-0.02241008,0.01995676,0.01352595,0.00725768,0.01177009,-0.02714018,0.01775407,-0.03702312,-0.02718416,-0.01558272,0.01170439,-0.00822375,0.02740992,0.04787004,0.01453996,-0.00274598,0.03616527,0.04449802,0.01861807,0.00801667,-0.04730648,-0.03871723,-0.02260686,0.04425744,0.03449284,0.01918878,-0.03946128,-0.03045789,-0.00837797,0.02803172,0.04327862,0.00174279,0.02695532,0.02307688,0.02688994,0.03914114,0.04503110,0.01651565,-0.04210069,-0.00704477,0.04046996,0.04054637,-0.00708241,0.01886472,-0.02943912,0.03705679,-0.01764229,0.03951282,0.02008852,-0.04840142,0.02251783,0.04017336,0.04896488,0.03450260,-0.01437081,0.01858224,-0.04079967,0.04803494,0.02923678
-0.04290356,-0.04219156,-0.03925799,0.01737056,0.01401684,0.03489583,-0.02824541,0.02998670,-0.03787387,0.04449916,-0.02930257,0.02716220,0.01828831,0.00464691,0.01049415,0.02181711,0.01496286,-0.00766615,0.00113869,0.04231021,-0.01795959,-0.01213883,0.01886456,-0.01425708,-0.03824294,-0.02845571,0.03700271,-0.01534147,0.01933021,0.01979880,0.00148843,0.00415897,0.04270135,0.00703184,-0.00731580,0.02720131,-0.03189559,0.04017681,0.04452461,-0.01324669,-0.04836774,-0.02894422,-0.02572824,-0.04070652,0.04652862,-0.04870001,-0.04711015,-0.01932368,-0.01162366,0.00137979,-0.02345577,-0.04029487,0.00275626,0.01707801,0.03512124,-0.01594719,-0.03381589,-0.03048049,-0.02493031,-0.03070371,0.03638807,-0.02239518,0.00582631,-0.03744562,-0.01909241,0.01774593,0.02468063,-0.00090905,0.01568666,-0.01901076,-0.00841392,0.01714576,-0.03568398,0.00163079,0.03399215,-0.02327287,0.04268694,0.00173384,0.02450629,0.01366020,-0.00780535,0.00420744,-0.03284245,-0.03151841,-0.02996161,0.02653533,0.02843678,-0.01099489,0.00835229,0.00601592,0.01227476,0.01222282,0.00878733,-0.00959834,-0.00409928,-0.01101824,0.01253632,0.02106451,0.03684414,-0.04356797,0.04848761,0.04342088,-0.03400862,0.01155525,0.02849014,0.00301837,0.01140488,-0.02482056,-0.02846491,0.03921713,0.03865725,0.00201272,0.04491519,-0.02303684,-0.02367787,0.00336417,0.00441832,0.04038710,-0.02220039,0.00420601,0.02755526,-0.03125830,-0.04060277,0.04765641,-0.02813009,-0.03106425,0.00022845,0.00332028
-0.02653019,0.03166238,0.04815288,0.04096519,-0.03772319,-0.02817155,0.00055822,0.02453238,0.04001420,0.04637171,-0.03903599,-0.04540394,-0.01564690,0.01718124,0.00020846,-0.00303473,-0.04230370,0.04678002,-0.02387358,0.02350326,-0.01170722,0.03755058,0.02012152,0.02731783,-0.03963760,0.01698697,-0.03841032,-0.04770611,-0.01481270,-0.00964102,-0.03623891,0.00560624,0.00508904,-0.01359824,0.04941529,0.02731729,-0.01931077,0.00894659,-0.03711908,-0.03018058,-0.01246944,0.03684569,-0.00739161,-0.01268721,-0.03528975,-0.04668236,0.02577740,0.02515334,-0.00764552,0.03771449,0.01335058,0.04655946,-0.04496012,-0.03295156,-0.00219836,-0.03399935,-0.02289449,-0.02325557,0.04931288,-0.01082276,-0.01168744,0.02457969,-0.03386634,0.04906056,0.04376927,0.00535350,-0.00543627,0.01564141,0.04901691,-0.02527176,0.02377434,0.01716927,0.01785545,0.03319379,-0.03791151,0.00627605,-0.04431009,0.00508226,0.03621371,-0.01305162,-0.02351698,0.00701868,-0.04324711,0.00584393,-0.00978772,-0.00449357,0.00855536,-0.03193783,-0.00985723,0.01522216,-0.00253512,-0.00156041,-0.01780128,-0.00903472,0.03685835,-0.03315406,0.04474056,0.01202170,-0.01128830,-0.00533024,-0.02685360,-0.00362181,-0.03461365,0.04401371,0.01707445,-0.03527420,0.03470843,0.01694288,0.01609339,0.03822241,-0.02459915,-0.00263329,0.01899556,-0.03643912,0.00019262,-0.00240491,-0.03816520,-0.02876334,-0.01976598,-0.02845255,-0.03659867,-0.04956980,0.03800154,0.04824697,-0.03554328,-0.01476111,-0.01514772,0.01423632
-0.02532058,0.03920973,0.02285094,0.00486899,-0.01488077,-0.01364688,-0.04022095,0.01984609,0.01539248,0.00480635,0.01709015,0.02885353,-0.03135807,-0.01904650,0.00396913,-0.01283041,-0.01018287,-0.02708028,-0.00646582,-0.00534098,0.04794456,-0.01743865,-0.03874484,-0.04018534,0.01622860,-0.02288239,0.01646860,-0.02889639,0.03660644,-0.03178894,-0.00222369,0.04254964,0.01749466,0.00651069,0.01527870,0.03458821,0.01743490,-0.00207188,0.04297106,-0.00409615,0.02321850,0.02667435,-0.00677969,0.01347844,0.03255359,0.01245905,0.00702311,-0.04900539,-0.02013950,-0.03604649,-0.01224831,-0.04997867,0.04820128,-0.04283601,-0.00846047,0.03532280,0.03978619,-0.00145503,-0.00606266,-0.03933458,-0.03518289,-0.03878775,0.04374578,0.02056772,0.00586798,0.03361467,-0.04265488,0.00621485,0.03805336,0.01066374,-0.03462495,0.01710433,-0.04697115,0.01607064,0.01204231,0.01278634,-0.00659025,-0.01548366,0.04520008,0.02150312,0.01946540,0.04846955,-0.04007009,-0.00072891,-0.02992413,-0.03104102,0.02106905,0.01730594,0.01687551,-0.01070882,-0.01561748,0.04361648,0.00773731,-0.00666752,-0.00187466,-0.00361065,0.02638166,0.02064599,-0.03912737,0.01943376,-0.01089723,0.00920078,-0.02086216,-0.03526481,-0.01313511,0.03112731,-0.02770102,0.04290995,0.04037735,-0.00508482,-0.00078033,0.02739060,0.03618990,0.00942553,-0.01397643,0.03806396,-0.04450678,0.00474478,0.03581477,-0.02203884,0.02751024,-0.04569971,0.00854016,-0.01825567,-0.02818019,0.00433695,-0.02264381,-0.00243872
0.03923118,-0.04827346,-0.00683832,0.03135810,0.01151890,0.01438453,-0.04151601,-0.02239393,-0.03830099,0.02321771,-0.02768064,0.01228304,-0.01728554,-0.03758786,-0.00104678,0.01982245,-0.00819132,-0.00741499,0.02433381,-0.04208391,0.00408816,0.02925682,-0.02910210,0.02250504,-0.03870279,0.03194064,0.04782381,0.02308353,0.03958314,0.04892267,0.01234393,0.00683945,-0.02221981,0.04562182,-0.02170540,0.02091784,0.02184033,0.00743141,0.01843791,0.02622662,0.02398275,0.00247856,-0.03696841,0.01199101,-0.04443571,0.03340992,0.01204018,-0.00241082,-0.00352845,-0.02722141,0.01204095,0.00979764,0.04377208,0.04084780,-0.00002813,-0.01226724,-0.01031747,-0.00856568,0.03617785,0.04720783,-0.02579416,-0.01380039,0.04583430,0.00606022,0.04536254,-0.00962442,-0.03813069,-0.01348975,-0.03723070,0.03078866,-0.02827631,0.03732550,0.01345200,-0.03216398,-0.00534469,0.01358617,0.01701701,0.00070248,0.02404124,-0.02897861,-0.04638555,-0.04159453,0.04170532,0.03309021,-0.01159563,0.03109178,-0.04699430,-0.02113271,0.01853100,0.03181204,-0.02102518,-0.03833457,-0.01806019,0.01729373,-0.01475699,0.02757286,-0.03576607,0.02442271,0.02716342,-0.01407919,-0.03595477,-0.03682673,-0.04000930,-0.00078784,-0.02973094,0.00524830,-0.00786091,-0.01269159,-0.03840278,0.01679218,0.03275442,0.03283927,0.02208339,-0.00528567,0.00766441,-0.04094521,-0.00312624,-0.00309041,0.00331818,-0.01001650,0.02767290,0.00919588,-0.00308856,0.04755512,-0.00535785,0.04487792,-0.04795510,0.00217887
0.01223428,-0.00433960,-0.03318764,0.02582100,-0.04244760,-0.03271987,-0.02518696,-0.03103263,0.00781630,-0.01548005,0.03053031,0.03174414,-0.02622087,-0.03129332,0.02127412,0.01577700,-0.01759474,0.04881845,-0.01919513,-0.02783098,0.00095779,0.04708450,-0.00989806,-0.00626532,0.04515747,-0.04112130,0.00230462,0.04389727,-0.03941441,0.04294262,-0.03383249,0.03382510,0.03157554,-0.02273023,0.01811929,0.01429990,-0.03938769,0.03938881,0.00050607,0.00140113,-0.04539563,-0.04715481,-0.04547152,-0.03309148,0.00849324,0.01620490,0.03698852,-0.01903279,0.02196056,-0.02200827,0.01115938,-0.02701763,0.04043237,0.01078333,-0.04177572,0.03931784,0.02639112,0.00358059,-0.03690377,-0.02399358,-0.00728008,-0.01956619,0.04569678,0.03676825,0.03584658,-0.02906427,0.01478309,-0.04446553,0.00146152,0.03298989,-0.01110060,-0.01952078,0.04300768,0.02144760,-0.00291630,0.01699761,-0.00633254,0.03078282,0.01239217,-0.01048301,0.00918836,0.00228164,-0.03883425,-0.03996951,-0.01273390,0.03197707,-0.04814488,0.01079382,0.01251284,0.02070606,-0.03943939,-0.00271954,0.02544991,-0.01958921,0.01438456,0.04828071,-0.00291938,0.02551153,-0.00018100,-0.00617067,0.02965680,-0.02038177,0.00848712,0.02646007,0.00414575,-0.01526644,-0.04570336,-0.02364297,0.01178874,-0.04260341,-0.02106465,-0.03260894,-0.00906883,0.00187135,0.03344795,0.03691041,-0.03802371,0.04358364,-0.01437608,0.04443483,0.01421601,0.04512346,0.00207520,0.00283412,-0.03695733,0.02693486,0.02280861,0.04428900
0.01932679,-0.01359094,0.04279522,-0.00906963,-0.00988623,0.04226166,-0.02091402,0.02284295,-0.04235407,0.04561035,0.03109372,-0.00226519,0.01224214,0.00207943,0.00875594,-0.03885092,0.01742335,-0.03200778,-0.01243068,-0.04373518,-0.04666445,0.03674285,-0.03441205,0.01441424,0.02892471,0.00056077,0.04402666,0.02460651,0.03685552,0.02735126,-0.03916948,0.03678815,-0.00179580,-0.02985709,0.04529176,0.03155444,-0.04435835,-0.00357868,-0.03307460,0.00685619,0.01365352,-0.00586143,0.01915697,-0.00732797,0.00760114,-0.03929045,-0.00804776,0.03266889,-0.04436503,0.03626444,0.00423501,-0.02870940,0.04595220,0.03198751,-0.01875721,-0.00000017,0.02666074,0.00213999,0.01415696,-0.02674326,-0.00911185,0.04872796,-0.03901212,0.04787572,0.03841785,-0.01360161,-0.04241586,-0.00161882,0.04525092,0.01407627,0.03545761,-0.03498368,0.03348564,-0.00148832,-0.03149658,0.01261828,-0.03828879,0.04827039,-0.04635326,0.03284687,-0.03537042,-0.04776642,-0.00913065,-0.04715062,0.04489112,0.02060996,0.00118201,-0.01985030,0.01672599,-0.04807376,-0.00581789,0.04670252,0.00009622,-0.01317840,0.04960810,-0.00469316,-0.02682538,0.01739744,-0.00022738,0.00358995,0.02262897,-0.01444421,-0.02418411,0.03452304,-0.01710467,-0.01153357,0.03285918,-0.03852428,-0.03811248,0.02211948,0.01815977,-0.04327827,0.00824469,-0.02094867,-0.00122551,0.03149114,-0.00661732,-0.00521934,0.01726640,0.03444907,0.00482843,0.01924631,-0.03774927,-0.00439810,0.00231705,0.01049789,-0.01410916,0.03360761
0.03418316,-0.02034142,0.01475990,0.03418795,-0.01110721,-0.02799582,-0.01375315,-0.03827604,-0.01669411,-0.03123120,-0.04780302,0.04844001,-0.03212832,-0.00243291,0.03388153,-0.04481991,0.03873078,0.01813811,-0.04914169,-0.00929528,0.02007495,-0.02504167,0.02456877,0.00430648,-0.02293917,0.04336680,-0.00068516,0.04903079,0.04313439,-0.01112024,-0.04027785,-0.04182108,0.03094539,0.03996292,-0.01654386,-0.04849446,0.00959812,-0.02734634,-0.00589399,0.04037473,-0.00715455,0.00457039,-0.03179239,0.02704920,-0.00159735,-0.04492591,0.02506334,-0.03061282,-0.01893975,0.02107817,0.03392233,-0.04534347,-0.03451498,0.02713052,-0.02835028,-0.02004088,0.02587523,-0.03609423,0.01479043,0.02244498,-0.04350483,0.01457857,-0.04703180,0.04415313,0.01955276,0.04505647,0.03085290,0.04089407,0.02408665,0.01932049,0.04911582,-0.01771624,-0.02030727,0.04547260,-0.02174804,0.01260623,0.02651678,-0.00555253,-0.04349043,-0.04335872,0.04960772,-0.02039258,-0.03293298,-0.03252989,-0.00057407,-0.01884160,0.00097607,0.03050087,0.03492508,-0.01204103,0.03517978,0.00380883,-0.01137850,-0.00344788,-0.02212952,0.01357214,-0.01609625,0.00149249,-0.03048758,-0.01430439,0.02227297,0.01623238,0.03055659,0.00390009,0.02736390,0.03628517,-0.01259583,-0.02554316,0.03651613,0.01731485,0.02402977,0.04274087,0.00044302,0.01568218,-0.02267598,0.04508967,-0.00844202,0.01281681,-0.03127455,-0.04479246,0.04451509,-0.00652967,0.03611195,0.01432842,-0.01078139,-0.03860516,0.01601386,0.04450967
0.00819597,-0.02437611,0.00811998,0.01544780,0.03758118,0.04194374,-0.01205722,-0.04383627,-0.04712787,0.01181891,-0.01235963,0.01594067,0.00685795,0.01252752,-0.00102270,0.04946014,0.01714296,-0.00899657,-0.04460078,-0.00640468,-0.01369715,-0.00972220,-0.01357014,-0.04976110,-0.00374195,0.00592694,0.01268519,-0.04039381,0.00043637,0.03250481,0.00628562,0.01438409,-0.00617210,-0.01984681,0.00944237,0.03180891,-0.01095430,0.03629720,0.04059445,-0.03893834,0.04563446,-0.01972742,-0.01700784,-0.03253329,-0.01570206,-0.01847883,-0.04239326,0.03485843,0.04988724,-0.00398785,0.00474808,-0.04760397,0.03595395,-0.00544638,0.03227187,0.01707764,0.00976904,-0.03103930,0.01513886,-0.01301957,-0.03577573,-0.04774211,-0.04297790,-0.04050178,-0.02662286,0.00025981,0.03892091,-0.03982304,-0.00374825,0.01422676,0.00475325,-0.04557597,-0.01353381,-0.00193432,-0.02870609,0.00106253,-0.04580688,0.03481338,0.02498807,-0.03237293,0.02736104,-0.03139794,0.04587299,0.01248419,-0.03931024,-0.03380489,0.02046496,-0.03618817,-0.01751670,0.03996927,-0.04602971,0.03812670,0.04361866,-0.01056121,0.04834777,-0.00482398,0.03690105,-0.04347315,-0.03875719,0.00359132,0.02673953,0.04714491,-0.02150058,0.02290952,-0.00437016,0.00012658,-0.02092419,0.04873053,-0.01220050,-0.04712289,0.01571438,0.01944763,-0.03147520,-0.02739458,-0.04642304,0.00098922,-0.04286797,0.03467970,0.03824155,0.00732706,-0.02692212,-0.03601934,0.00514855,-0.00210620,-0.00931169,0.03778978,-0.03312302,0.04440556
-0.00426405,-0.04955620,0.04864309,0.01127830,-0.04648703,-0.01922305,-0.01437402,0.04114437,-0.01970142,0.04947940,-0.00640781,0.04478386,-0.02112148,-0.02100765,-0.03048929,0.01532376,-0.02050097,-0.01377375,-0.00844053,-0.00526208,0.01666887,0.04701099,-0.04327232,0.01996678,-0.01912094,-0.03517172,0.00345876,0.04461174,-0.01227053,-0.04097091,0.03459447,0.00863901,0.01648775,0.01706137,-0.01850292,0.04379815,-0.03359587,-0.03525617,0.03707374,0.00619266,-0.04916746,-0.00920409,0.00948836,0.02774983,-0.00428627,0.01957891,-0.00550000,-0.02713236,-0.03177579,-0.02469145,0.03679254,0.03905357,0.04225086,0.03860284,-0.04674555,0.02942659,0.01461640,-0.04895654,0.03707841,0.03785295,-0.00807334,0.03612566,0.03484574,0.03627966,-0.00200956,0.03755938,0.01705510,-0.03925766,-0.01832927,0.04903599,-0.04313288,-0.03384720,-0.02050062,0.04998009,0.00178180,-0.03665078,0.01416803,0.02960432,0.02279546,0.01710891,0.04830133,-0.03737262,-0.02964503,-0.02365671,0.04701493,-0.02358757,-0.00066342,0.00521109,-0.00166512,-0.01939253,-0.04153538,-0.01138597,0.02519795,0.02135487,0.04054220,0.04101761,0.02706854,0.04453375,0.02644544,-0.00137868,0.03151182,-0.00520079,0.04991401,0.00277603,-0.04131708,-0.02572550,-0.00428387,0.00065059,-0.04265325,0.03762910,-0.03269389,0.00636797,0.00142511,0.01925649,0.01745635,-0.02576595,-0.02616023,-0.02378352,0.02107051,-0.00261321,-0.01691658,-0.04103716,0.02548692,-0.01555241,0.02184251,-0.04736112,0.03998152,-0.04902952
-0.03651565,0.03367588,-0.04015107,0.00327798,-0.03497321,0.00641887,0.03638828,-0.02764017,-0.03427354,0.04000267,-0.01637202,0.02442561,-0.04141183,-0.02706487,0.03794283,0.03078792,0.04355571,-0.03950684,0.04238662,-0.03217804,-0.02542736,0.01847276,0.03200098,-0.03448165,0.01938735,0.01144923,-0.00610374,0.03807934,-0.03024395,0.00946365,0.03368719,-0.00920548,0.03572834,-0.02567661,0.02646155,0.02177190,0.01078663,0.01679583,-0.03970445,0.00439391,0.04120416,-0.02249625,-0.00941484,-0.01037322,-0.00663564,-0.01640961,0.02853100,0.03199064,0.03654038,0.01159117,-0.01201504,-0.01982449,0.03311300,0.02782482,0.00309754,0.03840936,0.02103571,0.03357131,0.00049816,0.03836840,-0.00587878,-0.00209773,-0.01886157,0.03546565,0.03264267,-0.04524627,-0.00137838,0.00874826,0.02451330,-0.01488054,0.03770397,0.02485240,0.03245819,-0.01905636,-0.02184264,-0.04049973,-0.03122425,0.01378884,0.04581686,-0.03284878,0.02708733,-0.03328558,0.00593051,-0.01036439,0.02720783,0.03116505,0.04655515,-0.01248106,0.01681374,0.02850727,-0.04808743,0.02608036,-0.03679531,-0.04757150,-0.02852835,-0.00197173,-0.03106028,-0.02539432,-0.04197853,0.04564631,-0.02167299,-0.04795033,0.01434809,-0.02035879,-0.01161132,0.04340715,-0.03612420,0.04470358,0.00427217,0.01278615,0.02403227,0.00595389,0.04974065,-0.00020849,-0.01136629,-0.00196224,0.00547895,0.04736889,-0.03422018,0.00371991,-0.00028848,-0.00400748,-0.02154065,0.00013738,0.00542846,0.00094789,-0.02959596,-0.03103736
0.04411000,0.00026378,-0.03447469,0.02298145,-0.02132295,0.03096491,-0.03441081,-0.03666034,-0.03235716,-0.00811803,0.01459906,0.04790018,-0.03646215,-0.00740153,0.03994632,-0.03707741,0.02313844,0.00834907,0.03029647,-0.01826986,0.03677938,-0.00844400,-0.03239974,-0.03441581,-0.01161613,0.03082665,-0.04775717,-0.01544167,0.04740385,-0.02815451,0.03883579,-0.03877916,0.01929063,0.02008491,-0.00162223,-0.02954388,-0.00350211,0.03555596,-0.00045867,0.02951054,0.03212547,0.03403803,-0.04676130,0.02883962,0.02369070,-0.00903991,0.00213205,-0.03531724,0.00503185,0.04863003,0.02225680,0.02809623,0.01682783,0.04215920,0.03766194,-0.03371233,-0.00280478,0.01428149,-0.04703652,-0.00285391,-0.02186367,0.00614829,0.01503733,-0.03731194,-0.04877866,0.01459960,-0.01985788,-0.02536977,-0.00683297,-0.02856551,0.03955289,0.02661129,-0.01581028,0.01077306,0.00739057,-0.02792483,0.03432424,-0.02905301,0.04560295,-0.03352256,0.04479706,0.01787027,-0.01091418,0.04662347,-0.01127632,0.02211734,0.01909166,0.00027475,0.04454432,-0.03688427,-0.02881419,-0.04357006,0.01087543,-0.00098734,-0.04082211,0.03321024,-0.02022678,-0.01697042,0.01715041,-0.04452968,-0.02022822,-0.00775458,-0.00562314,0.03850136,0.02678830,0.02508777,-0.03300544,-0.04061242,-0.03066227,-0.03492856,-0.01370703,-0.02271150,-0.01334609,-0.00372186,0.00146932,0.03228549,0.04685609,-0.04898465,0.03409449,0.04762651,-0.02652257,0.02225233,0.02414780,-0.01044992,0.00453221,-0.04786663,0.00605583,-0.00163358
-0.02442575,-0.00071619,-0.04363352,-0.04323145,-0.03344774,0.04984492,0.04494658,-0.00585715,0.00300893,-0.04835628,-0.00195026,0.01120134,0.01759243,-0.03999425,0.01089001,0.04097436,0.03365584,0.04805168,-0.02766014,-0.03566569,0.00574246,0.04364500,0.01118446,-0.01498974,-0.00224546,-0.01971686,0.01598366,0.04314451,-0.01588638,0.02014020,-0.01475403,0.01536182,-0.00148048,0.00270503,-0.00012959,0.00649704,-0.01902097,-0.00692946,-0.00428551,-0.02432629,-0.03302126,-0.00578067,-0.03439019,-0.00597076,-0.03802264,0.04124494,0.03378204,-0.04310645,0.03997023,0.04299621,-0.00365033,-0.02395512,-0.04343404,-0.01988283,-0.02359037,-0.02778701,-0.00904156,0.01303736,-0.00721128,-0.03173451,0.01734790,0.03104487,0.00131964,-0.02079858,-0.02384465,0.02770093,-0.04283814,0.02608037,-0.01403663,0.01157110,0.03049139,-0.01759028,-0.01890646,0.03382283,-0.04849292,0.00363526,-0.04298406,0.02570281,0.03509652,-0.03899087,-0.03796440,0.03882288,-0.03026340,-0.00972659,-0.03565468,0.00636329,0.00011788,-0.03569787,-0.01632922,-0.01449322,-0.00143123,-0.02629782,-0.00839885,0.03322859,-0.01805067,0.00311858,-0.02305407,0.03086433,0.00168956,-0.02678869,0.00193824,-0.00172036,0.02661688,0.00064259,-0.00723619,-0.01067412,0.02625148,0.04416362,0.02332387,0.00073789,0.03600490,-0.02337313,0.02814065,0.02372746,-0.01264873,0.03236245,0.04252313,0.02253971,0.01637120,-0.02375088,0.00740192,0.01442847,-0.01836941,0.01565236,0.01643645,-0.03765840,-0.01961635,0.02325843
-0.01862416,0.01038690,-0.03992648,0.04710593,-0.04883631,-0.04867417,0.02762546,-0.04549421,0.01047243,0.04051711,-0.01046623,0.04593217,-0.01591396,-0.00857527,-0.01608119,-0.03960631,-0.03445465,0.00301134,0.03014809,-0.03853001,0.03495458,0.03275958,-0.02746580,-0.02383972,0.04836375,-0.02488911,0.04787571,-0.04058383,0.03125989,-0.03117566,-0.02424847,-0.02726833,-0.03473243,0.00377228,-0.00208559,-0.02136135,-0.03414849,-0.00212895,0.02248985,-0.01192981,0.02603868,-0.04756313,0.02512768,0.04883492,0.04508832,0.04832712,-0.00290666,-0.04857969,-0.03432228,0.00551305,0.03816826,-0.02320149,-0.03386279,-0.00098977,-0.03152689,0.04430582,-0.00606004,-0.03360501,0.03122178,-0.03108374,0.03462127,0.03460727,0.02439272,-0.04711085,0.00455783,0.00517040,0.02395144,-0.00742942,0.01807176,-0.03312662,0.00613872,0.02308047,-0.02697070,-0.01927660,-0.01338264,-0.03360219,0.00279687,0.02715182,0.04841607,-0.01978345,-0.03073175,-0.03831110,0.04402892,0.00909408,0.00122876,0.00728028,0.01536519,0.03539186,-0.03116104,0.03208197,0.03859646,-0.03698315,-0.00659581,-0.01735725,-0.03498796,0.03363859,-0.02716628,0.04543729,0.01599967,0.04087828,0.00198617,0.04535069,0.01066440,0.01798787,-0.02704891,0.00125296,0.00203894,-0.01194143,-0.03302480,0.02214624,-0.02831893,-0.00540213,0.00034842,0.04871422,0.02885892,0.01737926,-0.01401183,-0.04124864,0.01194612,0.02987021,-0.04569247,0.03906884,-0.00545695,0.01723819,0.00243186,0.02347868,0.02858135,0.03668830
-0.00472457,-0.01114682,0.03277817,0.01474063,-0.00135956,0.03305471,0.01129629,-0.01352147,0.03418004,-0.02564382,-0.00031326,0.01768656,-0.00068242,-0.04831472,0.04554837,0.04729745,-0.01626555,0.04186529,0.03988883,-0.00197721,-0.03382579,-0.03017146,0.02721706,0.02580312,-0.01400938,-0.00267103,-0.04188487,0.03378276,-0.02814134,0.04179314,-0.01643812,0.01887182,-0.03710070,-0.00142188,-0.02190020,-0.03767085,-0.01140009,0.03431630,-0.02150194,0.04672319,-0.01078536,-0.04618780,-0.01353682,0.03439331,-0.03186719,-0.02346185,0.03767655,0.00060593,-0.00405679,-0.04116865,-0.02514420,0.04311812,0.01035383,0.03578489,0.02101335,-0.03323754,-0.03736117,0.04231298,0.04807254,-0.02317816,-0.02043537,0.02121872,-0.01970032,-0.02723257,0.00075371,0.02157417,0.04728983,0.00065690,-0.02039094,0.00085425,0.00930965,-0.00380646,-0.03369723,-0.04498326,-0.03959499,0.01102970,-0.04113153,-0.01614848,-0.00087183,0.04940284,-0.02030296,0.04947812,-0.01011097,-0.01040826,0.01902807,-0.00155877,-0.00658161,-0.02928345,-0.03639640,-0.03200442,-0.03532326,-0.03727625,0.03777907,-0.02308834,0.01609604,0.02483236,-0.02477989,-0.00433434,0.03479612,0.04999371,0.00486016,-0.02749918,-0.03687414,0.01772571,0.03001207,0.00146262,0.03535376,0.02763906,0.03477560,0.01746580,-0.03477374,-0.04470863,0.01912465,-0.02128465,0.03127089,0.02364853,0.02719343,-0.00323109,0.02222962,-0.03256433,-0.01179854,-0.00114667,0.04675169,0.02102879,-0.03730845,-0.00989317,0.02361764,-0.04874623
-0.00891782,0.04341644,0.00607598,0.03874111,-0.03408652,-0.03279662,-0.03899077,0.02491402,0.02324369,-0.04632762,0.00802060,0.02880881,0.01159359,-0.03196975,0.04178306,0.03455262,-0.00700799,0.01267174,0.01201198,-0.04932386,0.00764362,-0.01306595,0.00726720,0.03940498,-0.00540593,-0.03243870,-0.01061244,-0.01939902,-0.03986105,-0.01396147,0.00299393,-0.04146952,0.04271995,0.03816703,0.01712031,-0.04531173,-0.03403496,0.00627225,0.04042096,0.04198409,0.01116458,0.02042658,0.02645397,-0.01218073,0.01058970,0.01151849,0.01544150,-0.03342104,0.04581821,-0.01118623,0.00738412,0.02032259,0.00386845,0.03981233,-0.00898124,0.00177266,0.03567423,0.01307434,0.01770690,0.03935715,-0.02547394,-0.01254566,0.04605493,-0.03586923,0.01165207,-0.01930703,0.01930709,-0.04832692,-0.02419319,-0.01568799,0.04670135,0.04415398,-0.01423865,0.00647588,-0.04347047,0.02884697,-0.00829249,-0.02627269,0.01655864,-0.04661978,0.01759931,0.03775399,-0.03236565,0.00019688,-0.03932886,0.00940511,-0.03356683,-0.01736503,0.00105921,0.04991828,-0.02955134,0.00051443,-0.00043843,0.01922023,-0.01508159,-0.03484825,-0.00272467,0.03596411,0.03417971,-0.04125807,0.00544905,0.04829369,0.02354215,-0.01687584,-0.01353548,-0.02568075,0.00287159,0.01571624,-0.04396971,0.03086307,0.00640421,0.04198732,-0.00930960,0.04193074,0.04107176,0.04534179,0.04046749,0.02348280,0.04927603,-0.04964492,-0.04765668,-0.04599312,-0.00080707,0.00614646,-0.01887207,-0.02302001,-0.02289844,-0.02178416
-0.00403012,0.04934639,0.04871099,0.00220858,-0.02837504,0.03401325,0.04868642,0.02287664,-0.00592078,-0.00632194,0.01977315,0.01627455,0.00380301,0.02286093,-0.00314167,0.01097907,-0.02696279,0.01881227,-0.00997047,0.03114971,-0.00581930,0.00517061,0.02025590,0.02502942,0.01179879,0.04759813,-0.01061331,0.02401601,0.03459139,-0.04463131,0.02354942,-0.00358528,0.00694196,0.00329571,-0.02837165,-0.01370808,0.03015603,0.04857789,0.03115287,-0.03679443,0.03352493,-0.02748516,0.02339855,0.02278685,0.03490055,0.04663442,0.04046844,0.01231523,0.01967195,0.04791371,0.03401500,-0.00374003,-0.03321866,0.02879909,-0.04946572,-0.01972216,0.01878283,-0.01059576,-0.03861349,-0.02756402,-0.01980937,0.04086182,-0.04887237,-0.03291470,-0.00382191,0.02989945,0.04378199,-0.04575693,-0.01201699,0.00455909,-0.02603643,-0.02446381,0.00185108,0.04203652,-0.02690362,0.01993291,0.04640797,-0.00272376,-0.01938742,-0.01738331,-0.00752088,0.02390245,-0.03387319,-0.01637470,0.02100324,0.03667464,0.04074866,-0.00135700,0.03481965,0.04242191,0.00156138,0.00406270,0.02508882,-0.01097529,0.03752978,-0.02697767,0.04515487,-0.04385738,-0.03168788,-0.04085553,0.02956373,0.01231606,0.02724109,-0.01051628,0.04812596,-0.03465780,0.02731364,-0.02718887,-0.03955045,-0.01921208,0.01279550,0.02989757,-0.03258441,0.03123731,0.04929253,-0.04284845,-0.03872317,0.02190166,-0.03199256,-0.03909937,0.04976570,-0.00331421,-0.03006298,-0.01134384,0.00932702,0.00722629,0.01696507,-0.03248058
0.04316233,-0.00779683,0.01161494,0.04684821,-0.04934562,-0.02105753,0.02403862,0.04461734,0.02071627,0.01185115,-0.03536829,-0.00235850,-0.02533356,0.02394978,-0.02090336,0.01196770,0.03977010,0.03398045,-0.04276343,0.03671183,-0.04635802,0.03948141,0.02327177,-0.00670583,0.03129512,0.01772261,0.04928077,-0.00822666,0.02894695,-0.04989953,-0.03661944,-0.03606704,-0.01386915,-0.03259386,0.04130817,0.04934811,0.01447716,-0.01358219,-0.04869563,0.04420659,0.01625689,-0.03803520,-0.02837933,-0.01924999,-0.04858813,-0.03958381,-0.01242828,-0.04008561,0.00167705,0.03073109,-0.02592010,0.01951655,-0.03035916,-0.02733933,-0.04444254,0.03083780,-0.04153089,0.00375389,0.00190544,-0.03033453,-0.00479221,0.01046658,0.04727182,0.04475817,0.02409952,-0.02106120,0.03944289,-0.03056175,0.01141684,-0.00506872,-0.04346084,-0.03646547,-0.04026446,-0.02140738,-0.00307143,0.01056737,-0.04367536,0.01464653,0.00501775,0.00084760,0.03672658,0.02182670,-0.03211772,-0.03692510,0.04904375,-0.04297893,-0.01827911,-0.00325422,0.03392872,0.03095716,0.02557571,0.04807151,0.03998931,0.03679029,0.00413578,0.04562479,0.03529341,-0.04803251,-0.00766624,-0.04248896,0.03908897,0.01568479,0.03217778,0.04127157,0.03685049,0.04632896,0.03545612,0.02502030,-0.04665068,0.04077264,-0.01509950,0.04075066,-0.02782084,-0.04524513,0.01616808,-0.04547944,-0.04188557,-0.00992621,0.04822691,0.01482106,0.02858559,-0.04696978,-0.02023899,0.00919768,0.00291586,0.03383106,0.04072195,0.04076189
